{
  "layerSizes": [
    784,
    20,
    15,
    10
  ],
  "activationFunctions": [
    {
      "@class": "edu.yaprnn.networks.activation.GeLUActivationFunction"
    },
    {
      "@class": "edu.yaprnn.networks.activation.GeLUActivationFunction"
    },
    {
      "@class": "edu.yaprnn.networks.activation.GeLUActivationFunction"
    },
    {
      "@class": "edu.yaprnn.networks.activation.GeLUActivationFunction"
    }
  ],
  "bias": -1.0,
  "lossFunction": {
    "@class": "edu.yaprnn.networks.loss.HalfSquaredErrorLossFunction"
  },
  "name": "digits GeLU 20,15",
  "layerWeights": [
    [
      6.098862E-9,
      6.1537446E-9,
      -6.1488317E-9,
      6.138822E-9,
      6.151606E-9,
      6.1377388E-9,
      -2.0194397E-9,
      5.450973E-11,
      6.1385714E-9,
      6.138907E-9,
      6.13475E-9,
      -6.1476078E-9,
      -6.130048E-9,
      9.1862384E-10,
      6.1287264E-9,
      -6.1004233E-9,
      -6.1480394E-9,
      3.5718628E-10,
      2.6351632E-10,
      -6.144618E-9,
      6.1242287E-9,
      -6.1357075E-9,
      6.145462E-9,
      -9.166006E-10,
      6.1318617E-9,
      -4.311871E-9,
      6.148393E-9,
      6.1499486E-9,
      6.1159633E-9,
      -7.4869444E-11,
      6.1124497E-9,
      -6.115061E-9,
      -6.1385714E-9,
      6.151947E-9,
      -6.126234E-9,
      -6.1296466E-9,
      4.2257842E-10,
      6.1387615E-9,
      4.5699E-10,
      6.1386727E-9,
      -6.1479755E-9,
      -6.1364376E-9,
      6.1454424E-9,
      -6.13475E-9,
      6.108241E-9,
      -6.152837E-9,
      4.661098E-10,
      -6.13475E-9,
      -2.5993137E-9,
      -4.363998E-10,
      -6.0936802E-9,
      -6.1485688E-9,
      6.1189707E-9,
      -6.1385714E-9,
      6.1549295E-9,
      5.300471E-11,
      6.1295826E-9,
      -2.0582709E-9,
      -6.1489525E-9,
      6.138726E-9,
      -6.1502097E-9,
      -6.1373107E-9,
      6.1502097E-9,
      -4.080394E-9,
      6.145833E-9,
      -6.098979E-9,
      -6.138726E-9,
      6.1214203E-9,
      -6.1476007E-9,
      -6.1388077E-9,
      6.145636E-9,
      6.13987E-9,
      -2.6351632E-10,
      -6.1484053E-9,
      6.1017182E-9,
      6.140856E-9,
      6.1297922E-9,
      6.1503482E-9,
      -6.1258487E-9,
      3.3844065E-9,
      6.1264225E-9,
      -6.1385714E-9,
      3.5865888E-10,
      6.148336E-9,
      6.1385697E-9,
      -6.151741E-9,
      -6.1369616E-9,
      6.143816E-9,
      6.149899E-9,
      6.1447123E-9,
      -3.5719339E-10,
      -6.1487464E-9,
      -6.1256213E-9,
      6.1483787E-9,
      6.147565E-9,
      6.1502115E-9,
      6.147835E-9,
      6.126394E-9,
      -6.154029E-9,
      -6.1518617E-9,
      6.1389E-9,
      -6.1290835E-9,
      -6.1503695E-9,
      6.1314434E-9,
      6.1489294E-9,
      -6.138694E-9,
      -1.4519506E-9,
      -6.1291296E-9,
      -6.147828E-9,
      -7.3308826E-10,
      -6.1258096E-9,
      6.1529044E-9,
      6.1484142E-9,
      6.1004557E-9,
      -6.713181E-10,
      6.1480767E-9,
      3.5865888E-10,
      6.1886887E-9,
      4.309917E-9,
      6.121456E-9,
      3.5865888E-10,
      -6.1368195E-9,
      -6.148336E-9,
      -6.1476557E-9,
      6.1309535E-9,
      6.1502914E-9,
      6.1378738E-9,
      -6.1518617E-9,
      -1.052185E-10,
      -2.5756286E-11,
      6.138488E-9,
      6.1478564E-9,
      -6.1500267E-9,
      6.1477996E-9,
      6.138783E-9,
      6.1478564E-9,
      -3.3670933E-10,
      -6.1497993E-9,
      -6.092601E-9,
      6.1385714E-9,
      6.1484977E-9,
      -6.152366E-9,
      -6.1481122E-9,
      6.1502097E-9,
      -6.128087E-9,
      5.429519E-9,
      -6.152677E-9,
      6.1551426E-9,
      6.1518475E-9,
      -4.3204045E-9,
      4.5699E-10,
      6.1247225E-9,
      -6.127886E-9,
      6.138993E-9,
      6.129112E-9,
      6.1388254E-9,
      -6.148462E-9,
      -6.1377583E-9,
      6.1483787E-9,
      6.1490413E-9,
      -6.139408E-9,
      6.1204894E-9,
      -6.1214203E-9,
      6.1492083E-9,
      6.1369048E-9,
      -6.1489613E-9,
      -4.2258907E-10,
      -4.6891113E-10,
      -3.5384842E-9,
      -1.4521211E-9,
      6.1557928E-9,
      6.1465952E-9,
      6.153132E-9,
      6.1491443E-9,
      6.1385714E-9,
      -6.1021304E-9,
      6.148034E-9,
      6.1385714E-9,
      -6.1373373E-9,
      -6.139042E-9,
      -6.1409695E-9,
      -6.1021233E-9,
      -6.148084E-9,
      -6.1488867E-9,
      -6.1524834E-9,
      -1.3924728E-10,
      -6.1200702E-9,
      6.135634E-9,
      6.125561E-9,
      -6.14775E-9,
      -6.1394223E-9,
      -6.1499525E-9,
      -3.5719339E-10,
      6.1504832E-9,
      -6.1296537E-9,
      6.1486736E-9,
      6.147835E-9,
      6.153748E-9,
      -6.1504917E-9,
      6.1449414E-9,
      -3.5865888E-10,
      2.635483E-10,
      4.3109827E-9,
      -6.1020025E-9,
      -6.1487464E-9,
      -6.1530003E-9,
      -6.1447425E-9,
      -6.130918E-9,
      -6.1018888E-9,
      6.1454175E-9,
      3.5718806E-10,
      6.126101E-9,
      6.1499525E-9,
      3.5564183E-9,
      -6.1296537E-9,
      6.092626E-9,
      6.148187E-9,
      6.1404366E-9,
      6.148176E-9,
      -6.1206387E-9,
      -6.1488867E-9,
      6.1379946E-9,
      -1.4520642E-9,
      6.1404473E-9,
      6.0969985E-9,
      -6.148688E-9,
      6.1388716E-9,
      6.1378596E-9,
      -6.1488885E-9,
      6.1487997E-9,
      6.149913E-9,
      6.1483396E-9,
      1.4535031E-9,
      6.1486523E-9,
      1.3770132E-9,
      6.143393E-9,
      -6.121399E-9,
      -6.1490377E-9,
      -6.150547E-9,
      -6.1515135E-9,
      6.17703E-9,
      3.928086E-9,
      -2.2947044E-9,
      -2.2044766E-9,
      4.7365845E-10,
      -3.5962286E-9,
      -4.6408024E-9,
      8.7317176E-10,
      -1.5697332E-9,
      3.2516767E-9,
      -4.7311843E-9,
      6.4404886E-9,
      -5.15763E-10,
      1.438111E-9,
      -4.7027484E-9,
      -4.8277324E-9,
      6.455633E-9,
      4.2153325E-9,
      -4.9914934E-9,
      -2.789303E-9,
      -6.820735E-9,
      -3.2323073E-9,
      -4.5141197E-9,
      -4.5657087E-9,
      -7.1900264E-11,
      -2.2899886E-9,
      -1.6844255E-9,
      -2.4761322E-9,
      6.1710277E-9,
      -4.5392543E-9,
      -6.238392E-10,
      -1.2299566E-9,
      1.5322832E-9,
      5.7906453E-9,
      5.481175E-9,
      1.3350165E-10,
      5.542143E-9,
      5.9213487E-9,
      6.0268683E-9,
      -7.4656725E-11,
      6.504895E-9,
      -3.2387129E-9,
      -3.977269E-9,
      -5.353474E-9,
      -4.1645043E-10,
      3.2710346E-9,
      1.7951391E-9,
      1.2420402E-9,
      2.3883469E-9,
      6.9263595E-9,
      6.1959704E-9,
      3.9300794E-9,
      -7.958074E-10,
      5.5914375E-9,
      5.47586E-9,
      1.4067814E-10,
      -2.212757E-9,
      1.4803154E-9,
      5.8467386E-9,
      -4.4297286E-9,
      3.3038208E-9,
      -8.223644E-10,
      -9.756067E-10,
      4.478582E-10,
      6.576944E-9,
      -4.688966E-9,
      -5.898307E-9,
      2.3847515E-9,
      -4.8362634E-9,
      4.0682417E-9,
      -2.124104E-9,
      -5.718035E-10,
      -4.6033994E-9,
      -2.9827287E-9,
      -6.0093917E-9,
      1.2660086E-9,
      -5.6270295E-9,
      -1.9290027E-9,
      -4.5785193E-9,
      7.964296E-11,
      6.134517E-9,
      6.155164E-9,
      6.1481122E-9,
      6.1505685E-9,
      6.1535244E-9,
      6.1406142E-9,
      6.14851E-9,
      6.1423657E-9,
      6.127346E-9,
      6.120731E-9,
      -6.15421E-9,
      6.139536E-9,
      6.140927E-9,
      6.1455454E-9,
      6.152805E-9,
      6.148519E-9,
      -6.1502097E-9,
      6.147828E-9,
      6.1301404E-9,
      -9.190928E-10,
      6.1251826E-9,
      -6.151512E-9,
      6.148851E-9,
      6.136823E-9,
      6.1503482E-9,
      6.1448846E-9,
      3.586571E-10,
      6.1295666E-9,
      -6.139479E-9,
      6.138623E-9,
      6.1080896E-9,
      6.12147E-9,
      -6.120184E-9,
      -6.1451244E-9,
      6.149839E-9,
      6.1551426E-9,
      6.1446697E-9,
      7.3048056E-10,
      6.151691E-9,
      6.148034E-9,
      6.121399E-9,
      -6.14886E-9,
      -6.1213776E-9,
      6.1272822E-9,
      -4.3103645E-9,
      6.1480643E-9,
      -6.365122E-9,
      6.136324E-9,
      -6.1484604E-9,
      6.1146133E-9,
      6.1457888E-9,
      6.127044E-9,
      -4.121654E-10,
      6.147835E-9,
      -6.151819E-9,
      6.122893E-9,
      -6.1505543E-9,
      -6.1214736E-9,
      6.1254473E-9,
      6.1392518E-9,
      4.2258907E-10,
      -6.1479417E-9,
      6.1478973E-9,
      -6.147144E-9,
      6.1293517E-9,
      6.2071885E-9,
      6.1022547E-9,
      6.1515704E-9,
      6.1502097E-9,
      -6.150469E-9,
      6.149244E-9,
      6.1456022E-9,
      -6.1386176E-9,
      -6.1489933E-9,
      6.1265326E-9,
      3.5718806E-10,
      -6.1264953E-9,
      6.1530856E-9,
      -6.151002E-9,
      -6.1499525E-9,
      6.1533667E-9,
      -6.1479417E-9,
      -6.1499135E-9,
      6.1485474E-9,
      6.1204823E-9,
      6.153375E-9,
      -6.1502097E-9,
      -2.5628628E-9,
      -6.1377103E-9,
      6.102013E-9,
      -6.1511014E-9,
      -6.1493894E-9,
      -6.1487304E-9,
      6.118855E-9,
      -6.1439476E-9,
      -6.1379875E-9,
      -6.1531282E-9,
      -6.1503695E-9,
      3.5719339E-10,
      6.128572E-9,
      -6.1467427E-9,
      6.148343E-9,
      6.129375E-9,
      -6.154601E-9,
      6.1502097E-9,
      6.147615E-9,
      -6.1020593E-9,
      -6.1487233E-9,
      -6.14864E-9,
      -6.1489667E-9,
      4.559541E-9,
      6.148766E-9,
      -6.138488E-9,
      -4.3639448E-10,
      6.1212284E-9,
      -6.1453536E-9,
      6.1018177E-9,
      -6.1263976E-9,
      6.153114E-9,
      6.1499135E-9,
      -6.124463E-9,
      -4.689076E-10,
      6.1502097E-9,
      -6.121342E-9,
      -6.1486896E-9,
      -6.148661E-9,
      -6.137284E-9,
      -6.1402305E-9,
      -6.1489187E-9,
      6.1456307E-9,
      6.098759E-9,
      5.4507954E-11,
      -6.1511014E-9,
      6.139813E-9,
      -6.147565E-9,
      6.1504193E-9,
      -6.1317422E-9,
      6.1493575E-9,
      -6.1321868E-9,
      6.1528973E-9,
      -6.101047E-9,
      6.149855E-9,
      -6.147997E-9,
      1.604664E-9,
      -6.1385252E-9,
      6.126394E-9,
      -6.1379004E-9,
      6.1498064E-9,
      -6.1297283E-9,
      -6.1489596E-9,
      6.1524834E-9,
      6.1385714E-9,
      6.1494783E-9,
      6.1377157E-9,
      6.138836E-9,
      6.150119E-9,
      6.129675E-9,
      5.4197065E-9,
      -2.567183E-9,
      6.1287992E-9,
      6.127538E-9,
      6.1372556E-9,
      6.148837E-9,
      6.138815E-9,
      -6.1616774E-9,
      -6.128483E-9,
      -6.1053917E-9,
      6.1487073E-9,
      6.1260566E-9,
      6.1484817E-9,
      6.1503695E-9,
      -6.148796E-9,
      4.2257842E-10,
      6.1479346E-9,
      -6.1502097E-9,
      6.149835E-9,
      -6.1480057E-9,
      6.1499525E-9,
      6.148908E-9,
      6.1490146E-9,
      -6.1486967E-9,
      6.138584E-9,
      6.1276517E-9,
      5.300471E-11,
      -6.150462E-9,
      -6.138733E-9,
      -6.151542E-9,
      6.1502097E-9,
      6.1408274E-9,
      6.1477783E-9,
      1.3924728E-10,
      9.294525E-10,
      -6.151947E-9,
      -6.1379732E-9,
      6.12147E-9,
      -6.149956E-9,
      -6.1371925E-9,
      -3.1660097E-10,
      -6.1484533E-9,
      4.3361714E-9,
      6.1327E-9,
      -6.1485474E-9,
      6.103118E-10,
      -6.095725E-9,
      4.2257842E-10,
      -6.154258E-9,
      -6.120866E-9,
      -2.5752733E-11,
      6.1527765E-9,
      -6.1544854E-9,
      6.1499525E-9,
      -6.1534036E-9,
      -6.138701E-9,
      -6.1385714E-9,
      -6.138497E-9,
      -6.130918E-9,
      6.1479417E-9,
      6.138893E-9,
      -1.6006174E-9,
      6.1518333E-9,
      -6.12163E-9,
      6.139248E-9,
      5.3888893E-10,
      -6.1212E-9,
      -6.116784E-9,
      -6.1018746E-9,
      -6.153375E-9,
      -6.1435994E-9,
      -6.1471814E-9,
      6.1476007E-9,
      6.1512613E-9,
      3.3850887E-9,
      -6.151043E-9,
      6.121271E-9,
      -6.145517E-9,
      6.137341E-9,
      6.1490146E-9,
      -6.121278E-9,
      4.288238E-9,
      -6.1311862E-9,
      -6.146329E-9,
      -6.138788E-9,
      6.1502097E-9,
      6.1498846E-9,
      6.1531282E-9,
      -6.1219536E-9,
      -6.141076E-9,
      6.1524834E-9,
      1.4534391E-9,
      6.1287833E-9,
      6.1515597E-9,
      -6.1483183E-9,
      6.1546808E-9,
      6.128087E-9,
      6.1479044E-9,
      -6.095295E-9,
      -6.1215233E-9,
      4.2258907E-10,
      6.1294227E-9,
      -8.361609E-10,
      6.131785E-9,
      -6.1304317E-9,
      6.1385252E-9,
      6.140273E-9,
      -6.1145564E-9,
      -6.1212924E-9,
      6.138648E-9,
      3.583427E-10,
      -6.137634E-9,
      6.102116E-9,
      6.1370504E-9,
      6.1387224E-9,
      -6.1211627E-9,
      -6.1440044E-9,
      6.1528653E-9,
      -6.1519185E-9,
      -3.5719339E-10,
      6.1268737E-9,
      6.148169E-9,
      -6.1549934E-9,
      -6.1551284E-9,
      6.1296395E-9,
      -6.1253655E-9,
      -6.1279857E-9,
      -6.1274954E-9,
      6.148908E-9,
      -6.153631E-9,
      -6.148084E-9,
      6.138648E-9,
      6.1483645E-9,
      -6.712826E-10,
      6.1410406E-9,
      6.15248E-9,
      6.1301617E-9,
      6.1484906E-9,
      6.14918E-9,
      -6.128469E-9,
      -9.218071E-10,
      -6.1480554E-9,
      -6.13776E-9,
      6.1551426E-9,
      6.147247E-9,
      -6.1519683E-9,
      6.1524834E-9,
      6.1533822E-9,
      6.1482757E-9,
      6.1524834E-9,
      9.416703E-10,
      3.5719339E-10,
      4.3009427E-9,
      6.153375E-9,
      6.1385714E-9,
      6.147679E-9,
      -6.1403087E-9,
      6.1377032E-9,
      6.134093E-9,
      9.2157615E-10,
      6.138843E-9,
      6.137387E-9,
      4.7560178E-11,
      6.148162E-9,
      6.1247367E-9,
      -6.096286E-9,
      -6.15248E-9,
      6.1549366E-9,
      6.148901E-9,
      6.148629E-9,
      -6.1296537E-9,
      6.1358905E-9,
      6.1212853E-9,
      -6.140273E-9,
      -5.300471E-11,
      -6.1531105E-9,
      6.1385714E-9,
      -6.153979E-9,
      -6.1476646E-9,
      6.1386727E-9,
      6.1385714E-9,
      -6.1499525E-9,
      -6.1388787E-9,
      -6.1208536E-9,
      6.148981E-9,
      -3.5865888E-10,
      -6.143919E-9,
      6.1387313E-9,
      -6.154322E-9,
      -6.1503127E-9,
      -6.1487873E-9,
      6.1385714E-9,
      -6.1291616E-9,
      -6.155022E-9,
      -6.1547234E-9,
      6.1486114E-9,
      -6.1487375E-9,
      -6.148851E-9,
      6.148965E-9,
      -6.1531282E-9,
      6.1484036E-9,
      -6.1510375E-9,
      -6.1304317E-9,
      -9.69588E-10,
      4.434101E-9,
      -3.7410635E-9,
      1.2343766E-9,
      2.1846351E-9,
      -3.0704168E-9,
      -2.6377118E-9,
      4.5554573E-9,
      3.5863663E-9,
      -9.9372954E-11,
      -6.946658E-9,
      -4.975091E-9,
      1.0270012E-9,
      -2.9278295E-9,
      -2.6805873E-9,
      4.367592E-9,
      -1.9333926E-9,
      -4.4967554E-9,
      -1.7468982E-9,
      2.5684677E-9,
      -5.5111515E-9,
      -2.3240125E-9,
      5.643609E-9,
      -5.1595412E-9,
      -3.18533E-9,
      -4.131602E-9,
      3.236786E-9,
      -5.30169E-9,
      2.1453719E-9,
      4.1799497E-10,
      -2.418532E-10,
      -1.4514407E-9,
      2.5231413E-9,
      5.5023186E-9,
      2.722023E-9,
      -3.8302135E-9,
      2.879744E-9,
      4.828853E-9,
      2.591515E-9,
      8.3076923E-10,
      -4.163167E-9,
      -4.3598596E-9,
      5.019659E-9,
      6.6654677E-9,
      -1.9722965E-9,
      6.885541E-10,
      6.8839765E-9,
      -6.053647E-9,
      -6.2511956E-9,
      -4.7499804E-9,
      -3.3380037E-9,
      4.546853E-9,
      6.8265127E-10,
      -5.4232374E-9,
      -3.1414276E-9,
      -3.393088E-9,
      4.2368553E-9,
      5.47777E-9,
      -5.8376015E-10,
      -2.4266902E-7,
      2.4287208E-9,
      3.6090624E-9,
      2.9846645E-9,
      -3.1677527E-9,
      2.7095246E-9,
      -3.4694225E-9,
      2.5014129E-9,
      1.2198629E-9,
      6.3730723E-9,
      -4.591041E-9,
      9.1314956E-11,
      5.5369043E-11,
      -6.2726437E-9,
      4.73364E-9,
      3.3342706E-10,
      2.6035756E-9,
      1.8293189E-9,
      -1.4279151E-9,
      2.4360687E-9,
      -1.843477E-7,
      -4.702863E-9,
      -3.9330006E-9,
      -3.4405607E-9,
      -6.7628045E-9,
      4.5251536E-10,
      -1.4137056E-9,
      -5.164614E-9,
      -3.1225662E-9,
      3.795172E-9,
      6.3384156E-9,
      -5.3886637E-9,
      3.958993E-10,
      2.0397057E-9,
      -4.9072986E-9,
      -4.5382844E-9,
      -5.069128E-9,
      5.965952E-9,
      9.360543E-10,
      2.4735565E-9,
      1.2804695E-9,
      -6.1337095E-9,
      7.347003E-10,
      5.7706573E-9,
      -1.2050285E-9,
      5.008772E-9,
      4.7987188E-9,
      6.025087E-10,
      -5.9245586E-9,
      1.0120407E-9,
      4.3818176E-9,
      -3.7448142E-9,
      -4.0838666E-9,
      3.6217518E-10,
      2.3343905E-10,
      2.5245215E-9,
      -6.2001138E-9,
      -2.359779E-10,
      6.3314816E-9,
      -3.2124858E-9,
      -1.4021251E-9,
      5.391956E-9,
      5.8613487E-9,
      2.6427505E-9,
      6.7770496E-9,
      -1.5685288E-7,
      5.1992465E-8,
      -5.854971E-7,
      -4.295419E-9,
      -1.2122531E-7,
      1.4127188E-10,
      1.010005E-9,
      3.2241245E-9,
      -3.7704773E-10,
      5.582053E-9,
      -1.6162507E-9,
      3.4158076E-9,
      -2.4096591E-9,
      7.9063426E-8,
      -6.105771E-8,
      1.6369685E-6,
      -4.7169273E-9,
      7.8522033E-10,
      5.533778E-10,
      9.588672E-10,
      3.89405E-9,
      9.424525E-8,
      6.332045E-9,
      7.647847E-10,
      5.8217817E-9,
      -3.0812934E-9,
      -3.8531085E-9,
      -2.9109337E-10,
      2.8146472E-9,
      6.0993766E-9,
      -2.7119404E-9,
      -3.6781302E-9,
      5.518972E-10,
      2.4321332E-9,
      8.05779E-10,
      6.1729634E-7,
      5.1091287E-9,
      -3.938588E-9,
      -4.675479E-9,
      -1.977714E-9,
      5.199974E-9,
      7.628538E-10,
      -3.8838515E-9,
      1.152374E-6,
      -2.8669893E-9,
      -1.3018893E-9,
      6.32759E-9,
      1.0666348E-9,
      5.107558E-9,
      5.9887144E-9,
      -1.6493917E-10,
      1.2659909E-9,
      6.4534587E-9,
      -2.5359088E-9,
      -1.4434853E-10,
      -4.713063E-9,
      -6.3830083E-9,
      -4.877848E-9,
      -3.4391912E-10,
      5.2543374E-9,
      4.4240283E-9,
      -3.3411536E-9,
      -1.2508297E-9,
      2.617746E-6,
      -4.475735E-9,
      -6.3724412E-9,
      5.9278404E-9,
      6.585738E-9,
      -3.4209764E-9,
      -4.60531E-9,
      2.5550757E-9,
      -5.9668954E-9,
      -3.3091099E-9,
      4.8626294E-9,
      -5.142345E-9,
      4.566032E-9,
      3.7794985E-9,
      6.939148E-9,
      2.2337687E-10,
      -3.3238177E-9,
      8.8283736E-10,
      -6.9033557E-9,
      6.6441537E-9,
      -5.982142E-9,
      -5.3689937E-9,
      2.1648652E-9,
      2.3556326E-9,
      -5.957371E-9,
      5.008895E-8,
      3.4599594E-9,
      3.2167997E-9,
      5.2746847E-9,
      -4.770458E-9,
      -4.6010213E-9,
      4.6616044E-12,
      7.5902795E-10,
      -6.0565375E-10,
      -1.6069284E-9,
      2.7605278E-9,
      -3.4565968E-9,
      6.63905E-9,
      -3.9866395E-9,
      -5.5810383E-9,
      -1.815732E-9,
      1.2656383E-9,
      -5.290672E-9,
      -1.5600197E-9,
      2.2583633E-9,
      6.42546E-10,
      6.089464E-9,
      4.892893E-9,
      3.6409258E-9,
      -4.6613553E-9,
      -2.764149E-10,
      -9.910233E-10,
      5.032428E-9,
      6.50982E-9,
      9.595351E-10,
      4.753772E-9,
      -4.7317035E-9,
      4.446154E-9,
      3.9993235E-9,
      -4.8307514E-9,
      4.7472692E-11,
      4.421097E-9,
      3.2273473E-10,
      3.6787182E-9,
      5.716483E-9,
      -1.0379829E-7,
      -5.163951E-9,
      -5.9708176E-9,
      -6.7029746E-9,
      2.592457E-9,
      -2.6051628E-9,
      -2.8005074E-9,
      -1.158047E-9,
      5.8216627E-9,
      3.3599314E-9,
      -3.9411385E-9,
      -2.4960434E-9,
      5.118122E-9,
      -9.700405E-10,
      2.7889828E-9,
      4.4277795E-9,
      -1.8087483E-9,
      6.653424E-9,
      3.058672E-9,
      -3.0993852E-9,
      3.2961087E-9,
      -6.971699E-10,
      -4.4141246E-9,
      -1.043245E-9,
      3.779909E-9,
      3.0688354E-9,
      6.3643313E-10,
      -4.7784963E-9,
      1.5182122E-10,
      5.7888854E-9,
      -3.0238083E-9,
      3.8632164E-9,
      5.1007443E-9,
      -2.153953E-9,
      2.1706539E-9,
      2.3405846E-9,
      -3.780806E-9,
      -4.8004467E-9,
      6.483004E-9,
      -9.654082E-10,
      -1.0257262E-10,
      2.1204554E-9,
      5.3788884E-9,
      1.2067471E-9,
      -2.837952E-10,
      1.8043251E-9,
      -3.6409107E-9,
      6.615952E-10,
      1.2926207E-9,
      5.5867213E-9,
      2.943748E-9,
      3.2878966E-9,
      -6.5144943E-9,
      -5.092339E-9,
      -2.4596902E-9,
      1.8023414E-9,
      -2.2356792E-9,
      -1.2223236E-9,
      -6.044082E-9,
      -1.4965544E-9,
      -2.5759261E-10,
      -6.5366876E-9,
      6.0127676E-9,
      2.1086395E-9,
      5.9752328E-9,
      1.7598447E-9,
      -3.6836987E-9,
      -7.0682393E-10,
      5.062944E-9,
      4.426746E-9,
      -1.4159562E-10,
      -2.1917281E-9,
      -1.1331025E-10,
      5.363416E-9,
      9.230452E-10,
      -3.1235503E-10,
      -6.5310712E-9,
      -1.858476E-9,
      5.1130318E-9,
      -6.8603625E-9,
      -6.189605E-9,
      2.4529712E-10,
      -7.460943E-10,
      -2.781162E-10,
      -3.3833571E-9,
      3.4830143E-9,
      -2.4287727E-10,
      3.1954293E-9,
      6.2528187E-9,
      5.2073204E-9,
      -3.2521172E-9,
      -6.5917862E-9,
      2.401379E-9,
      3.1371505E-9,
      1.0460544E-9,
      -5.932375E-9,
      -3.57007E-9,
      -4.0136796E-9,
      -5.875465E-9,
      4.137576E-9,
      3.1859515E-9,
      1.4371615E-11,
      -2.833287E-9,
      -3.7467944E-9,
      3.1058267E-11,
      3.1055882E-9,
      -6.4485794E-10,
      -4.9044613E-9,
      -4.2257842E-10,
      9.455605E-10,
      6.1200844E-9,
      -6.144581E-9,
      6.154624E-9,
      -6.1524834E-9,
      -6.152066E-9,
      6.1696293E-9,
      6.1384133E-9,
      6.1551426E-9,
      6.1064096E-9,
      4.2257842E-10,
      6.1482046E-9,
      6.1446324E-9,
      6.1214505E-9,
      -4.5802562E-10,
      6.148709E-9,
      6.144698E-9,
      4.118202E-9,
      6.129675E-9,
      -6.17495E-9,
      3.5718628E-10,
      -6.1385714E-9,
      -6.169291E-9,
      6.12692E-9,
      -6.1175673E-9,
      -6.129634E-9,
      -6.1318417E-9,
      6.154407E-9,
      6.129689E-9,
      -6.138335E-9,
      4.6611515E-10,
      6.1451138E-9,
      -6.138048E-9,
      -6.1287833E-9,
      2.5707072E-9,
      6.1275736E-9,
      -6.1546808E-9,
      6.1463554E-9,
      6.1480128E-9,
      6.149002E-9,
      -3.571916E-10,
      6.1387153E-9,
      -6.1296537E-9,
      -6.1486736E-9,
      6.1402803E-9,
      6.1551426E-9,
      6.148034E-9,
      6.126607E-9,
      -6.148521E-9,
      6.1484267E-9,
      -6.1385714E-9,
      6.136949E-9,
      -6.132414E-9,
      6.148034E-9,
      6.137794E-9,
      -6.124879E-9,
      3.5865888E-10,
      6.14886E-9,
      -6.1280425E-9,
      6.154727E-9,
      6.151947E-9,
      6.1479275E-9,
      -6.1369207E-9,
      3.5718806E-10,
      -6.1505827E-9,
      6.151599E-9,
      6.137213E-9,
      -6.153837E-9,
      -6.1485386E-9,
      -6.139328E-9,
      6.147835E-9,
      -6.121214E-9,
      -9.2157615E-10,
      -6.129112E-9,
      -6.1296537E-9,
      -6.130048E-9,
      6.128087E-9,
      -6.1515064E-9,
      3.304641E-9,
      6.1433214E-9,
      6.129382E-9,
      6.150034E-9,
      6.136324E-9,
      6.1515775E-9,
      6.2075545E-9,
      -6.137902E-9,
      6.1409855E-9,
      -6.1275416E-9,
      6.1487073E-9,
      6.1484E-9,
      -6.1595604E-9,
      6.0974195E-9,
      -6.1159633E-9,
      -6.1483965E-9,
      6.148034E-9,
      6.13987E-9,
      6.1499525E-9,
      -6.138328E-9,
      -6.1484124E-9,
      -6.148407E-9,
      -3.5718806E-10,
      -6.1208874E-9,
      1.604664E-9,
      6.107216E-9,
      6.1385714E-9,
      6.1474514E-9,
      -6.1537233E-9,
      -6.1207097E-9,
      6.148773E-9,
      4.3950887E-10,
      -6.147544E-9,
      -6.1551426E-9,
      -6.2021774E-9,
      -6.0936802E-9,
      6.1483965E-9,
      6.153574E-9,
      6.193972E-9,
      -6.1485332E-9,
      -2.5649092E-9,
      -6.3254872E-9,
      9.496106E-10,
      -4.5846535E-9,
      6.102199E-9,
      2.7016078E-10,
      -4.3217367E-9,
      -4.1728976E-10,
      -3.5051304E-9,
      -1.527074E-9,
      1.0522117E-9,
      -2.3876323E-10,
      -3.649791E-9,
      -4.462418E-9,
      -6.141405E-9,
      -5.0576907E-9,
      7.0045316E-9,
      -5.782001E-9,
      5.0551643E-9,
      -4.8394146E-9,
      3.9898453E-9,
      4.8697486E-9,
      -5.1035E-10,
      1.8041497E-9,
      5.6528875E-9,
      4.716086E-9,
      8.4924245E-10,
      6.2786834E-9,
      1.969739E-9,
      -6.1148357E-9,
      -6.49904E-9,
      -2.3675217E-9,
      -5.1818034E-9,
      -2.3494189E-9,
      -2.9148066E-9,
      2.3959026E-9,
      -5.2363296E-9,
      1.934191E-9,
      4.8778466E-9,
      3.9618717E-9,
      -4.3198245E-10,
      1.8127944E-9,
      -6.6755708E-9,
      5.0275064E-9,
      5.484799E-9,
      5.352155E-9,
      -1.2126131E-9,
      2.322445E-9,
      -6.906621E-9,
      -5.3788423E-9,
      -5.4718186E-10,
      1.586975E-10,
      5.7975686E-9,
      4.423011E-9,
      4.2419077E-9,
      2.1976083E-9,
      2.0891364E-9,
      -4.3512514E-9,
      -1.6653656E-9,
      -4.1922026E-9,
      5.269678E-10,
      2.5799096E-10,
      -2.7684806E-9,
      6.3850356E-9,
      -8.145258E-10,
      -5.7510947E-9,
      4.843286E-10,
      2.7862321E-9,
      -4.1426316E-9,
      5.098364E-9,
      -5.2039177E-9,
      -1.9805078E-9,
      -2.6783393E-9,
      3.2597498E-9,
      5.0353384E-9,
      4.7854245E-9,
      5.7575025E-9,
      -5.8401293E-9,
      4.1867576E-10,
      6.0948E-9,
      1.6543642E-9,
      5.0191717E-9,
      5.703383E-9,
      -3.2059755E-9,
      9.816388E-10,
      -6.042711E-9,
      -1.2120651E-9,
      -5.9060548E-9,
      -4.9660365E-9,
      2.8786395E-9,
      5.75762E-9,
      -2.6183264E-9,
      -4.470758E-9,
      -2.2403213E-9,
      -3.200439E-9,
      -5.816272E-9,
      -5.253414E-9,
      5.324027E-9,
      -6.98976E-10,
      5.244161E-9,
      4.5883746E-9,
      6.4742687E-9,
      1.0625483E-9,
      1.7737767E-10,
      1.6717148E-9,
      5.6015312E-9,
      -1.6615211E-9,
      4.2740922E-10,
      -2.6076648E-9,
      -4.074052E-9,
      6.8673227E-9,
      -4.05417E-9,
      -3.0469738E-9,
      5.8348806E-9,
      -2.011252E-9,
      5.4678466E-9,
      -5.9143033E-9,
      -3.439975E-9,
      -7.2478024E-11,
      -1.6280288E-9,
      -1.0316019E-9,
      -2.9652178E-9,
      5.4339515E-9,
      4.1517314E-9,
      -6.7163586E-9,
      6.767433E-9,
      -6.2386802E-9,
      5.2463487E-9,
      -5.337579E-9,
      -4.486657E-9,
      6.6254913E-9,
      4.3205794E-9,
      -6.7417942E-9,
      2.7764653E-9,
      -3.928613E-10,
      -6.639759E-9,
      -6.050213E-9,
      1.7852386E-11,
      5.696471E-9,
      -6.355877E-9,
      1.3484329E-9,
      -2.2597106E-9,
      -5.293182E-9,
      -5.849532E-9,
      -5.290093E-9,
      1.1473933E-11,
      5.6942127E-9,
      6.68767E-9,
      -1.0869172E-9,
      1.7482868E-9,
      -3.5881884E-9,
      4.7622675E-9,
      -1.6291057E-9,
      2.3547453E-9,
      5.0955538E-9,
      3.6942365E-9,
      2.4613374E-9,
      2.6223015E-9,
      5.2826676E-10,
      5.2706346E-9,
      -2.7433498E-7,
      6.6675856E-9,
      4.0870325E-9,
      -1.5524451E-8,
      -8.64313E-8,
      9.337677E-9,
      -1.915022E-9,
      1.3808235E-9,
      3.5667727E-9,
      -2.796655E-9,
      6.5610317E-9,
      1.0744793E-8,
      2.378338E-9,
      -1.0018259E-8,
      3.1120129E-9,
      -1.0538032E-8,
      -4.5205484E-9,
      4.5593844E-9,
      1.3150743E-9,
      -2.772079E-9,
      2.719258E-7,
      1.148986E-7,
      3.4538303E-8,
      -1.5073677E-7,
      -8.633628E-7,
      -1.9493054E-7,
      9.8843884E-8,
      -5.1311304E-7,
      -6.2220007E-9,
      -8.0471915E-7,
      -4.1299312E-8,
      3.028655E-7,
      -1.3326317E-7,
      -7.139751E-8,
      -4.1105994E-9,
      -8.782415E-8,
      1.5007444E-9,
      2.4751898E-8,
      6.6146873E-7,
      -6.010982E-8,
      0.046198793,
      2.2484432E-9,
      6.464423E-9,
      -5.935139E-9,
      -5.758037E-9,
      -4.801455E-7,
      7.8376723E-7,
      -1.2230195E-6,
      4.6911005E-8,
      -4.1085693E-7,
      5.8600396E-9,
      3.610888E-8,
      -2.4362161E-9,
      -2.0391107E-9,
      -5.283425E-9,
      -8.251946E-10,
      2.75829E-9,
      3.71748E-9,
      5.182943E-7,
      -1.1047066E-7,
      0.016537203,
      -9.160164E-8,
      2.7215603E-7,
      -4.8815982E-9,
      -6.033737E-9,
      -1.5647458E-7,
      9.644656E-7,
      -2.0158804E-8,
      1.3139384E-6,
      -6.755549E-7,
      4.7787E-9,
      6.172474E-9,
      -1.1215737E-7,
      3.45611E-9,
      2.2770612E-9,
      9.805204E-8,
      6.559332E-9,
      4.8339213E-9,
      2.0414157E-7,
      -1.0460806E-8,
      7.193222E-7,
      -8.3112496E-7,
      -2.0879239E-7,
      6.9105033E-10,
      7.194969E-10,
      -1.3323649E-9,
      2.188788E-7,
      -3.2624925E-10,
      6.524589E-6,
      -1.4037482E-6,
      -9.6706515E-8,
      -1.3768138E-6,
      4.0143044E-10,
      -5.0061173E-9,
      -5.7968923E-9,
      4.8738823E-8,
      -5.225368E-8,
      -4.7611497E-9,
      6.774115E-8,
      3.7018766E-9,
      1.2446618E-7,
      -1.1746708E-6,
      -1.0245632E-6,
      -2.455847E-9,
      -1.4783512E-9,
      9.3625424E-8,
      -5.125207E-7,
      1.5434853E-10,
      0.013108439,
      -3.4620973E-7,
      2.0797142E-10,
      1.5759576E-9,
      -4.782976E-7,
      1.0194544E-6,
      -4.1228523E-9,
      -8.7163994E-7,
      -5.2938063E-8,
      -2.7898865E-9,
      -2.2798022E-7,
      -4.5098836E-9,
      -1.1293563E-6,
      -1.1151263E-6,
      -1.8507043E-6,
      -5.373957E-9,
      1.465676E-9,
      6.494879E-8,
      1.2006277E-7,
      5.0124385E-9,
      -9.2274047E-7,
      -6.6574124E-8,
      5.494143E-8,
      -6.269212E-9,
      1.3235785E-7,
      9.1376796E-7,
      2.0854882E-9,
      -5.6769386E-7,
      -5.957917E-9,
      5.228042E-9,
      1.35306E-7,
      -2.670291E-9,
      -1.4666086E-6,
      -1.502118E-7,
      -7.711482E-7,
      -1.1178375E-7,
      -7.4606085E-8,
      1.4200158E-7,
      3.8121111E-6,
      -2.4834062E-8,
      -8.137274E-7,
      1.4607161E-7,
      -5.6823744E-8,
      -5.0305054E-8,
      -1.9987748E-8,
      -1.00321735E-7,
      -2.3127516E-8,
      -9.137987E-8,
      -4.0517714E-9,
      6.491032E-9,
      1.9418265E-7,
      -6.1211543E-9,
      -1.2959589E-6,
      -1.2605108E-7,
      -1.1117679E-7,
      -2.0355056E-7,
      -1.03653356E-7,
      9.9790235E-8,
      0.015315721,
      -2.3282787E-8,
      -4.1304122E-7,
      5.893508E-10,
      -8.816616E-8,
      -2.0938067E-8,
      -3.1006792E-7,
      -1.2025955E-6,
      -2.52006E-8,
      -3.330093E-8,
      -5.9843828E-9,
      3.3797702E-9,
      9.016435E-8,
      2.8490956E-9,
      -3.8572543E-7,
      -5.888431E-8,
      -4.1759458E-7,
      -8.55925E-9,
      3.4091405E-9,
      -8.62137E-9,
      1.2022089E-6,
      -3.949767E-9,
      -1.2726338E-7,
      -5.423524E-9,
      -3.2791405E-9,
      -5.179408E-9,
      -3.901834E-9,
      -5.3561047E-7,
      -1.4368062E-9,
      2.124108E-9,
      4.50925E-9,
      -1.4473391E-9,
      1.5319213E-7,
      -9.155121E-10,
      -6.083923E-7,
      -2.2870745E-7,
      -9.833157E-7,
      6.1041066E-9,
      3.7464827E-9,
      5.802319E-9,
      -1.9503466E-7,
      4.4700728E-9,
      -5.0216112E-8,
      1.7256386E-7,
      -2.133107E-10,
      -1.3764363E-9,
      -1.7493162E-10,
      -1.0264234E-11,
      -3.0513814E-10,
      -5.22083E-9,
      -1.3523183E-10,
      -2.1625293E-9,
      -2.5744384E-7,
      2.118441E-9,
      -6.9532473E-7,
      -2.9779665E-7,
      -8.218016E-7,
      -2.1848399E-9,
      -7.521665E-8,
      4.3664716E-10,
      -4.5617887E-7,
      -3.434635E-9,
      -2.3184496E-7,
      3.3397203E-7,
      -3.4330627E-10,
      -1.8034608E-8,
      6.107231E-8,
      9.17487E-8,
      -7.985812E-10,
      1.3451626E-9,
      2.2321562E-9,
      -3.899694E-9,
      -4.1254614E-7,
      -6.2142558E-9,
      -3.6437277E-7,
      -4.921765E-10,
      2.4219355E-9,
      -2.6503284E-9,
      2.1506148E-9,
      4.1505044E-9,
      -1.0265171E-9,
      3.939364E-9,
      -5.609655E-9,
      3.2824232E-9,
      -2.6824076E-9,
      1.9626478E-10,
      3.8872114E-9,
      -1.0878037E-7,
      6.084321E-9,
      6.56438E-10,
      2.9268006E-9,
      -1.287181E-9,
      6.56728E-10,
      -2.8923557E-9,
      -1.1870056E-9,
      6.590845E-9,
      -4.1445447E-9,
      6.5417827E-9,
      1.2082864E-9,
      -3.794497E-9,
      -3.5646788E-9,
      -6.0929484E-10,
      -1.8014377E-9,
      3.6427408E-9,
      1.271331E-9,
      -4.0306603E-10,
      -6.0079697E-9,
      4.801341E-9,
      5.471143E-9,
      2.7652676E-9,
      1.5157942E-9,
      8.9512797E-10,
      -3.5400078E-9,
      -3.5888403E-10,
      -4.082435E-9,
      -6.8543216E-10,
      -2.2890996E-9,
      -4.5030646E-12,
      -4.4090576E-9,
      -4.2571857E-10,
      -3.150809E-9,
      -1.1762351E-9,
      2.3309616E-9,
      -4.043404E-9,
      -4.9292375E-9,
      -4.450813E-9,
      1.3272072E-9,
      -1.8837358E-9,
      5.8015495E-9,
      -3.818423E-9,
      -6.9050143E-9,
      1.8728055E-9,
      1.516637E-9,
      3.74051E-10,
      2.5517242E-9,
      -4.853038E-10,
      -4.3687938E-9,
      -2.985479E-9,
      -5.177069E-9,
      6.576077E-9,
      -5.0186526E-9,
      -5.1198707E-9,
      4.2404102E-9,
      6.528332E-9,
      -5.3941496E-9,
      6.1727565E-9,
      -5.9144827E-9,
      -4.149406E-9,
      -6.0892176E-9,
      2.4687279E-9,
      -5.635475E-9,
      -4.349948E-9,
      -2.1058217E-9,
      1.900085E-9,
      -5.977349E-9,
      -6.1284546E-9,
      6.1212924E-9,
      6.137314E-9,
      -6.1375736E-9,
      -3.5718806E-10,
      6.1377317E-9,
      -6.132875E-9,
      -6.129295E-9,
      6.1477996E-9,
      6.1253744E-9,
      6.1499525E-9,
      6.1298775E-9,
      -6.1385714E-9,
      -3.5865888E-10,
      -6.1295826E-9,
      6.1371703E-9,
      6.148176E-9,
      6.1537517E-9,
      -6.1475722E-9,
      -6.15038E-9,
      -6.1386265E-9,
      -6.1499525E-9,
      6.1515206E-9,
      -6.1541443E-9,
      -5.450973E-11,
      6.1255716E-9,
      6.1500267E-9,
      6.148027E-9,
      6.152812E-9,
      -6.14778E-9,
      6.1471814E-9,
      -1.05225606E-10,
      -6.148313E-9,
      -6.1515135E-9,
      3.7789745E-9,
      6.1491443E-9,
      -6.1484053E-9,
      6.149885E-9,
      -6.1477428E-9,
      -6.138014E-9,
      -6.138703E-9,
      -3.2138736E-10,
      -6.125625E-9,
      6.1404366E-9,
      -6.1465295E-9,
      -6.1500622E-9,
      -6.138598E-9,
      -6.161713E-9,
      -6.1491727E-9,
      -6.148519E-9,
      6.147933E-9,
      -6.1502097E-9,
      -6.1388503E-9,
      6.154322E-9,
      -6.1290764E-9,
      -6.1447905E-9,
      -6.144643E-9,
      6.1385714E-9,
      -6.1490733E-9,
      -6.147716E-9,
      6.100209E-9,
      -6.1489187E-9,
      6.1485848E-9,
      6.1263923E-9,
      6.130048E-9,
      -6.148908E-9,
      6.1263923E-9,
      -6.1431686E-9,
      -6.138465E-9,
      6.138486E-9,
      -6.1483325E-9,
      -4.2258375E-10,
      -6.138648E-9,
      -6.140543E-9,
      -6.1368923E-9,
      6.1287833E-9,
      -6.1529897E-9,
      -6.129062E-9,
      6.1372627E-9,
      4.3951065E-10,
      8.855907E-10,
      3.2081626E-10,
      -5.093648E-9,
      5.2791305E-9,
      -5.5716276E-9,
      -3.0307996E-9,
      4.987423E-9,
      -6.8448136E-10,
      -6.356627E-9,
      -4.7452096E-9,
      -5.0156177E-9,
      -2.2734628E-9,
      -3.9217136E-9,
      -2.1027273E-9,
      4.2341073E-9,
      2.6708813E-9,
      -2.568052E-9,
      8.4999074E-10,
      6.167729E-9,
      3.9306896E-9,
      1.6501067E-10,
      3.0192426E-9,
      6.357337E-9,
      4.627656E-9,
      -2.7315896E-9,
      2.075792E-9,
      -6.6310113E-10,
      5.5904037E-10,
      2.7012184E-9,
      4.650001E-9,
      3.1036214E-9,
      2.1415896E-9,
      4.357985E-10,
      -4.313157E-9,
      5.92835E-9,
      8.576535E-10,
      -6.212244E-9,
      2.0460122E-10,
      4.651352E-9,
      4.353305E-9,
      5.5201435E-9,
      1.2384898E-9,
      3.4149004E-9,
      3.8343426E-9,
      -5.218738E-9,
      -2.0198172E-9,
      4.376505E-9,
      -4.483809E-9,
      -6.3314367E-9,
      5.6349703E-9,
      2.0306992E-9,
      -3.463874E-9,
      -1.760232E-10,
      3.0174143E-9,
      -6.1081944E-9,
      3.9222434E-9,
      -2.2241875E-9,
      3.7576346E-9,
      1.6533543E-9,
      5.3827156E-9,
      3.0133744E-9,
      6.636455E-9,
      -2.9572695E-9,
      1.3963279E-9,
      -1.2307115E-9,
      -2.6676936E-9,
      2.4415021E-9,
      8.008816E-10,
      9.006622E-8,
      6.0070997E-9,
      -2.3147284E-9,
      2.5083353E-9,
      6.951475E-9,
      -1.7705424E-9,
      3.2707335E-9,
      -5.2060605E-9,
      -3.8316648E-9,
      -2.6521598E-9,
      -3.5420586E-9,
      -5.4259313E-9,
      -3.000311E-9,
      3.9905306E-9,
      -4.872614E-9,
      -4.6716275E-9,
      2.3937554E-9,
      -6.6371313E-9,
      4.693076E-9,
      4.399734E-10,
      5.1480843E-8,
      5.4652953E-9,
      3.085006E-9,
      -1.4602475E-9,
      2.6799936E-9,
      1.3546742E-9,
      -6.2681065E-9,
      2.3466087E-9,
      3.2429903E-9,
      -2.9992053E-10,
      4.946588E-9,
      6.1139063E-9,
      6.1557586E-9,
      3.515134E-9,
      -1.6998376E-9,
      1.127098E-9,
      -3.382846E-9,
      -9.2008906E-7,
      6.029652E-9,
      2.6830307E-9,
      4.073147E-8,
      -3.8632404E-9,
      7.6415185E-10,
      -4.2725734E-10,
      -4.0373385E-9,
      -4.1914157E-9,
      3.9518389E-10,
      3.846477E-9,
      5.891122E-9,
      -4.092358E-9,
      4.834684E-7,
      -1.9967943E-7,
      -2.2687376E-9,
      -1.4946453E-9,
      -5.4700863E-8,
      3.8753223E-9,
      6.1998744E-9,
      -6.948688E-7,
      3.2223775E-9,
      -1.9061254E-7,
      1.6486756E-7,
      2.8426372E-10,
      6.0563763E-9,
      3.2110101E-9,
      3.7443915E-9,
      1.7956441E-9,
      -6.117566E-7,
      6.2427774E-9,
      4.4989585E-9,
      -5.500065E-9,
      1.9942819E-7,
      2.4282235E-6,
      -1.3859578E-6,
      -1.1400459E-7,
      -7.735457E-8,
      4.1286572E-7,
      2.5471543E-8,
      -2.8798564E-7,
      -5.8752335E-8,
      -1.7667617E-6,
      8.5301144E-7,
      0.010408771,
      6.0432073E-9,
      1.0988134E-6,
      0.03879711,
      4.0038577E-9,
      -4.0312807E-7,
      -8.506271E-10,
      -1.7017744E-8,
      2.2250686E-6,
      -3.0341887E-8,
      0.12752178,
      -1.3385546E-6,
      -5.5526255E-7,
      -1.516047E-6,
      3.5911663E-7,
      -1.0322229E-6,
      3.996832E-8,
      -1.2627224E-6,
      -0.12403462,
      2.2243455E-7,
      0.021421954,
      2.4494756E-7,
      3.2198255E-7,
      0.05403901,
      -5.177068E-9,
      1.224107E-6,
      7.591516E-8,
      -5.6811116E-9,
      0.029713068,
      -1.2983069E-6,
      0.0953379,
      -1.1602913E-6,
      -1.3734209E-6,
      -1.0380273E-6,
      -7.23382E-7,
      -0.06692423,
      -2.049291E-6,
      -0.001703547,
      -0.07208687,
      -4.5103886E-7,
      0.02189734,
      -1.2795565E-6,
      6.946223E-8,
      0.061646245,
      2.9730534E-8,
      -1.9286438E-7,
      1.2580692E-10,
      1.7244503E-8,
      0.06588177,
      -1.1674342E-6,
      0.033041004,
      -1.0324579E-6,
      -4.7708917E-9,
      -5.9858786E-7,
      -3.1310174E-7,
      -0.11071255,
      -2.4473572E-6,
      -2.1971237E-4,
      -0.03919115,
      -1.5346336E-6,
      0.002714318,
      3.8311796E-8,
      2.017837E-6,
      0.118541285,
      3.981641E-8,
      -0.078685716,
      -3.0598164E-7,
      -1.3673971E-7,
      0.06696311,
      2.6840598E-7,
      0.07054745,
      -2.5477203E-8,
      -2.1048923E-8,
      -3.6564122E-6,
      -1.2945673E-6,
      -0.090452224,
      -8.595233E-7,
      -0.0024572373,
      -0.04353414,
      2.2698776E-8,
      2.2948567E-4,
      3.4165364E-6,
      1.732604E-6,
      0.12499708,
      -0.018905282,
      -0.19279939,
      -1.0886261E-8,
      -1.433107E-7,
      0.036872227,
      -5.584492E-7,
      0.09214235,
      -1.3565046E-6,
      -4.9458106E-7,
      -0.0015552301,
      -0.0059149023,
      -0.11564059,
      -9.886417E-7,
      -5.115194E-7,
      3.1329912E-6,
      -7.7363654E-7,
      4.4779506E-7,
      2.6556409E-6,
      6.7143496E-8,
      0.0503534,
      -0.12711921,
      2.0884958E-7,
      2.8708325E-7,
      -5.7056616E-7,
      0.13502145,
      -0.022139754,
      -2.794712E-7,
      -2.4576823E-6,
      -4.291086E-6,
      -0.10275617,
      -0.01381178,
      -0.039837908,
      -3.5489554E-6,
      -0.0083309375,
      0.0010744401,
      3.070299E-6,
      1.3261742E-6,
      4.693677E-6,
      -0.0039100684,
      0.10562017,
      -0.040160116,
      -0.12435848,
      5.126197E-7,
      -1.0756728E-6,
      0.04663633,
      -0.032001317,
      -4.133088E-6,
      -1.9060958E-6,
      -0.0028687024,
      8.2517164E-7,
      -0.033514738,
      -0.07381971,
      -2.7016995E-7,
      -0.001574379,
      -2.977622E-6,
      4.547454E-6,
      4.1454817E-7,
      7.154023E-7,
      -0.022637326,
      0.12951873,
      -0.1259658,
      -0.025005858,
      3.5387959E-7,
      -4.297989E-7,
      0.102840915,
      -0.034370888,
      -7.2851285E-6,
      -2.4211965E-6,
      -0.007231431,
      -2.7759307E-7,
      -0.0023485573,
      -0.03966448,
      0.040883068,
      -3.2330302E-8,
      -6.2096586E-7,
      2.7910003E-6,
      1.02257786E-7,
      -1.718186E-6,
      -0.0451174,
      0.019708076,
      -1.0491002E-6,
      -1.851091E-8,
      8.3790034E-8,
      -0.021258095,
      0.02485696,
      -0.0019298093,
      -0.006917893,
      -1.3506551E-6,
      -0.021664279,
      -2.1064483E-8,
      -0.0061472836,
      -2.6121113E-6,
      0.0915316,
      -1.8778161E-8,
      -0.07265202,
      3.855915E-6,
      -1.837657E-7,
      -5.1423535E-7,
      -2.7711621E-6,
      3.8892628E-7,
      -0.023394722,
      6.555034E-8,
      6.925661E-8,
      1.8103972E-8,
      0.02592726,
      -4.4306745E-7,
      -0.03922419,
      -3.6962896E-7,
      -4.999908E-6,
      -7.7461095E-7,
      -6.356712E-4,
      -0.018164998,
      0.1254925,
      2.0764501E-8,
      -0.011359542,
      1.256998E-6,
      -7.6271414E-7,
      3.015643E-7,
      -0.016380012,
      -1.2123828E-6,
      4.2878327E-7,
      1.9887929E-7,
      1.0759257E-7,
      3.2705163E-8,
      0.13668007,
      -2.2983698E-8,
      -0.032554988,
      1.3929494E-8,
      -2.280812E-6,
      -6.519678E-7,
      -7.0429553E-7,
      -1.1563943E-7,
      0.023348259,
      5.1249143E-9,
      -0.041579086,
      -5.2412485E-8,
      -3.2258293E-7,
      0.0077034403,
      -1.2346389E-7,
      -1.0406686E-6,
      6.2269896E-9,
      1.0718085E-7,
      -1.633152E-8,
      1.0232537E-8,
      1.7206881E-8,
      2.9970808E-9,
      -3.725103E-7,
      -1.9757525E-7,
      2.5959721E-7,
      -3.5556357E-7,
      -1.2521092E-6,
      -2.0799693E-7,
      0.04350154,
      2.7275053E-7,
      5.8352344E-7,
      -1.2587695E-6,
      4.7760434E-8,
      1.1437231E-6,
      -1.5764494E-6,
      -0.06120917,
      2.1812352E-6,
      -5.9905865E-8,
      -3.5832443E-7,
      -4.4786042E-10,
      5.4218177E-9,
      8.9657215E-10,
      -4.3519174E-7,
      -6.921623E-7,
      1.1765504E-6,
      -1.8170603E-9,
      -2.8957826E-8,
      -4.4809667E-7,
      1.7392083E-6,
      3.8145012E-7,
      1.828322E-7,
      -1.185259E-6,
      1.8106242E-7,
      1.1823915E-6,
      -1.0129087E-6,
      -2.1096828E-6,
      1.2533045E-6,
      -7.994272E-10,
      -4.649682E-7,
      -4.1792614E-9,
      2.523698E-7,
      -3.2119423E-9,
      -1.0652583E-8,
      -2.724946E-7,
      1.3124219E-6,
      3.000208E-9,
      1.5950057E-7,
      -7.262503E-7,
      1.3289113E-6,
      -5.6324392E-8,
      -6.1478334E-9,
      -2.5916762E-7,
      2.604402E-8,
      1.6938493E-6,
      -1.333924E-7,
      -2.884963E-7,
      -3.5089975E-8,
      1.9339524E-7,
      -4.9373456E-9,
      3.884342E-8,
      5.2029094E-7,
      7.440679E-10,
      -3.781266E-8,
      -1.5509724E-7,
      7.6884993E-7,
      -2.1176199E-8,
      -1.6733358E-7,
      -5.164825E-7,
      4.599943E-7,
      -3.5851762E-8,
      1.0603646E-7,
      -8.513569E-8,
      1.2908242E-8,
      6.7129133E-7,
      -1.8820053E-6,
      -7.879291E-8,
      -1.626126E-8,
      1.3687E-7,
      1.4216237E-9,
      2.5250685E-8,
      3.7789607E-7,
      3.6493073E-9,
      -3.9266396E-8,
      -6.8513457E-9,
      -1.4179693E-9,
      -2.6370808E-9,
      -1.9892985E-9,
      -1.0371757E-9,
      3.4246828E-9,
      -2.0673667E-9,
      -1.235712E-9,
      -1.0683432E-9,
      -1.5407156E-9,
      -3.4901815E-10,
      -1.416756E-9,
      -1.8208106E-9,
      -4.9301157E-8,
      -4.1648933E-9,
      -1.974139E-9,
      -2.2197026E-9,
      -5.5445444E-9,
      -2.3664093E-10,
      -1.4056059E-9,
      9.0118846E-10,
      -6.6453927E-9,
      3.0731584E-9,
      -8.14281E-8,
      6.7708292E-9,
      4.333156E-9,
      -5.8169123E-9,
      -2.7311358E-9,
      -5.6234657E-9,
      5.5571414E-10,
      2.5369782E-9,
      -4.2066578E-8,
      -5.1502367E-9,
      -2.9222264E-7,
      2.9146006E-9,
      4.8100577E-9,
      -3.1569236E-9,
      9.874155E-10,
      -5.0735296E-9,
      -2.279894E-9,
      -6.1053402E-9,
      -6.0905854E-9,
      -6.1487073E-9,
      -3.5384842E-9,
      6.1482828E-9,
      -6.1274954E-9,
      -6.148782E-9,
      6.1489613E-9,
      6.1207523E-9,
      -1.6046213E-9,
      -5.958345E-12,
      -6.1484693E-9,
      6.137881E-9,
      6.151144E-9,
      -6.148375E-9,
      -6.137149E-9,
      -4.2257842E-10,
      -6.1218572E-9,
      6.1499525E-9,
      6.1378294E-9,
      -3.3857708E-9,
      -6.1550787E-9,
      -6.1385714E-9,
      6.134775E-9,
      6.1487873E-9,
      -6.1499525E-9,
      -3.5719339E-10,
      6.1527765E-9,
      6.149352E-9,
      -6.1214522E-9,
      6.1482615E-9,
      -6.150094E-9,
      6.1485688E-9,
      6.148924E-9,
      -3.5552246E-9,
      6.147947E-9,
      -6.147885E-9,
      2.5692293E-9,
      6.1446412E-9,
      -6.1453145E-9,
      -6.127467E-9,
      6.120184E-9,
      3.385174E-9,
      -1.05046194E-10,
      6.154521E-9,
      -6.7087047E-10,
      -6.154551E-9,
      -6.138335E-9,
      -6.154407E-9,
      -6.1019882E-9,
      -6.153432E-9,
      -1.4521779E-9,
      6.1498917E-9,
      -6.1210366E-9,
      -6.148386E-9,
      -6.1305383E-9,
      -6.149977E-9,
      6.1499525E-9,
      -6.0982295E-9,
      6.127538E-9,
      3.5324836E-9,
      -6.6187127E-9,
      -6.13281E-9,
      4.492809E-9,
      6.9863053E-9,
      2.346305E-9,
      -1.5828467E-9,
      -5.9313634E-9,
      3.060681E-9,
      5.540917E-9,
      4.7513016E-10,
      -5.6080696E-9,
      -2.225509E-9,
      5.958314E-9,
      6.654917E-9,
      1.7316375E-9,
      -6.234837E-9,
      -4.398209E-9,
      3.559212E-9,
      -2.9061629E-9,
      -6.5726606E-9,
      3.8797316E-9,
      -1.4053736E-10,
      2.3916007E-9,
      -1.6421042E-9,
      -4.0319894E-9,
      5.8010228E-9,
      -5.813553E-9,
      4.0129335E-9,
      -6.085525E-9,
      6.568461E-9,
      1.1276371E-9,
      2.2739499E-10,
      -1.8645454E-9,
      6.2733836E-9,
      2.3909097E-10,
      -4.524777E-9,
      7.143668E-10,
      1.9517743E-9,
      3.3276772E-9,
      3.6014112E-9,
      -4.447612E-9,
      3.6304972E-9,
      4.2413704E-9,
      3.8648347E-9,
      6.743144E-10,
      8.986634E-11,
      2.466365E-10,
      -5.7781984E-9,
      1.2529133E-9,
      1.8473467E-9,
      -6.619009E-9,
      -4.883655E-9,
      2.1189175E-9,
      3.0591365E-9,
      -2.4353506E-9,
      5.9727334E-9,
      -5.2431903E-9,
      1.920533E-9,
      1.4183232E-10,
      4.851386E-9,
      -6.977438E-9,
      -2.8220875E-9,
      -4.455314E-9,
      9.497114E-10,
      1.6031953E-8,
      1.634767E-9,
      3.9167616E-9,
      1.8122362E-8,
      1.6037717E-8,
      -6.8207653E-9,
      6.4857844E-9,
      3.5587746E-9,
      -5.775877E-9,
      -4.35912E-9,
      -2.2997293E-9,
      2.719056E-10,
      -1.3156187E-10,
      -3.1279313E-8,
      1.7526899E-8,
      5.4971814E-9,
      -1.0862939E-6,
      -7.515842E-9,
      5.2817683E-8,
      4.6331783E-10,
      -1.349832E-6,
      1.5537458E-9,
      4.9584536E-9,
      4.2976737E-8,
      2.7053474E-8,
      -3.3758326E-8,
      -1.9876936E-9,
      -3.6468024E-9,
      -8.175719E-9,
      -6.905778E-10,
      1.2692216E-8,
      -2.6926578E-8,
      -8.261705E-9,
      8.714376E-7,
      -9.32207E-9,
      -1.4478907E-9,
      -2.4091469E-6,
      5.0444466E-9,
      1.4942331E-7,
      1.0553624E-7,
      -5.0325702E-6,
      2.6555034E-9,
      -3.0071003E-9,
      4.7874256E-8,
      5.388225E-8,
      8.4996117E-7,
      -1.7178348E-9,
      3.2464467E-8,
      -1.6034448E-8,
      -2.719187E-9,
      6.689417E-8,
      -4.476095E-7,
      -2.0643313E-8,
      1.7840788E-6,
      -2.6488797E-7,
      2.7190213E-6,
      -0.0761959,
      -3.0689869E-6,
      6.788858E-7,
      2.2989464E-6,
      -7.52197E-6,
      -1.0564257E-8,
      -0.020778699,
      6.98781E-7,
      4.0855653E-7,
      0.020278445,
      1.0375908E-6,
      3.9087377E-7,
      -3.9388777E-8,
      -0.0011118489,
      1.1270107E-7,
      -5.4456257E-7,
      -1.215774E-7,
      6.4579245E-7,
      0.0014978903,
      3.7413183E-6,
      -0.09336808,
      -5.2925416E-6,
      1.5833923E-6,
      2.7919367E-7,
      -0.060593445,
      -8.236722E-7,
      -2.980381E-6,
      -1.4021169E-6,
      0.018564543,
      5.9387557E-6,
      4.2274507E-7,
      0.103051335,
      -1.4047441E-7,
      -0.023612188,
      -2.340329E-7,
      -8.884593E-7,
      3.6979504E-6,
      0.008959806,
      0.0017998315,
      4.941989E-6,
      -0.05214836,
      -1.0875668E-5,
      -0.0017687697,
      -1.1308503E-8,
      -0.09306837,
      -0.053219974,
      -2.8842592E-6,
      -0.00254731,
      5.8667352E-5,
      0.04465582,
      1.4114171E-6,
      0.100657366,
      -2.8448642E-7,
      -0.06667054,
      -3.3609828E-7,
      -8.8613484E-7,
      2.3168561E-6,
      0.05522898,
      4.6179925E-6,
      0.0017764203,
      -0.038504183,
      -1.6049962E-6,
      -0.02299094,
      -2.980161E-6,
      -0.0720157,
      -0.07825238,
      -0.04770983,
      -1.0376505E-5,
      0.017106567,
      8.123219E-6,
      3.411077E-6,
      0.09408924,
      -0.07746195,
      -0.10855619,
      -8.441469E-7,
      -8.200241E-8,
      0.009870313,
      0.06319625,
      5.0180934E-6,
      0.06514852,
      -0.040914796,
      -6.006357E-7,
      -0.010494987,
      -9.2016694E-7,
      -0.0357574,
      -0.17233989,
      -0.015120576,
      -1.4132959E-5,
      0.030376779,
      0.0034446204,
      0.108068176,
      0.0031820766,
      -0.030764148,
      -0.009134763,
      -0.082737245,
      -2.7770302E-6,
      6.3759603E-6,
      1.5668438E-6,
      -5.3873378E-6,
      0.017679552,
      -0.04458548,
      3.810741E-6,
      -1.7696708E-6,
      -4.807824E-4,
      -0.041331958,
      -0.22734202,
      -7.08738E-6,
      -4.2715224E-6,
      0.075050145,
      0.05378864,
      0.014148075,
      0.07232588,
      -0.025002936,
      1.9434811E-8,
      -4.0511233E-7,
      -0.0015540466,
      0.003899417,
      -1.5341071E-6,
      -9.584418E-6,
      0.013828599,
      -0.04137858,
      2.8012623E-6,
      -0.008069368,
      -8.053889E-6,
      -5.302948E-6,
      -0.19321473,
      1.0455483E-4,
      -0.014511222,
      0.067394756,
      1.5519236E-5,
      0.031170728,
      0.012092322,
      -0.043517917,
      -0.12501463,
      1.481618E-8,
      -2.5017314E-6,
      5.0913504E-6,
      -0.008949085,
      5.470037E-6,
      0.06624775,
      -0.0841709,
      -3.2046976E-6,
      -0.018809082,
      -2.424481E-6,
      -1.8982843E-6,
      -0.2651479,
      0.021498634,
      -0.056618057,
      0.04088518,
      0.06894884,
      0.08633135,
      0.064543165,
      -0.04473195,
      -0.07295034,
      1.1177539E-6,
      1.3298502E-6,
      3.3490003E-6,
      -0.13462333,
      0.04392488,
      0.019881258,
      6.599315E-7,
      -0.038004912,
      -0.02540029,
      4.2806464E-6,
      0.056073725,
      -0.1398389,
      -5.09689E-6,
      -0.0018840824,
      0.05426486,
      6.142559E-6,
      4.25698E-6,
      0.10989075,
      -0.008389035,
      -0.07467183,
      0.022277286,
      -0.027209109,
      -1.9313454E-6,
      -0.1672736,
      0.029920071,
      6.6513295E-4,
      0.021293152,
      -0.017866056,
      -2.2561933E-6,
      -5.4264656E-6,
      0.07429721,
      -0.102790624,
      -9.313063E-6,
      1.0351315E-6,
      1.0244271E-6,
      2.6823827E-6,
      -3.6931103E-6,
      4.4748114E-4,
      -1.1180325E-5,
      7.019025E-7,
      0.035521805,
      -0.04214182,
      -1.5751831E-6,
      -0.15838511,
      -5.9873614E-6,
      0.029332513,
      0.0020970562,
      -4.7152542E-7,
      -0.0011883285,
      -0.0011112521,
      0.06939235,
      -0.07514322,
      -0.0036711246,
      1.9943714E-6,
      7.3630355E-7,
      0.052396387,
      -5.246475E-6,
      6.956438E-6,
      -1.6300345E-4,
      -1.4375833E-6,
      0.01064506,
      8.8246004E-8,
      1.0121447E-6,
      -0.06066903,
      -3.727321E-6,
      5.573497E-4,
      -1.5185822E-7,
      3.3403778E-6,
      -2.959265E-6,
      3.0705028E-6,
      0.01786097,
      -8.995709E-8,
      -0.011968355,
      3.5944713E-6,
      -2.2971895E-7,
      6.9549696E-7,
      -0.010318807,
      0.0026014016,
      -5.1870884E-6,
      7.4097414E-7,
      0.03962306,
      -7.518163E-7,
      1.8784167E-6,
      -0.0041702664,
      -0.017305097,
      6.703522E-4,
      -3.7106824E-9,
      -1.8831821E-6,
      -0.03297621,
      8.474835E-6,
      0.008554268,
      4.4262407E-8,
      -2.4374074E-6,
      -3.4600774E-7,
      -9.889276E-8,
      7.511701E-8,
      -0.03208733,
      5.49801E-7,
      -3.642559E-6,
      2.7827173E-7,
      1.0917465E-7,
      -2.2692868E-6,
      2.6696586E-7,
      -8.219934E-7,
      -0.01745694,
      1.2401058E-6,
      0.0065429686,
      -2.9632129E-6,
      -0.06691042,
      -2.8543707E-7,
      0.1420335,
      4.2644737E-7,
      2.41109E-6,
      -1.1399464E-6,
      -5.705846E-7,
      3.2492321E-6,
      -0.073302135,
      -4.805008E-6,
      6.700136E-7,
      1.561562E-7,
      -1.836112E-7,
      -1.5946414E-7,
      2.819037E-7,
      -3.5029878E-8,
      4.2053844E-7,
      -1.4791162E-7,
      0.053041056,
      -4.815615E-7,
      -0.058737677,
      -3.3926572E-6,
      0.06803931,
      4.8728174E-7,
      2.2237607E-6,
      -3.5094122E-6,
      -2.6422214E-8,
      2.406371E-6,
      -0.08262847,
      -0.070918776,
      0.0011981719,
      1.9547375E-7,
      -2.0536811E-7,
      9.961967E-8,
      5.433551E-7,
      -6.0337824E-10,
      5.4929205E-7,
      -3.3118178E-7,
      1.708139E-6,
      2.1981542E-8,
      -1.5980245E-6,
      -1.1554263E-6,
      0.03833199,
      -5.9778826E-9,
      1.9347296E-7,
      -4.1184785E-7,
      9.383951E-8,
      1.8834418E-6,
      -1.6216514E-6,
      -0.032044478,
      -1.0962052E-6,
      7.242765E-7,
      -7.1526685E-8,
      6.8242386E-8,
      4.3195567E-7,
      -4.653324E-8,
      -3.4095E-8,
      -8.4862046E-7,
      4.1322693E-7,
      -1.890964E-8,
      -7.356272E-7,
      -2.9506558E-7,
      5.6118427E-7,
      -2.329439E-8,
      -2.1210226E-6,
      -1.4822653E-7,
      2.1185732E-8,
      1.845804E-6,
      9.498412E-6,
      -2.6959944E-7,
      -3.2922135E-6,
      3.6087545E-7,
      -2.281268E-9,
      2.1755525E-8,
      2.5189527E-7,
      -5.2637614E-9,
      -3.4984948E-9,
      1.693214E-9,
      5.1716054E-10,
      -1.5279773E-9,
      -4.802097E-7,
      1.0731605E-7,
      3.17069E-9,
      -3.2624337E-7,
      -9.398379E-8,
      -5.1969273E-9,
      3.542115E-9,
      6.4094623E-9,
      5.072516E-6,
      -1.3494696E-7,
      -1.4529313E-6,
      -2.5593567E-7,
      -4.542371E-10,
      5.2255715E-9,
      1.3082585E-7,
      -2.4355407E-10,
      -3.5124188E-9,
      -5.843188E-9,
      5.0474E-9,
      3.4949594E-9,
      3.4061998E-9,
      -2.440443E-9,
      1.9080884E-9,
      -2.3238078E-10,
      -3.6268282E-9,
      -5.823122E-9,
      4.651993E-9,
      1.4737793E-9,
      -6.4271153E-9,
      5.2378817E-9,
      -4.6061834E-9,
      1.7802781E-9,
      9.066694E-10,
      -2.05344E-9,
      -6.628508E-9,
      1.5149513E-9,
      4.9673465E-10,
      2.05441E-10,
      8.914687E-10,
      2.323456E-9,
      -3.5335765E-9,
      3.3724277E-9,
      -4.3331116E-11,
      5.6067457E-9,
      -5.439269E-9,
      -5.3953975E-9,
      -6.6671615E-9,
      -4.2183657E-9,
      -1.1727996E-10,
      -5.621933E-9,
      -5.6342464E-9,
      -4.7083915E-9,
      -1.833746E-9,
      4.7721254E-9,
      -4.1105173E-9,
      -4.9611897E-9,
      2.1165576E-9,
      6.138907E-9,
      3.571916E-10,
      6.153972E-9,
      6.1528334E-9,
      -6.12147E-9,
      -2.5756286E-11,
      -6.1268524E-9,
      6.1378524E-9,
      6.1488583E-9,
      -6.130989E-9,
      -6.137213E-9,
      6.148034E-9,
      6.1372627E-9,
      6.140337E-9,
      6.151485E-9,
      6.12741E-9,
      -6.1886887E-9,
      6.1448313E-9,
      -6.1515775E-9,
      6.146821E-9,
      6.1545813E-9,
      -6.1483396E-9,
      -6.091894E-9,
      -6.1331167E-9,
      -6.137945E-9,
      6.148796E-9,
      -6.1378507E-9,
      -6.097231E-9,
      -6.129254E-9,
      6.147837E-9,
      -6.1295933E-9,
      6.1256036E-9,
      -3.5865888E-10,
      -6.1486896E-9,
      6.153107E-9,
      6.1482153E-9,
      6.1258096E-9,
      -6.148688E-9,
      4.3206176E-9,
      -6.1372627E-9,
      -3.726413E-9,
      -6.851649E-9,
      1.633857E-9,
      4.5751136E-9,
      5.7809917E-9,
      -2.9755296E-9,
      8.248069E-10,
      -1.8317947E-9,
      -5.3197047E-9,
      2.656774E-9,
      -2.2821585E-9,
      -1.0341963E-9,
      1.306824E-9,
      1.0430843E-9,
      -5.2184777E-9,
      3.147318E-10,
      1.4203092E-9,
      -3.1653222E-9,
      2.32389E-9,
      -2.6111913E-10,
      6.4385297E-9,
      -6.983166E-9,
      5.8383076E-9,
      -1.4903838E-9,
      -1.7063573E-9,
      -3.8111945E-9,
      -9.653149E-10,
      -6.1505605E-9,
      4.0102384E-9,
      2.1460127E-9,
      -4.739025E-9,
      6.898815E-10,
      -7.6593487E-10,
      -6.2641456E-9,
      -4.293441E-9,
      4.291688E-9,
      1.853839E-8,
      2.3765239E-9,
      -2.6711153E-9,
      -3.4535739E-9,
      6.6857244E-9,
      1.0911991E-9,
      -8.3933756E-8,
      2.5206401E-9,
      4.894994E-8,
      1.6019457E-9,
      6.100702E-9,
      -4.8739923E-9,
      -2.4364413E-9,
      5.5358567E-9,
      -5.8168594E-9,
      -4.53767E-9,
      -5.3967457E-9,
      5.3356546E-9,
      -1.5228698E-9,
      -5.60869E-9,
      3.744913E-7,
      6.1196945E-9,
      -5.296294E-9,
      4.2137627E-9,
      6.4084684E-9,
      -7.841133E-8,
      -4.425468E-7,
      1.17418736E-7,
      2.2029991E-7,
      -1.3573514E-8,
      1.1717224E-8,
      6.4375807E-9,
      -9.212703E-8,
      -1.2014218E-7,
      3.825629E-7,
      1.0572986E-7,
      -5.9594484E-8,
      -1.1218711E-8,
      -6.288556E-7,
      -4.047789E-8,
      7.801993E-7,
      1.0857795E-7,
      -2.630461E-7,
      6.946052E-7,
      1.0291496E-6,
      -1.565175E-6,
      -6.21585E-7,
      4.2972894E-7,
      7.77432E-9,
      -0.069183104,
      -4.818746E-7,
      -5.6191897E-7,
      -5.500708E-7,
      -2.5745507E-7,
      3.0312128E-6,
      1.4726668E-7,
      6.2701178E-9,
      -3.0367666E-8,
      -1.6695638E-7,
      -9.3010107E-7,
      4.6851844E-7,
      -3.406003E-8,
      3.5336323E-6,
      6.157102E-7,
      1.5534412E-6,
      -0.025567058,
      6.582017E-7,
      -4.3141748E-7,
      1.0056492E-6,
      -8.050507E-6,
      -6.036168E-7,
      -0.0292037,
      -3.3128816E-7,
      0.0017428187,
      5.764187E-6,
      2.3082305E-7,
      0.017331842,
      -1.943071E-7,
      5.525771E-10,
      -2.4440503E-6,
      7.128751E-7,
      -4.4564325E-7,
      5.583494E-6,
      -1.4691818E-6,
      5.2740775E-6,
      -0.08703668,
      -1.7427372E-8,
      -0.010131269,
      -1.1223541E-6,
      -4.7036037E-6,
      -1.431686E-6,
      -0.10980101,
      -1.1464265E-6,
      5.840896E-6,
      0.02658536,
      3.0206323E-7,
      0.004742941,
      -1.1376326E-6,
      1.9613728E-7,
      -2.6175417E-6,
      2.9338075E-6,
      7.145897E-7,
      7.2870484E-6,
      9.51839E-6,
      5.0892763E-6,
      -0.029686503,
      9.504777E-7,
      -0.011431723,
      -1.1523911E-6,
      -6.1665587E-6,
      -3.3293209E-6,
      -0.072891824,
      -2.9352727E-6,
      7.3228603E-6,
      1.0435686E-5,
      1.2851965E-6,
      0.058324847,
      -0.018155733,
      1.0478124E-6,
      -3.1220286E-6,
      -2.997523E-7,
      3.9329825E-6,
      0.012792723,
      0.028039763,
      5.906276E-6,
      -7.154703E-6,
      7.912993E-6,
      -0.07411718,
      -4.5737265E-6,
      -3.4678337E-6,
      -0.089031585,
      -0.009741263,
      1.9808604E-6,
      1.189838E-5,
      1.4379392E-5,
      0.03489181,
      1.7156858E-4,
      -0.08471371,
      8.368011E-7,
      -0.011156342,
      -2.246737E-6,
      2.378285E-6,
      8.0338505E-6,
      4.1180588E-6,
      0.012037257,
      -0.006672923,
      3.0885194E-4,
      -0.07583388,
      2.6578363E-7,
      -6.3713064E-6,
      -0.107897736,
      -8.8090665E-4,
      0.065384336,
      0.13081548,
      1.9063733E-5,
      0.016839247,
      0.072420396,
      -0.20434141,
      -0.0187297,
      -0.007259905,
      1.7875362E-6,
      -4.1317217E-6,
      8.869856E-6,
      -6.3352386E-6,
      0.010512808,
      -0.09422145,
      0.0033568519,
      -0.07387787,
      3.1477228E-7,
      -0.026150936,
      -0.117690094,
      0.007338369,
      -1.1294098E-6,
      0.0146583775,
      1.8857612E-5,
      6.642892E-6,
      0.042707074,
      -0.12751193,
      -0.030476633,
      -0.0016004364,
      -6.855576E-6,
      0.024997544,
      -2.6681182E-6,
      3.7948778E-6,
      0.057503562,
      -0.015284067,
      0.011272083,
      -0.13234988,
      -1.4589026E-5,
      -0.12817957,
      -0.05109781,
      0.024916148,
      0.0020157208,
      0.07302664,
      0.07288764,
      0.010679254,
      0.02609379,
      -8.382245E-5,
      -0.1289304,
      -0.0047174026,
      -4.183818E-6,
      0.028978964,
      -0.1866298,
      1.5662104E-5,
      0.017930217,
      -4.993415E-6,
      1.1126696E-5,
      -0.17113747,
      -1.5278027E-5,
      -0.11280089,
      -0.08984626,
      0.019775743,
      -1.0133914E-5,
      0.09937663,
      0.0059848595,
      8.247441E-6,
      1.7455919E-6,
      -0.039986204,
      -0.023611216,
      -6.8345003E-6,
      -2.7521219E-6,
      0.077832706,
      -0.30688715,
      0.004583344,
      0.050228797,
      -0.046405073,
      8.359479E-6,
      -0.091477,
      -0.0152461445,
      -0.09275144,
      -0.033666432,
      0.016338348,
      -0.019695101,
      0.08820957,
      0.0715849,
      0.018596662,
      2.4761005E-7,
      -0.06401068,
      -0.051549114,
      -6.0115876E-6,
      2.571199E-6,
      0.009726869,
      -0.19161329,
      0.004287356,
      0.061951574,
      -0.0057743145,
      4.2757347E-6,
      -0.094171174,
      -0.0055685486,
      -0.015198869,
      -0.14641449,
      -2.3970308E-6,
      -0.04478616,
      0.08727735,
      0.054463826,
      0.06877507,
      -2.698804E-6,
      -0.013984477,
      -4.0428968E-6,
      -1.1078212E-6,
      1.3840889E-5,
      6.8255836E-6,
      -0.210206,
      6.050125E-6,
      0.089333825,
      -2.508494E-8,
      -0.017586203,
      -0.07633183,
      -0.012958665,
      -3.4551035E-6,
      -0.087475024,
      -0.02185924,
      -1.8186795E-7,
      0.23976842,
      1.0750971E-6,
      -1.2274226E-6,
      -1.4260188E-5,
      -1.6794527E-5,
      -2.3028005E-7,
      -3.0958208E-7,
      3.5729315E-6,
      -2.2502015E-6,
      -0.1847684,
      9.140533E-6,
      0.05565126,
      0.0011949557,
      -2.3106836E-6,
      -0.121492915,
      -0.051312268,
      0.04181339,
      -0.13415898,
      -0.021784192,
      -0.028829735,
      0.14663778,
      0.022368656,
      0.014113088,
      -0.01669952,
      -2.3507775E-5,
      -3.208295E-7,
      0.052101027,
      0.03928626,
      1.4260684E-6,
      -0.11298252,
      2.882169E-6,
      0.085289046,
      5.636249E-6,
      -1.0482402E-7,
      -0.07912427,
      -2.2671966E-6,
      1.9770655E-6,
      -0.10165096,
      -0.019134281,
      -0.0545823,
      0.1539546,
      1.6261735E-6,
      -3.399192E-6,
      -4.874234E-6,
      -1.6612381E-5,
      -0.06595307,
      1.4749923E-4,
      0.0028647243,
      1.2020922E-6,
      -0.011842018,
      -2.2699013E-4,
      0.032176383,
      0.022022845,
      3.59451E-8,
      -0.03289818,
      4.235467E-6,
      0.09455319,
      -0.06441043,
      -0.0058711506,
      -4.5629636E-6,
      0.123824395,
      -3.5147768E-6,
      1.8024826E-6,
      4.13016E-6,
      -0.002315684,
      -0.033675604,
      0.021855352,
      0.022012306,
      1.6958535E-6,
      -7.590386E-4,
      -0.047634672,
      0.017495828,
      1.314752E-6,
      -3.3075714E-6,
      -0.07588342,
      4.1833455E-6,
      0.035301212,
      -0.03833552,
      -0.015541526,
      3.5991916E-6,
      0.0904751,
      7.060837E-7,
      2.8681418E-6,
      -4.9078885E-6,
      -6.949658E-6,
      2.4891178E-6,
      0.0018843138,
      -1.4765063E-6,
      -0.006768019,
      -8.288236E-7,
      -0.019661063,
      2.9414066E-6,
      5.077033E-6,
      -1.1715199E-6,
      -0.042960532,
      -3.418819E-7,
      0.11472747,
      -4.3066132E-7,
      -1.1491924E-6,
      -2.183807E-9,
      5.1718444E-4,
      1.9054552E-6,
      0.0076516033,
      -0.022141794,
      3.6951333E-6,
      1.4936439E-6,
      2.6703236E-7,
      -1.5787111E-6,
      4.553375E-7,
      -4.6427746E-7,
      -0.03592356,
      8.1497956E-7,
      3.6110025E-6,
      -5.747676E-9,
      -1.945013E-6,
      -3.1461087E-7,
      0.14873333,
      -5.402634E-7,
      -4.575205E-6,
      1.098789E-6,
      6.866999E-7,
      1.1929176E-6,
      0.023359004,
      -0.05551384,
      0.010362858,
      1.9998208E-6,
      5.7698415E-8,
      4.313362E-7,
      2.9592238E-7,
      -1.6833813E-7,
      -0.016926989,
      -5.5064515E-7,
      0.008898517,
      -4.714072E-8,
      -9.838367E-7,
      1.3600773E-7,
      1.4074334E-6,
      -5.4255116E-7,
      -4.850086E-7,
      1.5330339E-6,
      1.6995222E-7,
      4.7691435E-7,
      0.12423589,
      -1.4786144E-6,
      -1.0920152E-6,
      3.5390835E-7,
      1.391457E-8,
      1.2515849E-6,
      1.1941279E-7,
      -5.0717613E-8,
      6.871883E-8,
      -4.912214E-9,
      4.0065328E-7,
      -4.172055E-9,
      -8.4954814E-7,
      1.18987955E-7,
      5.1222983E-8,
      -1.2336699E-7,
      7.9689677E-10,
      4.6619575E-9,
      2.8239802E-9,
      -2.3360953E-9,
      0.048314624,
      3.8209627E-9,
      -8.6704426E-7,
      -1.4258013E-9,
      -6.930163E-9,
      -2.0329125E-9,
      -2.728795E-10,
      -2.865288E-9,
      2.4983526E-9,
      -1.8162907E-9,
      3.835396E-9,
      2.6848888E-9,
      -2.3720061E-9,
      1.0313337E-9,
      -4.33614E-9,
      2.8361749E-9,
      6.0552128E-9,
      -8.0805584E-11,
      -4.607572E-10,
      -1.6346116E-9,
      -2.7610145E-9,
      -4.3533221E-10,
      1.9187274E-9,
      2.0414639E-9,
      4.7281175E-9,
      3.5670231E-9,
      5.928681E-9,
      6.4496573E-9,
      4.9746243E-9,
      -4.271276E-9,
      -3.9920995E-9,
      4.9314717E-9,
      3.9060577E-9,
      1.1926793E-9,
      -6.3272694E-9,
      -3.7040593E-11,
      1.6111752E-9,
      1.4867898E-9,
      5.970756E-9,
      -3.6663579E-9,
      -1.1880692E-9,
      -6.893366E-10,
      -3.7642796E-9,
      -1.4847532E-9,
      4.4677417E-10,
      -6.609273E-9,
      -6.2416414E-9,
      3.1537262E-10,
      -1.9391124E-9,
      6.149855E-9,
      -6.1221894E-9,
      6.120866E-9,
      6.1215233E-9,
      6.151016E-9,
      6.1490875E-9,
      -6.1372627E-9,
      6.1500622E-9,
      -6.1373764E-9,
      -6.129197E-9,
      6.1483147E-9,
      6.121207E-9,
      -6.1342065E-9,
      1.052185E-10,
      6.1489738E-9,
      -4.661116E-10,
      -6.1479257E-9,
      6.147686E-9,
      -6.120653E-9,
      5.4119473E-9,
      -4.3153037E-10,
      1.8104913E-9,
      -5.6116383E-9,
      -5.602413E-9,
      3.6474437E-9,
      -3.519768E-9,
      2.8693243E-9,
      8.4544105E-10,
      -6.5909282E-9,
      3.1920249E-9,
      -9.657275E-10,
      5.893375E-9,
      -4.036596E-9,
      4.20007E-9,
      6.76678E-9,
      -5.9923755E-10,
      3.5254568E-9,
      4.0018104E-9,
      -4.8230486E-10,
      5.9626646E-9,
      1.115998E-9,
      -5.21156E-10,
      -4.5551936E-9,
      4.221105E-9,
      -6.0927388E-9,
      -5.668256E-9,
      4.833717E-9,
      1.1211574E-9,
      -1.4609887E-9,
      9.818413E-11,
      1.7212614E-9,
      1.913493E-9,
      3.8705728E-9,
      5.2344657E-9,
      -5.6515206E-9,
      5.236953E-9,
      3.5664205E-9,
      -2.523576E-9,
      2.0211037E-9,
      -2.0629622E-9,
      -6.1765992E-9,
      -1.6491968E-9,
      -2.7400073E-8,
      5.537535E-10,
      1.865649E-9,
      -3.0668894E-9,
      -3.5501198E-9,
      3.8143946E-9,
      -7.6069817E-10,
      -3.3277954E-9,
      2.5824276E-9,
      1.1550503E-9,
      -4.7920823E-10,
      2.3762824E-7,
      2.0559163E-9,
      1.3575727E-9,
      1.9242177E-7,
      2.4223858E-9,
      -4.2843147E-9,
      6.5613635E-9,
      7.8546103E-10,
      -4.1404428E-7,
      -5.9825516E-7,
      -1.3875798E-9,
      1.4258796E-7,
      -1.4571546E-6,
      4.9647033E-9,
      -1.5638535E-7,
      3.5608436E-9,
      -2.1149158E-9,
      2.645094E-7,
      1.9751862E-7,
      -2.2402837E-7,
      2.54999E-9,
      -5.8376935E-7,
      -3.3367362E-9,
      1.0048655E-6,
      -5.313512E-9,
      1.8754126E-6,
      -8.2880945E-8,
      -3.132848E-7,
      -1.4970285E-6,
      -2.0014338E-6,
      1.01946874E-7,
      1.6121971E-6,
      -0.024475385,
      -5.110511E-7,
      -1.1461801E-6,
      -8.5993923E-7,
      -2.931999E-7,
      0.008308852,
      1.168441E-6,
      -7.976528E-7,
      4.3606274E-10,
      -2.0972195E-7,
      7.399253E-7,
      2.290538E-6,
      -2.6542457E-10,
      2.9793836E-7,
      5.979183E-7,
      1.9201245E-7,
      -0.05523349,
      -2.6722546E-7,
      8.714401E-7,
      2.6868685E-7,
      -0.045265943,
      -5.4213797E-7,
      -0.028314298,
      -2.0721552E-6,
      -0.0034866522,
      0.06058614,
      6.2805657E-7,
      0.028975384,
      -2.7422885E-7,
      2.8643465E-6,
      -2.0199799E-7,
      8.7726227E-7,
      -3.7139958E-7,
      1.8087247E-6,
      -1.622472E-6,
      3.7224015E-6,
      -0.1095809,
      0.013928083,
      -0.0063837403,
      -2.3081452E-6,
      -1.4465204E-6,
      -1.4248309E-6,
      -0.058735326,
      -4.2171017E-8,
      -2.8005637E-8,
      6.4342485E-6,
      9.351005E-7,
      0.058887027,
      -1.6492273E-6,
      4.9520545E-6,
      -1.2696739E-6,
      3.7395292E-8,
      -4.711137E-6,
      2.503265E-6,
      -4.280788E-6,
      1.0855764E-5,
      -0.07056551,
      0.020175591,
      -0.11339636,
      2.7879112E-6,
      -3.0956285E-6,
      -5.0059975E-6,
      -0.11442357,
      -4.5409165E-6,
      -0.034949347,
      0.016801065,
      9.904792E-7,
      0.027408611,
      -0.014652626,
      4.0290606E-6,
      -6.967564E-7,
      0.0035878925,
      -5.1722895E-6,
      7.9356105E-6,
      -3.5893657E-7,
      2.660919E-6,
      -7.869372E-6,
      8.946978E-4,
      -0.0030452511,
      0.07297383,
      -0.021561518,
      -0.010560456,
      -0.08730129,
      -2.697547E-6,
      1.5932819E-6,
      0.0031470375,
      3.527551E-6,
      0.069098845,
      -0.01837684,
      4.083707E-6,
      -8.453891E-6,
      2.3776315E-6,
      -6.709954E-6,
      0.003901546,
      -7.8987405E-6,
      9.2048E-6,
      -0.03335928,
      0.012662904,
      -0.08099774,
      0.01751056,
      -0.031137127,
      -0.011598389,
      -0.026192775,
      6.734439E-4,
      -0.022398883,
      1.2502864E-5,
      0.027101664,
      0.08351107,
      -0.04819718,
      5.642922E-7,
      -8.755645E-6,
      -1.7674714E-6,
      -7.2718944E-6,
      7.766882E-6,
      5.2096093E-6,
      6.7484016E-6,
      -4.5123916E-6,
      1.2855145E-5,
      -3.1984796E-6,
      0.09988886,
      -0.027737549,
      -3.1201378E-4,
      1.0428197E-6,
      2.7210837E-7,
      -6.538778E-4,
      9.626398E-6,
      0.049284697,
      0.07630533,
      -0.12029767,
      -0.13855302,
      -4.5702773E-6,
      0.043702144,
      -2.430959E-7,
      5.256877E-6,
      0.0015740346,
      -9.898338E-6,
      -6.630766E-6,
      1.0880467E-5,
      -0.09551193,
      -7.3224055E-6,
      -6.201994E-6,
      -0.0042641005,
      1.1258024E-5,
      0.019704431,
      -6.4058777E-6,
      1.706174E-5,
      0.02427689,
      0.054597866,
      -0.13553561,
      -0.09389672,
      -6.041921E-6,
      1.3285271E-5,
      5.457983E-4,
      -9.871237E-7,
      0.061909407,
      -1.0799399E-5,
      -0.04322607,
      7.536396E-6,
      -0.05394394,
      5.360181E-6,
      -0.0330451,
      -0.048593044,
      2.1839536E-5,
      0.03959434,
      1.867339E-5,
      0.03570597,
      0.041021544,
      1.4521992E-5,
      -0.0943398,
      -0.16569942,
      -0.019922722,
      0.059888415,
      1.0608389E-6,
      -0.049129475,
      2.2215484E-6,
      -0.026826061,
      -1.1058841E-5,
      7.485671E-6,
      -0.07200422,
      -1.3057167E-5,
      -4.123435E-4,
      -6.632398E-6,
      1.0534602E-6,
      0.07577325,
      0.028964797,
      1.647155E-5,
      1.4619974E-5,
      0.04454009,
      -1.7509043E-5,
      -0.10025699,
      -0.052907664,
      0.0585002,
      -0.01613126,
      -0.01210585,
      1.6826953E-5,
      -9.535402E-6,
      -0.048940778,
      4.3026765E-7,
      -0.23508178,
      -2.3347962E-5,
      -6.1437713E-6,
      2.2973472E-6,
      -1.13266215E-5,
      0.020235619,
      1.9327314E-5,
      1.1115177E-5,
      0.0036134217,
      2.5889321E-5,
      -0.04027978,
      -0.20872223,
      -0.024253238,
      2.1613207E-5,
      -7.1936793E-6,
      -0.019279543,
      4.272353E-6,
      -1.186136E-5,
      -0.08201811,
      2.496381E-6,
      -0.27727544,
      -0.006522209,
      -3.9781157E-6,
      0.035958655,
      -0.02587124,
      5.9708887E-6,
      6.492166E-6,
      0.021113805,
      0.032166418,
      0.09843616,
      -0.023798678,
      -0.12377436,
      -0.039484207,
      0.030584013,
      -0.018362777,
      -0.007275978,
      0.10057135,
      -1.5799194E-6,
      4.1513206E-4,
      -0.005153643,
      -0.20618021,
      -1.4453814E-5,
      0.03596019,
      0.016492637,
      -0.027265998,
      5.0000235E-6,
      -0.01747058,
      0.0124399215,
      5.2852834E-6,
      -6.9777507E-6,
      -0.018268501,
      -0.12324376,
      -2.928656E-6,
      1.4717208E-5,
      -0.0780349,
      -0.11537161,
      0.077737845,
      0.005817316,
      2.6020298E-6,
      -0.037515827,
      -0.24135986,
      -2.6932405E-6,
      0.044620328,
      -4.7318217E-6,
      -0.02027659,
      8.5529746E-7,
      2.5132417E-6,
      2.0022751E-5,
      0.026300361,
      0.010662526,
      -2.717144E-5,
      -0.15672843,
      7.884158E-8,
      0.041768897,
      -0.002081621,
      -0.17077877,
      -4.4228166E-8,
      0.02086963,
      0.025761656,
      -1.3483712E-5,
      -0.108358085,
      7.3490783E-6,
      0.056321584,
      -0.015625112,
      -0.03644386,
      -3.080063E-6,
      6.3596846E-4,
      0.0019166163,
      0.025753664,
      2.6643577E-6,
      -9.893417E-6,
      -0.026003141,
      0.008932106,
      1.0581408E-5,
      -0.06577298,
      -0.061013103,
      -4.178844E-6,
      0.012809205,
      0.08094953,
      -9.296778E-6,
      -0.137953,
      0.02598618,
      1.1152365E-5,
      -2.591034E-4,
      -5.405114E-6,
      -7.4627587E-6,
      -1.0437126E-6,
      4.597444E-6,
      -9.825146E-7,
      -3.964583E-6,
      -1.1225115E-6,
      2.3762939E-6,
      3.3865936E-6,
      0.046029516,
      -0.06327234,
      -0.0012296134,
      -0.14347821,
      0.022854231,
      0.00738779,
      -3.4697125E-6,
      -0.0144395465,
      1.9598824E-6,
      9.0855946E-7,
      -1.8176302E-6,
      -0.061617415,
      5.8113704E-7,
      -0.012617459,
      6.7459354E-7,
      0.12914908,
      -7.856055E-6,
      -5.809812E-6,
      -4.107903E-7,
      1.9784275E-6,
      0.042317856,
      -0.049709387,
      -0.0011971112,
      -0.09454838,
      0.010882693,
      0.07519083,
      -0.048969783,
      -4.048411E-6,
      0.04403827,
      1.1978457E-6,
      -1.5861037E-6,
      -0.051997017,
      0.02012731,
      2.019308E-6,
      2.1553308E-6,
      0.004863135,
      -4.6028595E-6,
      5.112657E-6,
      0.13669568,
      9.903513E-7,
      1.3592595E-6,
      -0.02817863,
      -1.1962753E-6,
      1.734757E-7,
      3.8568633E-6,
      0.027050085,
      -6.3302315E-7,
      -1.4386101E-6,
      0.16189142,
      7.2620594E-7,
      -0.0077613504,
      -0.0038537495,
      0.0352484,
      3.0692117E-6,
      -9.711889E-7,
      0.118592076,
      -3.2998175E-6,
      -2.1679405E-9,
      0.031260256,
      -5.6318033E-8,
      -2.010869E-7,
      -0.030964259,
      -1.3626364E-7,
      -1.5917392E-9,
      5.393804E-7,
      0.1461028,
      -2.1006358E-7,
      -1.1137919E-6,
      0.06575972,
      5.999419E-7,
      -1.0233041E-6,
      5.3929966E-7,
      5.0569775E-5,
      6.536872E-7,
      3.5046156E-7,
      0.21841547,
      -1.7382996E-6,
      1.0662525E-8,
      2.4188046E-7,
      -4.9472237E-7,
      8.892013E-7,
      -0.008485978,
      -2.5467886E-8,
      2.4440983E-9,
      6.4068275E-9,
      1.1241613E-6,
      -1.6568623E-7,
      -7.5827444E-7,
      1.3145336E-6,
      1.6283879E-7,
      6.634772E-9,
      -5.8363696E-9,
      -3.2424524E-7,
      -5.189854E-9,
      5.0106013E-7,
      0.003990709,
      -3.3485432E-9,
      2.7592488E-9,
      -4.5087756E-10,
      5.316473E-9,
      1.2334674E-7,
      4.6700968E-9,
      -4.056531E-9,
      3.1346126E-9,
      -5.0173202E-8,
      -2.9814933E-9,
      -3.6233319E-9,
      2.6726745E-9,
      1.5775564E-7,
      3.122219E-9,
      5.7237344E-9,
      2.43217E-10,
      -6.0207334E-8,
      2.6145441E-9,
      1.4329604E-9,
      3.997932E-9,
      4.0985615E-10,
      -5.2862146E-9,
      1.9264554E-9,
      -5.258139E-9,
      -6.8129284E-9,
      2.109748E-10,
      -2.463083E-9,
      -2.9531768E-9,
      -7.336801E-8,
      -1.6710477E-9,
      3.2805647E-9,
      -4.6079145E-9,
      3.1999425E-10,
      4.933004E-9,
      -1.0759638E-9,
      3.954578E-9,
      -2.8990903E-9,
      5.28834E-9,
      -1.2676016E-9,
      -6.353116E-9,
      -3.9729136E-9,
      -1.3828374E-9,
      -2.5610842E-9,
      -2.6975235E-9,
      -5.7369216E-9,
      -2.4166487E-9,
      -5.1590554E-9,
      -4.923538E-9,
      1.236311E-9,
      -6.650356E-10,
      -2.5512286E-9,
      -4.5762643E-9,
      6.5736923E-9,
      5.8741754E-9,
      6.7575363E-9,
      -2.3547182E-9,
      -3.9451E-9,
      -1.8905206E-9,
      4.1383874E-10,
      -1.26759E-9,
      6.2906285E-9,
      8.918679E-10,
      -3.2109213E-9,
      -5.202922E-9,
      -5.810804E-9,
      1.9298545E-9,
      -4.1816546E-9,
      4.842386E-9,
      5.501072E-9,
      7.267693E-10,
      -6.6276304E-9,
      1.8131852E-10,
      -4.73683E-9,
      -2.9220493E-10,
      -4.899401E-10,
      3.0554048E-9,
      1.9541924E-10,
      3.4548653E-9,
      5.6293996E-9,
      -5.2189493E-9,
      -4.1454125E-9,
      2.3480986E-9,
      1.0709833E-9,
      -2.6592453E-9,
      1.1727761E-9,
      -2.4801903E-9,
      -1.0205614E-11,
      -1.3839285E-10,
      -2.387686E-9,
      2.1562805E-9,
      2.5309527E-7,
      2.2339908E-11,
      1.5843789E-9,
      3.1397112E-9,
      -7.5648643E-10,
      3.983302E-9,
      -2.1074946E-9,
      -1.2015411E-10,
      -4.9528026E-10,
      -1.79651E-9,
      -6.807008E-9,
      -5.277886E-9,
      4.1585673E-9,
      -4.3562887E-10,
      1.6486936E-9,
      4.1149923E-9,
      6.2625616E-9,
      4.3640207E-9,
      -1.86348E-9,
      6.343052E-9,
      -2.5946102E-8,
      1.7384316E-9,
      5.299873E-9,
      5.576064E-9,
      1.8704283E-10,
      -3.6895296E-9,
      1.7757289E-9,
      -0.0042147166,
      -3.5691254E-9,
      -1.2462364E-9,
      4.089201E-9,
      -1.1011947E-9,
      5.2190563E-10,
      2.2831928E-7,
      1.7840651E-7,
      -6.631044E-9,
      5.5493077E-10,
      5.1438476E-9,
      -1.9119746E-8,
      2.265927E-9,
      7.999438E-8,
      -1.3125247E-8,
      9.436436E-7,
      -0.038706936,
      -2.3241012E-7,
      -2.8366784E-7,
      -1.7066044E-7,
      -3.926755E-6,
      -6.5402595E-8,
      4.1278807E-7,
      -6.2706323E-7,
      1.955703E-8,
      3.3952174E-9,
      4.7911897E-7,
      3.6979264E-7,
      2.4111908E-9,
      -9.541816E-7,
      -3.3667666E-7,
      5.3830638E-9,
      -2.4763278E-7,
      -1.4147583E-6,
      -4.2337156E-6,
      2.9368018E-6,
      -0.068113014,
      -1.991681E-6,
      -5.7083423E-7,
      -0.0063354177,
      -2.0433522E-6,
      1.021407E-6,
      0.0073880604,
      -1.4792488E-6,
      1.754211E-8,
      4.375551E-6,
      3.1032696E-6,
      1.4411543E-6,
      6.2746935E-8,
      -3.5266464E-6,
      -0.031060025,
      -9.937918E-7,
      -0.06276994,
      3.4599285E-7,
      -2.20995E-6,
      1.6724491E-6,
      -2.6570556E-6,
      -1.266329E-6,
      -0.045269277,
      -0.004053271,
      -7.466661E-4,
      2.755614E-6,
      2.816825E-6,
      2.5721133E-6,
      -1.0567505E-7,
      6.3447346E-6,
      1.9461636E-6,
      2.0797165E-6,
      -3.1118025E-6,
      2.5030488E-6,
      -0.007098945,
      2.2829688E-6,
      -0.019524505,
      0.011640795,
      -2.6194139E-6,
      7.939163E-6,
      4.6817615E-7,
      -0.0022840884,
      -0.04243151,
      -1.5370387E-6,
      -0.04497042,
      -2.5530635E-6,
      0.051409505,
      0.014204768,
      -9.577367E-7,
      0.0068197516,
      -1.0375572E-6,
      -1.9634047E-6,
      -7.771021E-6,
      -8.3634575E-7,
      -4.815026E-6,
      -3.2907171E-6,
      -0.0921695,
      0.014134236,
      -0.039964512,
      0.06094334,
      -7.406992E-7,
      -0.039000522,
      -0.08008204,
      -0.008417733,
      -0.01510468,
      -4.1923427E-6,
      0.105968885,
      0.04215159,
      -0.011863076,
      -2.0157831E-6,
      1.9939612E-6,
      0.016016115,
      -0.010198744,
      1.1147566E-5,
      2.635466E-6,
      -1.6392487E-5,
      -4.711373E-6,
      9.499907E-6,
      -3.917344E-6,
      0.052437883,
      -9.199294E-6,
      4.2520965E-6,
      -0.0034979545,
      3.443524E-6,
      -1.0746523E-5,
      3.2003227E-6,
      0.07087988,
      4.0076166E-6,
      -0.0826831,
      -0.025541438,
      0.049494088,
      0.06942308,
      -0.02144646,
      0.0044898125,
      0.044164088,
      -7.661782E-6,
      -5.193103E-6,
      9.863483E-7,
      -6.241798E-7,
      0.013936332,
      2.3565337E-7,
      0.0049547944,
      -3.6758553E-5,
      6.485761E-6,
      -0.08423642,
      3.9027627E-6,
      0.07596576,
      0.026267234,
      -0.1763642,
      -0.0018149208,
      1.438842E-6,
      0.0056178058,
      -0.10081675,
      0.0077755256,
      0.043254163,
      -0.015544785,
      -0.0017602191,
      -4.528327E-6,
      -1.2629044E-6,
      -1.7995965E-6,
      -0.0014812404,
      -1.2575295E-5,
      -3.1308928E-6,
      0.0063703074,
      2.1022274E-6,
      6.5827467E-6,
      8.636598E-6,
      0.037026465,
      -0.14442661,
      -6.9852367E-6,
      1.927846E-6,
      3.901722E-6,
      -0.005065252,
      0.052971993,
      -2.3545762E-7,
      -0.015749773,
      -5.132946E-6,
      -0.007931101,
      1.1741876E-6,
      1.1882966E-5,
      4.1207494E-7,
      -7.826993E-6,
      -2.0219854E-6,
      0.03490221,
      -0.040526446,
      0.032386713,
      0.044358313,
      2.0756468E-6,
      -2.1733713E-6,
      -0.13821328,
      3.8578537E-6,
      8.911293E-6,
      -0.062542096,
      8.046473E-6,
      7.004945E-7,
      -0.011983712,
      -3.611391E-6,
      -1.987674E-6,
      7.825683E-6,
      -5.3325343E-6,
      0.032666385,
      -1.12195E-5,
      9.93793E-7,
      -3.2031105E-6,
      -0.040297322,
      0.0015277526,
      -4.7387557E-6,
      0.06724165,
      -2.8887446E-6,
      -0.11322442,
      -0.059536107,
      1.18619E-4,
      -0.042004835,
      0.067268856,
      0.0034683286,
      -0.037318923,
      -1.6276357E-5,
      -0.06573899,
      5.7294715E-6,
      -0.07466136,
      2.1111364E-5,
      0.012205152,
      7.429451E-4,
      0.05753919,
      -0.025842909,
      0.07415706,
      -2.4245878E-6,
      0.07019804,
      -9.535232E-6,
      -0.17556146,
      -7.5629E-6,
      0.021230197,
      -0.009257357,
      7.3739225E-6,
      -8.013664E-7,
      -0.030868014,
      -0.015016946,
      -0.08352655,
      7.8602443E-7,
      -2.0298976E-5,
      0.050152414,
      0.021645011,
      0.0038125021,
      0.0056845807,
      -5.8632277E-6,
      0.057469513,
      1.9331294E-6,
      0.053999875,
      -0.02208112,
      -0.1700028,
      -0.04630009,
      0.023264354,
      -0.113289915,
      7.587581E-6,
      2.1264357E-6,
      -0.014212948,
      -0.0040074894,
      -8.028666E-6,
      -0.049544796,
      -0.03336913,
      0.035752792,
      0.11017655,
      -0.0163976,
      0.029100923,
      -1.2584209E-6,
      0.007341067,
      0.008941985,
      0.019154573,
      -2.4274234E-6,
      -0.10072157,
      -1.3744583E-5,
      0.008700923,
      -0.02699168,
      -0.1409389,
      -2.6391604E-6,
      -1.9115405E-5,
      2.43746E-6,
      -8.106248E-5,
      -0.0779332,
      -0.010202901,
      0.14195299,
      0.09502579,
      -1.747094E-5,
      0.028896468,
      -0.0627941,
      0.0704343,
      8.0884885E-5,
      0.02682164,
      -1.4424217E-5,
      -0.08769237,
      -0.008877364,
      0.06284774,
      -0.044226374,
      -0.111446775,
      -0.30175903,
      -5.727529E-6,
      4.3409586E-6,
      -5.048717E-6,
      -0.17902997,
      -0.0023146847,
      0.19430204,
      -3.973117E-6,
      -0.0273878,
      0.048813157,
      -0.018627523,
      5.561463E-6,
      0.058652148,
      0.05362842,
      -1.2576588E-5,
      -0.120769426,
      4.9276982E-6,
      0.021116111,
      -0.047237158,
      -0.17491326,
      -0.40735757,
      -2.1425296E-6,
      -3.738417E-6,
      7.514273E-6,
      -0.008188487,
      -0.013515385,
      0.12556607,
      -1.2820086E-5,
      -8.770899E-6,
      -3.0876258E-6,
      -0.017750364,
      0.03241736,
      0.01737642,
      0.03287743,
      0.016944999,
      -0.031410873,
      7.2134463E-7,
      1.4263433E-5,
      -0.09857236,
      -0.20858997,
      -0.39282596,
      5.3579934E-6,
      3.455523E-6,
      -3.9952197E-6,
      -2.3217563E-6,
      0.046670403,
      0.15003262,
      -4.4197438E-4,
      -0.0466008,
      -0.02287006,
      -0.032588165,
      6.973377E-6,
      0.062425785,
      0.03864415,
      0.025606235,
      -0.15058896,
      -0.00954563,
      4.255475E-6,
      -0.10509153,
      -0.077325456,
      -0.31822088,
      2.5075879E-6,
      8.051574E-6,
      1.9927882E-8,
      5.2401047E-6,
      1.2702713E-5,
      0.07659894,
      -3.92385E-6,
      -0.060497086,
      -4.263078E-6,
      -0.025528863,
      -3.299337E-6,
      0.018244684,
      -2.6688977E-6,
      0.041950893,
      -0.044200912,
      -0.006545795,
      3.0969586E-6,
      -0.15592913,
      -0.1545002,
      -0.24216944,
      3.553469E-6,
      0.1180196,
      -1.9736638E-6,
      0.05039569,
      0.007319778,
      4.4319438E-7,
      -5.914958E-4,
      -0.03841802,
      1.3372029E-7,
      -3.1440943E-6,
      3.192293E-7,
      0.030229902,
      -4.8093184E-6,
      0.039755553,
      -2.471793E-6,
      -0.03855923,
      7.526107E-7,
      -0.08129533,
      -0.042070694,
      -0.28851444,
      0.010729599,
      0.13934496,
      -0.02553129,
      0.0023431072,
      0.09917118,
      3.1444717E-8,
      -0.057704054,
      -0.058822744,
      0.041212264,
      -4.562953E-7,
      8.4417206E-7,
      0.09675235,
      -5.7467078E-6,
      0.015022591,
      0.036613565,
      -8.805397E-7,
      -2.3520106E-7,
      -0.11674185,
      -7.884026E-8,
      -0.14887463,
      -8.2139945E-7,
      0.024882209,
      -8.014255E-8,
      9.503114E-7,
      0.15268853,
      4.810314E-7,
      -4.0045047E-6,
      -0.03824319,
      0.0023217464,
      2.4375886E-6,
      1.6192639E-6,
      0.18918496,
      -8.288823E-7,
      6.556458E-7,
      0.01918403,
      -1.2122827E-6,
      9.93381E-7,
      -0.0013395722,
      -5.6185627E-8,
      2.1346742E-7,
      -7.566766E-8,
      1.1776681E-7,
      -3.058614E-7,
      -9.825073E-7,
      1.3988882E-6,
      2.29033E-8,
      -3.8903374E-7,
      1.5403018E-7,
      3.798185E-9,
      -5.4573066E-9,
      -7.491205E-7,
      0.10560675,
      5.992995E-8,
      -2.6417914E-7,
      -5.5630767E-9,
      -3.176865E-7,
      -3.322228E-7,
      -1.8764732E-7,
      -5.4322726E-8,
      -2.9641936E-7,
      1.8802588E-7,
      6.3808834E-8,
      -3.202541E-8,
      -4.8631114E-7,
      3.758547E-7,
      -6.4774017E-9,
      -3.5446828E-7,
      2.0705546E-7,
      2.140979E-9,
      -5.567089E-10,
      -7.811375E-7,
      1.6679195E-7,
      1.4213934E-8,
      -4.219381E-7,
      -1.9182202E-9,
      -1.763432E-7,
      -3.7038984E-7,
      -2.5756972E-7,
      -3.884025E-8,
      -3.9735772E-7,
      -3.762362E-9,
      2.630018E-9,
      -4.8583866E-9,
      2.8520091E-8,
      -1.4983041E-9,
      -4.7179833E-9,
      4.7727617E-9,
      5.867587E-9,
      1.3804584E-9,
      1.6558692E-9,
      -5.0411173E-9,
      6.952687E-9,
      9.0296925E-10,
      -5.576725E-9,
      1.9750415E-9,
      1.7672304E-9,
      4.881828E-9,
      2.129072E-9,
      -2.873417E-9,
      1.6748958E-9,
      4.0353845E-9,
      9.353984E-11,
      -4.6402744E-9,
      -4.7979607E-9,
      9.198864E-11,
      3.4097325E-9,
      -5.2196234E-9,
      6.680522E-9,
      -3.4458822E-9,
      -2.1446822E-9,
      -5.6431637E-9,
      -5.5041167E-9,
      -2.463003E-10,
      2.3961384E-9,
      -2.6158853E-10,
      -6.102754E-10,
      1.0114913E-9,
      4.2983128E-10,
      -3.6404915E-9,
      -4.8697135E-9,
      -6.1702354E-9,
      6.4584817E-9,
      -1.3344792E-10,
      2.095467E-9,
      -4.1481525E-9,
      4.2227155E-9,
      5.0094355E-9,
      -3.5550145E-9,
      -4.05819E-9,
      -3.508727E-9,
      -9.550076E-10,
      -5.2303286E-9,
      -6.5572445E-9,
      -1.653536E-9,
      -3.7974117E-9,
      -6.00531E-9,
      1.0599264E-9,
      -4.392777E-9,
      3.3346614E-10,
      -3.2430996E-9,
      -7.481211E-10,
      4.061973E-9,
      6.7133277E-10,
      -3.068946E-9,
      1.7394219E-9,
      5.594471E-9,
      -3.895387E-9,
      -5.3871956E-9,
      3.844548E-9,
      -2.6251294E-7,
      -6.801285E-8,
      -4.8865214E-9,
      2.9690517E-10,
      -5.3168554E-9,
      4.613063E-9,
      1.5766508E-7,
      6.8885195E-9,
      -6.111205E-10,
      3.177716E-10,
      1.4025661E-9,
      1.420825E-8,
      6.8816868E-9,
      -1.8917746E-7,
      3.2940747E-8,
      1.47677E-7,
      6.035297E-8,
      2.1132664E-7,
      -1.3527312E-8,
      7.357679E-8,
      -0.040026173,
      -3.5171436E-7,
      -6.8863955E-8,
      -1.6241406E-8,
      -1.8098966E-8,
      3.5615821E-9,
      9.987817E-7,
      -2.9796223E-7,
      -2.5796503E-8,
      -1.2177341E-7,
      -1.2192753E-9,
      -2.286173E-8,
      -7.027495E-9,
      2.2212434E-6,
      2.3602897E-7,
      5.8844427E-7,
      -0.12456205,
      -6.187706E-8,
      -2.6284704E-7,
      -1.7629019E-7,
      -0.02100549,
      -0.0031954555,
      0.06943759,
      -9.070672E-7,
      -3.7307912E-9,
      1.6586204E-6,
      1.0288367E-6,
      -2.1703822E-6,
      -2.2324752E-8,
      -3.1371733E-6,
      -3.6244526E-6,
      2.8445161E-8,
      -0.0127649,
      1.0430766E-6,
      -0.019067269,
      3.5534783E-6,
      -0.06331075,
      3.6885E-7,
      -7.7239076E-7,
      -6.262683E-7,
      -0.012306131,
      -1.553675E-6,
      3.4176492E-7,
      -2.5900972E-6,
      -7.902394E-9,
      0.013939264,
      2.3261014E-6,
      1.6643913E-8,
      -8.8173124E-7,
      -3.005616E-6,
      -9.962856E-7,
      -5.547073E-7,
      -0.106076516,
      0.0031518384,
      -4.1159096E-6,
      5.0358112E-6,
      -2.3585244E-6,
      2.320586E-6,
      -1.4506869E-6,
      -4.8436173E-6,
      7.313623E-7,
      -2.6751297E-6,
      1.4794645E-6,
      -2.2170443E-6,
      -6.006605E-7,
      0.011076716,
      -6.9427597E-6,
      0.0024331135,
      -0.024721924,
      -2.0347786E-6,
      -1.6518092E-6,
      2.136737E-6,
      -0.10575523,
      0.04525881,
      -7.853033E-6,
      0.09729102,
      5.726417E-7,
      -8.340915E-7,
      -5.895875E-6,
      -0.017351648,
      -0.059517585,
      -0.028892895,
      0.066561095,
      -2.7205665E-6,
      -1.2852007E-6,
      4.714874E-6,
      -1.5854406E-6,
      0.033277463,
      -0.08061184,
      2.0175952E-5,
      -2.481035E-6,
      -1.0992811E-5,
      -0.013222538,
      0.017183907,
      -1.0149266E-5,
      0.01397174,
      -2.4092478E-6,
      9.127047E-6,
      -0.094191045,
      -7.1039835E-6,
      -0.057224147,
      -0.036543824,
      0.060822565,
      -4.754398E-6,
      -0.012388624,
      -0.0100631835,
      -2.7729159E-6,
      1.0852932E-5,
      -0.084545486,
      0.011580429,
      0.038211044,
      -1.2654758E-5,
      -8.4231515E-6,
      0.007864539,
      -0.016625045,
      0.027631711,
      -5.971395E-6,
      0.014775801,
      -0.062278673,
      -4.162698E-6,
      -0.04663491,
      4.3707703E-7,
      0.02269698,
      -1.0033907E-6,
      -0.075440384,
      -5.4421207E-6,
      -7.648997E-6,
      -2.5257991E-6,
      -0.06281233,
      1.2064545E-5,
      0.038599815,
      -1.8737406E-5,
      -5.5512005E-6,
      0.061237156,
      1.2485998E-6,
      -1.5217991E-5,
      5.59433E-6,
      3.7933594E-6,
      -0.03919578,
      -4.1092762E-6,
      -0.012398022,
      8.376589E-6,
      0.033594914,
      0.008599601,
      -0.038955446,
      -1.3891521E-6,
      9.247465E-9,
      -5.4665696E-7,
      -0.077356644,
      0.11187443,
      0.045919295,
      -0.01696179,
      -1.5493171E-6,
      2.6904593E-6,
      7.1854497E-6,
      0.051217817,
      2.866791E-6,
      0.025911871,
      -0.018947823,
      -5.937077E-6,
      -0.01837991,
      0.002734868,
      0.09384351,
      0.081030704,
      -0.081985526,
      -1.1018631E-5,
      -7.854999E-7,
      -0.004836429,
      -0.114017576,
      0.033860687,
      0.0635594,
      9.774205E-7,
      5.277461E-6,
      -0.04909626,
      0.09616305,
      0.0072570923,
      0.0064286096,
      -1.2953203E-5,
      2.576692E-6,
      -8.959626E-6,
      -0.056486037,
      0.03855547,
      0.10125973,
      -1.885769E-5,
      -0.089911945,
      5.9760555E-6,
      -9.310991E-6,
      -0.030231146,
      -0.12649068,
      0.14697023,
      4.0692566E-6,
      8.4234935E-6,
      -1.0005505E-5,
      -1.0805605E-6,
      0.07901601,
      0.07953983,
      0.022234347,
      -2.4083986E-6,
      0.0606714,
      -1.6413565E-5,
      7.538395E-6,
      7.3345004E-6,
      0.029700445,
      -2.6703176E-6,
      -0.07507242,
      -0.12946628,
      -1.2663895E-5,
      2.4384703E-6,
      -0.10767627,
      0.1782631,
      -0.015915347,
      -9.760362E-6,
      -0.050017916,
      2.9503424E-6,
      0.06524212,
      -8.096525E-6,
      -3.9839565E-6,
      0.014849044,
      0.03118516,
      1.6660618E-6,
      -0.044859525,
      2.009265E-4,
      0.06565401,
      0.08544232,
      -0.042453878,
      -0.19254926,
      -1.1975147E-5,
      0.0012858259,
      -0.040270288,
      2.1787395E-5,
      -0.050922632,
      -5.8774904E-6,
      -0.04417098,
      -1.5984906E-5,
      0.06851063,
      -0.0065438766,
      8.2514435E-7,
      -1.2061009E-5,
      0.020820064,
      0.015967501,
      -0.024607029,
      0.11631622,
      0.066008955,
      0.06134271,
      -1.5043856E-5,
      -0.1884687,
      -6.337806E-6,
      0.045004074,
      -0.00900425,
      -7.601605E-6,
      -0.39261696,
      0.014368371,
      -5.67119E-6,
      -1.7793366E-4,
      0.054127004,
      -1.6953878E-5,
      -5.4820644E-6,
      -2.2192733E-5,
      -3.3016855E-5,
      0.039610863,
      -0.03122465,
      0.0011607222,
      0.060704257,
      -7.665327E-6,
      4.325177E-4,
      -0.25789663,
      -0.016907027,
      1.5380343E-5,
      -0.102530114,
      -0.10185285,
      -0.5331733,
      4.984387E-7,
      0.0049744714,
      -2.4369474E-6,
      0.10549393,
      -2.7499734E-6,
      -2.5960903E-6,
      9.3905386E-5,
      -2.127586E-5,
      0.006374224,
      -2.330036E-5,
      1.0118161E-5,
      0.006372688,
      -2.1826956E-8,
      0.0017549741,
      -0.09439363,
      -1.2030048E-5,
      3.450049E-5,
      -0.07116367,
      -1.3965984E-5,
      -0.38941628,
      -6.867885E-6,
      0.011966433,
      3.775996E-6,
      1.1464003E-6,
      0.016994413,
      -4.2882843E-6,
      0.06465262,
      -0.057434857,
      -2.66724E-7,
      -0.06607395,
      -3.0067204E-6,
      0.09701294,
      -3.833494E-6,
      0.024013523,
      -0.1047799,
      -1.0466645E-5,
      7.0715265E-4,
      -0.18274546,
      -0.010591763,
      -0.3340012,
      -3.3684305E-6,
      0.04662577,
      -3.322307E-6,
      0.026970617,
      1.9070967E-5,
      1.1660059E-6,
      -6.737935E-6,
      -0.14092764,
      -0.017572653,
      2.39982E-6,
      -4.8511133E-6,
      0.026546292,
      -3.0076142E-6,
      0.07600104,
      -0.0863907,
      -8.316475E-6,
      6.2717104E-6,
      -0.1686383,
      -0.051411904,
      -0.25997654,
      -2.0350683E-6,
      0.12772831,
      -0.031703167,
      2.8462869E-6,
      0.036229014,
      9.4849054E-7,
      -9.391873E-6,
      -0.072835304,
      -7.744272E-6,
      -0.05785057,
      4.3115792E-6,
      9.03708E-7,
      -2.2354317E-7,
      -5.677089E-6,
      2.3005038E-7,
      -0.0147062875,
      -6.332352E-4,
      -0.08064015,
      -0.104376815,
      -0.18816389,
      -7.3502365E-6,
      0.23382165,
      -3.0539366E-6,
      0.043658413,
      0.004713304,
      1.8771554E-7,
      -0.008103601,
      -0.06986087,
      -8.111787E-6,
      -3.961913E-6,
      3.1088512E-6,
      2.956956E-6,
      -5.745845E-6,
      4.397467E-6,
      -0.08348299,
      -0.082584225,
      -0.025365157,
      -0.101924144,
      -0.14356571,
      -0.12932841,
      -2.1344094E-6,
      0.026447942,
      -3.856614E-6,
      0.052510027,
      5.160128E-6,
      -1.1892176E-4,
      -7.6188335E-6,
      -0.025630219,
      -6.9246885E-6,
      -0.077276506,
      5.957255E-6,
      0.007859125,
      -8.714362E-6,
      0.025220426,
      -5.7992056E-6,
      -0.076337725,
      5.3696494E-6,
      -0.1058781,
      -0.07742414,
      -0.117609635,
      4.664367E-6,
      0.20603934,
      -0.0066252723,
      0.08233029,
      0.042756256,
      -0.02067721,
      -0.026722243,
      -0.09553665,
      0.025685271,
      1.3815886E-6,
      3.36234E-7,
      0.061866656,
      -0.014368035,
      2.2030183E-6,
      3.2465919E-6,
      -3.1612635E-6,
      2.6637285E-6,
      -0.09527369,
      -0.012115473,
      -9.682424E-7,
      -1.049004E-6,
      0.19766553,
      -4.4345643E-7,
      2.2175138E-6,
      0.12586449,
      -5.253303E-7,
      -0.0042732134,
