{"layerSizes":[784,20,15,10],"activationFunctions":[{"@class":"edu.yaprnn.networks.activation.GeLUActivationFunction"},{"@class":"edu.yaprnn.networks.activation.GeLUActivationFunction"},{"@class":"edu.yaprnn.networks.activation.GeLUActivationFunction"},{"@class":"edu.yaprnn.networks.activation.GeLUActivationFunction"}],"bias":-1.0,"lossFunction":{"@class":"edu.yaprnn.networks.loss.HalfSquaredErrorLossFunction"},"name":"digits GeLU 20,15","layerWeights":[[-0.0044845995,2.2602774E-7,-4.4443124E-7,-7.130425E-7,4.0174672E-7,-4.0758E-7,3.291459E-7,-0.011255691,-5.5285284E-8,0.0025158515,0.026242405,-2.8377042E-7,-5.8841977E-7,3.1021494E-7,-0.03625267,0.02217146,-0.0017741001,4.4244132E-8,-6.589552E-7,-0.017044976,0.036428746,-7.493996E-7,2.8617274E-7,2.4956046E-7,-0.0014069305,2.2350298E-7,-1.1127054E-7,3.6423387E-8,5.7249565E-8,-0.02922007,-0.0050018583,0.03206861,-0.00505596,4.7017977E-7,-0.022116188,5.07325E-7,0.035402942,-0.028254127,-0.005186738,-1.4811138E-7,4.0679453E-7,-0.0011595574,2.4519352E-8,0.011291244,5.425444E-7,-5.4584854E-7,-7.1001085E-7,-5.836686E-7,-4.482618E-7,-0.008492292,-5.9012945E-7,-0.012148505,2.642796E-7,0.0011235483,-0.0077233007,-4.077333E-7,5.904057E-7,6.173258E-5,-0.015017464,5.5704567E-7,-2.572649E-7,-2.434279E-7,7.552052E-8,-4.976308E-7,-9.288698E-8,2.5645988E-8,-2.7896988E-8,-0.0043989737,-3.206124E-7,0.031497836,-0.0017991825,-0.027340887,-0.035804603,-2.1642029E-7,6.190121E-7,-6.004213E-7,0.014355039,-3.4228952E-7,-2.5910919E-7,-0.036681116,0.019215204,0.005693082,-0.013415423,6.03104E-7,-5.140064E-7,-6.141852E-4,0.0044172476,0.02439762,-3.208969E-7,4.3453844E-7,6.151107E-7,0.024007874,0.033940747,-0.03141853,-6.36271E-7,2.2335809E-7,4.779878E-7,-6.0952414E-7,-0.018026855,9.055509E-8,-0.015676903,0.0061775097,-0.019827334,5.212041E-7,0.022390146,-0.008806246,-0.01733584,-5.884066E-7,-0.004117517,0.024245076,7.671605E-8,1.6549825E-7,-2.8244528E-8,4.5850214E-7,-0.009557436,2.8244528E-8,-6.571774E-7,6.007515E-7,-5.50512E-7,3.7726625E-7,0.017881531,-0.013467571,0.0012049875,0.021429233,-3.0769627E-8,1.5417118E-7,-2.978565E-7,-0.018169329,-5.190493E-7,-6.882786E-7,4.4472006E-7,0.036001846,0.009172902,-0.009636859,-6.137998E-8,4.407517E-7,-0.017905857,-1.3562476E-7,-2.8749452E-7,-9.0943956E-8,-0.0331239,-0.0101097785,4.591111E-7,2.957084E-7,-2.9891265E-7,-0.026211651,2.9959364E-7,-9.092861E-8,0.029481791,-6.17423E-8,-0.012204608,0.027713114,0.018485226,0.019712571,-0.005027628,0.033966456,7.2418965E-7,3.7838976E-7,0.016436078,-5.603798E-7,2.473293E-7,-0.018817924,-0.018025685,-0.008690512,4.664255E-7,-6.607908E-7,0.026131365,-9.898514E-8,-5.968046E-7,2.0818044E-7,-4.9061913E-7,0.018404365,-0.028506335,-0.018444922,0.010907226,0.010067618,2.121368E-8,1.642344E-7,0.0256943,5.849758E-7,5.7409295E-8,0.0241522,6.083401E-7,-5.0900144E-7,-0.033726916,7.46516E-7,-6.249162E-7,0.013800301,-0.016324233,0.0321543,-0.002523658,-6.461616E-7,-0.028628707,0.005350751,5.365455E-7,-4.8340155E-7,-6.2087736E-8,1.7304671E-7,0.0063425303,-1.2235245E-7,-0.035464555,-0.035101116,0.019771751,-0.0279757,-3.649384E-7,0.03215696,-3.6050352E-7,6.2040954E-7,4.6318536E-7,4.9605603E-7,0.008586828,-0.0041416544,-3.2883406E-7,-0.010413254,0.015702652,-0.020896351,0.022998389,0.036154397,-6.714081E-7,-0.018546239,0.027519954,-1.9119278E-7,-0.0030507958,-0.03026372,8.7617934E-8,-0.0074532568,-6.349608E-7,-0.0045345807,0.010324238,-6.6832945E-7,-0.01049265,2.5081022E-8,-2.6320998E-7,-0.0034554924,-1.5837145E-9,3.2662342E-7,0.03065424,0.005056798,3.5081746E-7,-1.9112395E-7,-2.6677202E-7,-1.2343332E-7,-2.6902882E-7,7.813372E-8,0.018371072,0.02613784,-3.271225E-7,-4.785583E-7,1.173172E-7,-5.1454185E-7,-2.6098462E-7,0.023769341,-0.003165999,-0.0066680647,0.031757694,-4.3119724E-7,-6.8089366E-7,5.1016235E-7,-0.009071555,-0.003539531,0.0020994209,0.034022216,4.072482E-7,7.435931E-7,3.468764E-7,-2.4478226E-7,5.7860154E-7,-4.5462514E-8,8.3876216E-8,-6.826358E-7,0.022688996,-4.1280578E-7,0.0064689545,-3.9843007E-7,-2.6456144E-7,-0.02702148,-1.8713524E-7,0.02931459,-0.031359877,5.771871E-7,0.0053288755,-0.02649598,-3.4416865E-7,5.765307E-7,0.011278466,0.029973855,-0.00611977,-0.0139034465,6.0258924E-7,0.01831889,0.013479794,-0.0266865,0.033735678,-0.02376064,0.010216161,6.295961E-4,-4.837407E-7,0.021056525,0.034487028,0.018332014,0.008182238,-1.15918226E-7,-6.192471E-7,3.516301E-7,-7.256639E-7,-0.01054633,4.2087544E-7,-0.011879906,3.8838817E-7,3.515686E-7,0.035701916,-0.008853624,-5.9141166E-7,2.801977E-7,-0.021574449,-5.924424E-7,7.2584544E-7,7.1464063E-7,-0.0353592,-0.004794461,-0.008863621,1.1133062E-7,0.009166859,0.03554741,-0.023701668,1.6458625E-7,-4.432647E-7,-0.0077432888,0.026176902,4.936412E-7,-6.152578E-8,-0.033290643,8.7769365E-8,-1.2624957E-7,2.4029094E-7,0.008932537,-1.07934966E-7,5.1795098E-8,0.018251458,-2.0132052E-7,-5.398175E-8,-7.3741916E-7,-1.1570728E-7,-8.584465E-8,6.649421E-7,3.7834974E-7,-7.092922E-8,6.252747E-7,0.011115039,-0.023309592,0.003296107,-0.003197582,-4.2294897E-7,-2.1518792E-7,-0.017843861,6.817313E-7,0.026016198,2.0676146E-7,1.1653657E-7,-1.3686486E-7,0.017029708,0.021810345,6.415329E-7,-4.561008E-8,-0.016037758,-7.024648E-7,-6.86406E-7,0.024316978,-0.03138271,-0.0012594849,2.3598733E-7,-1.7305729E-7,-5.869946E-7,5.00796E-7,1.2849983E-7,0.035562184,-3.7326163E-7,-1.8239211E-7,-0.0023931372,-4.8567273E-7,-4.893265E-7,-0.014554094,-3.976573E-7,0.020378906,-0.006964064,-6.136714E-7,3.7167842E-7,7.0844595E-7,0.0045090667,-0.03631603,2.024646E-7,0.0027420367,6.341559E-7,-7.349024E-8,0.025153017,1.7275198E-7,0.02433198,-4.1096308E-7,-5.608042E-7,6.7169447E-7,-5.081377E-7,-6.717459E-7,3.2220828E-7,-5.7487495E-7,0.029867157,3.311119E-7,0.021140074,0.03521411,0.024396237,-1.0492954E-8,-2.766173E-7,-3.568369E-7,0.032922074,0.008334216,-5.961093E-7,0.014851113,2.9376343E-7,-6.630152E-7,0.010310925,7.527847E-7,0.02473421,0.013272877,-4.800981E-7,-3.135089E-7,-0.036768045,-7.647656E-7,0.033166945,4.3309245E-7,3.595842E-7,0.0028848557,-1.4188146E-7,3.0070788E-7,-0.029860541,1.3105819E-9,-0.0060399794,0.02684105,0.03704175,0.024455145,4.5780087E-7,-5.7210633E-7,-0.0077884262,0.0028097224,-0.0337618,1.6531914E-7,0.023569524,1.6021255E-7,-9.298435E-8,-4.696932E-8,3.2437663E-7,-7.040116E-7,-1.3020849E-7,-2.01413E-7,3.1632345E-7,-0.026597835,3.8097915E-7,8.51843E-8,-0.0041172584,-0.0070700133,-0.02147,5.5388506E-7,5.6759137E-7,-0.019651689,-0.035283178,6.9416654E-7,-0.036422696,5.403015E-7,0.026822496,0.034575664,-7.0102004E-7,-6.638684E-7,0.023358459,-5.806349E-7,-5.316174E-7,-0.0020001952,-0.02629187,2.3556481E-8,1.3361921E-7,-0.013436994,4.1944537E-7,5.776726E-7,3.3883964E-7,-5.025877E-7,-6.650497E-7,4.8013027E-7,0.0048709186,-4.807114E-7,-0.03502065,4.8958435E-7,-0.0053098844,6.1212353E-7,0.021683905,0.03406696,-1.7087007E-7,-7.599624E-7,3.7354107E-7,1.4920408E-7,0.01669745,0.020605866,0.019087164,-0.017578825,0.023041304,-8.065433E-8,0.034799024,-4.5631282E-8,1.3248365E-7,4.3875394E-7,-2.85903E-7,3.0671748E-7,3.1391977E-7,-4.3877554E-7,-0.01561255,-0.024863474,0.020230617,0.029076178,-0.0015131871,3.2992546E-8,5.6119313E-7,-0.00926071,5.566525E-7,-6.2509736E-7,-1.6286043E-7,-1.0878546E-7,-0.033583753,0.03019137,0.03646571,-0.014514505,2.9084327E-7,0.0059903436,1.5587267E-7,-0.016276965,-2.4181645E-7,-6.971261E-7,5.072943E-7,7.145535E-7,-0.030727638,4.2737184E-7,1.4506327E-7,0.018806241,-0.009785501,-1.3617455E-7,-4.5608147E-7,-6.1595057E-7,-2.8259666E-7,2.0199184E-7,6.383261E-7,-0.022435337,-1.16509455E-7,0.021136343,-5.746331E-7,1.8814131E-7,0.030718926,-0.004508672,-0.0065811723,0.0137620615,0.004058661,-4.9970413E-7,5.006823E-7,-0.01439757,0.02792321,-0.028486133,-0.021808995,-0.0044157733,0.026741937,-0.012389519,-1.7157402E-7,3.2628338E-7,-7.0266736E-7,-7.318945E-7,-0.033340983,1.6354369E-7,0.035987,4.8710895E-4,0.021860927,-3.3125036E-7,0.0059745014,1.4763725E-7,3.127979E-7,9.9803856E-8,-0.01204516,3.7540372E-7,-3.9855536E-8,-3.6609146E-7,-0.018542917,0.010307002,4.4235412E-4,4.828523E-7,-6.8599775E-7,7.585251E-7,-9.462127E-8,-0.028633386,2.973921E-7,0.015093723,4.0754162E-7,-2.940805E-7,7.456744E-7,-7.225761E-7,-0.025091976,-5.911656E-7,-0.020181224,-0.0113494005,0.016243873,-7.234516E-7,-0.0019850077,-0.028183678,4.0465574E-7,-6.894615E-7,-0.0046613035,-0.02050574,-0.020844866,-0.006640033,-1.09077405E-8,-6.114844E-7,-0.025611177,0.0040514222,-3.642288E-7,0.036819063,5.67558E-7,-0.021260943,-3.6307574E-7,0.030205175,-2.9027547E-8,0.010252311,3.3107938E-8,-2.0744955E-7,-4.898926E-7,-5.2340795E-7,-5.4497775E-7,5.958222E-7,-2.37579E-7,0.030385397,5.3616975E-7,0.026233688,0.028031563,5.1767034E-7,0.034274004,-4.6871935E-7,0.005674389,1.3040727E-7,0.031287372,4.784702E-7,1.0884514E-7,-2.85373E-7,-6.304399E-7,-0.019545991,-0.011382893,-0.00803738,6.596065E-7,0.02931907,-3.568369E-7,1.023036E-7,-0.012553615,0.0036675935,0.025301684,-0.03287101,7.250456E-7,6.674604E-7,-0.031228911,-0.030579153,-3.7540372E-7,5.670877E-7,-6.1721494E-8,-0.001492334,6.4426604E-7,-0.028683081,-0.016653897,-6.4197155E-7,5.2787084E-7,-0.015106129,1.5046032E-7,-3.2195885E-8,-5.578744E-8,-0.018343354,-0.030396732,-0.032349087,-4.5065406E-8,-4.505256E-8,-6.3792345E-7,0.014030197,-0.034811884,0.018360503,-4.8398437E-7,0.018240366,4.3917848E-7,0.021725109,4.634257E-7,6.958615E-7,0.017368793,-1.3496657E-7,0.030872947,-0.031649645,-1.8556784E-7,0.035600923,-0.03407556,0.016293313,5.315857E-7,-0.035033796,0.018952744,-0.0058637722,0.013377855,0.018295532,4.1260563E-7,0.018865665,-0.031348143,-5.7383085E-7,-5.9090576E-7,-0.013825528,-0.014683283,0.01440701,4.5022265E-5,-5.6836393E-7,-2.1051494E-7,-3.2284964E-7,0.008191864,-6.3561265E-7,-0.014753217,8.008362E-8,4.0810613E-7,-8.116603E-5,5.9523172E-5,-5.093043E-7,0.008729857,-1.372564E-7,7.6294606E-7,5.494157E-7,6.7877687E-7,0.035096865,-0.030501388,4.9349336E-7,-0.0028693348,2.3273515E-8,5.5045484E-7,-8.163249E-8,0.025107125,8.433864E-8,-8.66886E-8,0.017847823,0.02529472,-4.7906326E-7,-4.460623E-7,3.9952226E-8,0.01893363,-4.272747E-7,-0.016263548,0.015910547,-2.1238185E-7,0.012129756,7.622617E-7,-3.3994138E-7,-0.021913769,4.7934896E-5,4.3278965E-7,0.02219408,-1.1733317E-7,0.018794315,-7.486725E-7,2.0962767E-7,3.9401112E-7,1.835578E-7,-1.4571538E-7,-0.024151843,-0.0036291876,-0.019014616,-3.842381E-7,-0.0137624405,6.454257E-7,-3.274596E-8,1.7386787E-7,-1.1232592E-5,-0.009042608,0.011185648,-7.027794E-7,-0.020151338,2.739563E-7,-6.015272E-7,-2.5041365E-6,-0.0269211,0.021535685,0.026857635,0.009430765,0.023134142,-0.012042536,-1.0908781E-7,-0.023149326,-1.3892617E-7,1.4200325E-6,-1.2760705E-7,-0.029961675,-0.03961899,1.6945423E-5,0.027915698,0.027506823,-0.01259778,5.4727946E-7,-2.0002649E-6,-4.722536E-6,-8.0575944E-8,0.032846376,-0.023728807,2.2628501E-5,0.0027117413,-1.0705605E-6,-4.643939E-7,-1.366513E-7,7.013533E-7,-7.1714874E-7,0.022762595,6.6807377E-7,-0.011073505,0.03194076,-2.7233307E-7,2.8802378E-7,-2.1568081E-7,0.039172545,0.02905354,-0.009737759,-2.0222836E-7,-3.6683684E-7,-7.6495866E-7,6.77015E-5,7.9314196E-7,0.032934844,4.600605E-7,-1.7116781E-7,0.0033047316,7.2384194E-7,4.2450824E-7,-0.03341712,-0.027061762,1.3041736E-5,0.004077861,-1.9509491E-7,4.9793965E-7,-3.0387014E-7,-6.534693E-7,1.8768742E-7,0.024110045,7.575977E-8,0.020495798,3.6524805E-5,0.022079932,4.0578357E-8,-6.347278E-8,5.221163E-5,-5.821416E-7,1.7610928E-5,-3.2142003E-7,0.032705124,-6.3981287E-7,0.024777433,-0.014634253,2.6699905E-7,-7.277899E-7,-1.127605E-5,0.008213761,-0.02841446,8.9579835E-6,-0.027371382,2.2054178E-7,2.3524899E-7,-0.007313413,-2.2302868E-7,7.6986095E-7,7.919732E-5,0.013691454,3.622231E-5,0.0044703837,-0.01010424,-2.815098E-5,0.0029048047,-1.8163166E-7,-6.968812E-7,-6.694313E-8,-0.020579971,-0.033930846,1.8312801E-7,0.014290434,4.025316E-7,5.0097776E-7,0.037175868,-0.010222787,2.0419895E-7,-0.0066175056,4.424178E-7,-0.01868059,-0.008630326,0.034389272,-5.300638E-7,-1.18235E-5,7.137779E-5,-0.02928635,4.0168294E-7,-5.270054E-7,5.278624E-7,0.010056491,-0.019163495,3.723585E-9,2.7211922E-7,-0.030449744,0.02414465,-3.5085162E-7,0.017029496,0.023618748,0.03590171,-4.190585E-7,6.152858E-7,-9.139643E-8,0.011782162,-7.2656724E-7,-3.8437508E-7,-0.030707989,-1.830748E-7,-0.030878501,-0.018401401,-6.2054465E-7,4.0363338E-7,-0.0010938424,-0.009942782,-1.2256231E-7,0.03130776,0.043499105,5.612908E-7,-7.371808E-7,-0.01830944,-5.8286304E-7,6.681951E-7,-0.005048229,2.7213207E-7,5.010728E-7,-0.0020211104,-4.969817E-7,-6.4967E-7,3.5304117E-7,-0.02147599,4.677094E-7,3.7560028E-8,0.026119888,-0.010630162,-5.214972E-7,3.0916357E-7,1.9205277E-7,2.5440062E-7,-1.1338648E-7,2.1884551E-7,0.010279697,0.037037443,7.5616185E-8,0.013790326,-3.6483817E-7,0.05032789,-0.005978666,0.016398499,0.03701878,-0.020057539,4.4710157E-7,6.161866E-7,3.1886265E-7,0.016747184,2.2274492E-7,0.052870117,4.020116E-7,3.1621454E-7,-1.6180877E-8,0.03133784,-7.015246E-7,3.102042E-8,0.010325279,-0.004629884,-6.168954E-7,0.020211302,0.0058882763,-4.3721985E-7,0.025025852,-4.5037865E-7,0.019200183,6.386972E-7,-4.1541057E-7,0.02527841,4.3574056E-7,7.4192684E-7,1.2221489E-7,-6.204834E-8,-1.3454252E-7,-0.026681866,2.9348035E-7,-0.011732408,-0.027336778,2.894426E-7,4.352226E-7,-6.7042606E-8,1.2564101E-7,3.594431E-8,-0.010071179,0.0123828305,0.035355225,-1.9318958E-7,0.005785923,0.022222886,-0.026798725,6.165947E-7,-4.931206E-7,-0.0316098,6.33852E-7,0.030253014,0.007827887,-2.9866902E-7,0.031847514,-0.034399144,-0.039250936,1.9021957E-7,-3.5502643E-7,-4.457538E-7,0.024028856,4.1093858E-7,0.033783156,-3.8872992E-7,0.02042184,0.012708151,6.488515E-7,0.04000697,-4.7370622E-7,-0.031851545,-6.1051117E-7,2.561933E-7,6.908124E-7,0.02308903,-0.030062497,0.012385587,0.0094443,5.5169346E-7,-0.0020610366,-0.016733669,0.032287464,0.03430746,6.3572486E-7,-0.010994748,4.3165414E-8,4.5336412E-7,4.299892E-7,-1.8648399E-7,5.2539417E-7,-3.3587924E-8,0.012336898,0.03066415,0.010440279,-0.01350891,-1.0700609E-7,-1.0728587E-7,-0.024488099,-5.005463E-7,-0.03609849,0.012988682,-4.7543932E-7,-0.027356239,-0.030857315,-1.8556051E-7,-0.02911169,0.005694728,-0.025308544,6.686332E-7,-0.035832133,2.1590705E-7,-6.9458275E-7,-0.033260442,-2.740067E-7,7.051622E-7,0.036176946,0.01825467,-3.3613594E-7,-7.059532E-8,-0.001511702,3.7419295E-7,7.635397E-7,-5.0597174E-7,-3.2051008E-7,3.9874527E-7,0.02597492,0.023022616,-4.058137E-8,0.034548126,-6.4756454E-4,0.011430522,4.5038672E-7,0.00826158,0.0022490998,-0.034940116,1.5320734E-7,7.655196E-7,-5.391138E-7,0.020983791,-1.7647642E-7,-0.017284472,-0.009022834,0.035077587,-0.010135718,9.020846E-4,-7.649948E-7,1.1832134E-7,2.3986723E-7,-0.026890874,6.464445E-7,0.0073297448,-4.7941234E-7,0.019702759,6.0379887E-7,3.9315222E-7,-0.03419207,-3.5748877E-7,-0.017800272,7.617919E-7,0.004203371,2.1735434E-7,-5.8439986E-7,5.7958545E-7,-0.0351905,-0.008684741,5.758486E-7,-0.026534611,-0.012491527,-0.020808758,9.3213207E-4,3.819394E-7,0.036214333,-6.438944E-7,-5.5815315E-7,2.8375365E-7,0.026230417,0.03297179,-0.028325705,1.2544388E-7,-0.021461265,4.9376024E-7,-0.0052873734,2.4050217E-7,0.012021023,3.1901408E-7,-0.011097527,-7.039642E-7,3.5005837E-7,-0.018125132,0.03663056,-8.0015695E-8,5.5621155E-7,-0.034760624,-0.007012788,0.012408495,4.4064427E-7,-0.016986448,3.531116E-7,-0.022028523,0.011836749,-0.034102872,-0.0032030533,0.026113484,4.864892E-7,2.7105762E-7,-1.7830274E-7,-9.572477E-8,-0.005716046,0.020169107,0.03504028,-0.03661617,-5.2720054E-7,-4.866466E-7,-0.0041017565,0.024963817,0.021560628,6.8078623E-7,-0.010615129,2.440653E-7,-4.5977686E-7,-3.98351E-7,5.131189E-7,4.4338447E-7,3.5956356E-7,4.2295744E-7,2.0888524E-7,3.092788E-7,0.024973491,-3.6950706E-7,5.5789644E-7,-0.021749979,-1.69418E-7,-0.017379383,-5.245385E-7,2.0683405E-7,7.21588E-8,6.8947554E-7,0.031160362,5.2363004E-7,0.029489115,-5.63627E-7,-6.3594547E-7,-0.006285737,0.0041132537,-0.022353634,0.0046245703,9.997274E-8,-0.00330748,4.5716047E-7,-0.0053994074,-1.10984956E-7,0.011600702,-5.6363103E-7,0.005668611,2.6267065E-7,-5.4447327E-7,3.004871E-7,0.026405657,6.243979E-7,0.02267891,-5.1581196E-7,0.01978802,-0.0082185725,0.0212289,-9.980516E-8,-0.0281031,-0.0063214954,0.029295256,-2.732785E-7,-6.950563E-7,-0.021027794,-5.1991367E-7,5.6615073E-7,0.028666008,0.009325146,2.3090672E-7,0.026160775,0.019844633,-4.5759026E-7,0.0056877993,0.014818898,0.004947671,2.0015449E-7,6.1456285E-7,-0.012067731,-0.03041937,-2.58968E-7,-0.03043983,-6.782323E-7,0.029977571,-6.620261E-7,-1.6729052E-7,-6.226166E-7,-0.017453514,-0.03541603,-0.022393476,-2.5634085E-7,-0.034796417,3.6483453E-7,3.200762E-8,-0.036716186,3.4475153E-7,1.5791306E-7,2.2148936E-7,-3.4615937E-9,0.0041065537,6.7761897E-7,0.0074593853,-0.015044028,4.1698684E-8,0.0429845,1.3093302E-7,-0.0030743843,0.025661156,0.0046607484,4.6777882E-7,-6.523129E-8,-0.0264666,0.0015677784,0.029119201,-0.016604843,-3.4171478E-8,6.3484725E-7,-0.021938805,-0.017117817,-0.03141301,7.6567324E-7,4.3536647E-7,1.8224775E-4,-1.8037235E-7,0.00911865,0.0149204265,-0.0058835084,0.03183809,-0.007239454,-2.0775133E-8,4.234272E-7,-5.775025E-7,0.0053059794,-4.602157E-9,4.3142336E-8,6.8359276E-7,0.0390637,5.2615235E-7,-0.01375373,5.962487E-7,-1.1998259E-7,6.757809E-7,4.073044E-4,7.4280706E-8,3.1517975E-5,-4.446648E-7,7.2147503E-7,0.0073124785,0.007469885,-6.694788E-7,2.2620126E-5,0.012992698,0.030961342,2.883084E-7,0.0025188448,7.996063E-4,3.9313472E-6,-4.2430997E-7,3.6727602E-7,5.783204E-8,-4.8227535E-6,-0.009399943,0.02814664,2.363925E-5,0.04997177,-7.6616607E-7,7.121306E-7,-5.003847E-7,-2.0554012E-9,6.489003E-7,0.027401462,-1.162218E-5,0.025928041,-7.203012E-7,0.019976385,-0.041789897,-0.0151010975,7.404484E-5,6.803365E-7,2.806022E-7,5.805604E-7,-0.018688291,2.5031393E-4,-0.026916495,-0.008429153,-0.02215003,-3.0807055E-6,-1.7550078E-6,8.531436E-6,1.0164472E-6,-1.8042675E-7,-0.062779725,-1.747058E-5,-4.1549947E-7,8.724851E-8,-0.031685386,0.02585128,0.021746082,-0.03427866,-1.7317831E-7,2.405673E-6,-0.021717241,0.047580305,-0.02676877,0.047857206,-2.567079E-7,-0.011583993,0.01603108,2.310507E-7,-6.884177E-7,-1.5299656E-5,-0.011402874,-2.0999072E-5,-1.5905897E-7,0.018884197,-3.2889636E-6,0.030551145,0.0027814875,-0.027113294,0.011031235,2.5252098E-7,5.3838687E-7,0.06154,-2.383395E-5,2.319897E-4,-0.007236805,-7.2568373E-6,-4.2137475E-7,0.01989674,1.7148133E-6,5.8862554E-8,-0.07199335,0.041007955,-0.028656166,0.011007016,-7.017227E-7,-0.016833778,1.5412628E-4,-0.009528116,0.022925535,-0.012848411,5.2770633E-7,0.0026489256,-0.029343838,0.044019006,-4.957112E-7,-0.002463155,0.010123864,1.5905745E-5,0.02209412,-0.035498142,-0.042651065,0.03789738,9.24868E-8,-0.0040648887,-0.008863602,6.696582E-7,0.03431525,1.5253113E-7,3.1744672E-5,0.002903643,0.004509797,2.8619016E-4,5.3279502E-5,1.1007365E-4,0.007783767,1.1847082E-5,-3.897446E-7,5.2164738E-5,0.009047993,7.6234346E-7,-1.657948E-4,2.1018929E-4,-4.2726947E-7,-0.023498276,-0.0101504205,-1.1296703E-7,0.0064834408,-0.033424973,-0.0011335103,-1.01865226E-7,-6.4173764E-7,0.023749778,-0.012555256,1.4550787E-4,-3.1165774E-7,-0.023682414,2.134089E-7,8.163891E-6,5.1109055E-5,0.026780058,-0.011756526,6.157227E-4,-0.018387087,-0.00986844,-0.026509369,-0.044661216,-0.0035198291,-0.027189936,-1.7436605E-7,-0.003840857,-0.023971831,0.07143526,-2.333587E-6,-0.029765377,2.6686505E-6,-0.001795021,0.005111729,-0.008481055,1.949925E-5,-1.204188E-6,-9.163475E-5,4.4607162E-4,6.8039576E-6,-1.554084E-5,-1.5446105E-6,-1.9212996E-7,-1.06167005E-4,-3.7415623E-7,-7.1632985E-7,-1.097743E-5,3.5235078E-6,2.838779E-4,8.16603E-6,-3.346364E-7,-0.025335338,-0.030064207,0.01442752,-2.750453E-7,0.0018102453,4.2279342E-7,-0.05824055,0.050127704,3.947676E-7,-0.04604032,-1.3482247E-6,6.088717E-7,-3.629996E-4,-0.0036239112,3.607276E-7,8.07828E-7,2.0834746E-6,0.019508624,8.81248E-6,0.015266497,-4.6458797E-7,-1.6112738E-6,-0.023767427,-0.037718747,0.057615414,-2.1939138E-7,-4.2043743E-5,-0.00472172,-7.8063636E-8,-4.721883E-6,-0.024310088,-0.04357225,-0.00884842,6.9130436E-7,-0.029208776,0.0074656582,0.0034957703,0.03537561,-6.365186E-7,-0.005343675,-3.669549E-7,0.013768125,-0.024495289,-0.02812097,-1.3573213E-6,-0.009310978,-8.733884E-6,0.046511896,-0.0065945853,0.011279727,-1.8963015E-6,-0.009646267,-3.2700075E-7,2.431193E-9,4.469963E-7,-4.0704123E-7,-0.049507905,-0.0324904,2.8978548E-7,0.008595728,9.614212E-8,-0.02686769,0.022320045,0.018174639,-4.766943E-7,-2.565937E-7,-1.4689689E-5,0.021940742,4.4389986E-7,5.534787E-7,-5.1337184E-7,-0.017649204,-7.451852E-5,-5.509417E-7,-0.026024032,0.02309533,-2.7866452E-7,2.1164209E-7,0.025435561,7.446193E-7,5.504642E-7,-7.1286007E-7,-6.674735E-7,-0.028386353,-0.018807534,3.4434214E-7,-4.1288388E-7,-6.337302E-7,-1.01973114E-7,-0.017693393,0.01393679,0.026395379,-4.2972204E-8,-0.02030545,-5.7665613E-7,-0.021446379,-0.027362479,4.9955975E-7,6.4293494E-7,0.025922159,0.029809415,0.023397397,-7.1995146E-8,-0.037169024,-0.0032376896,-1.7877255E-7,-0.023726579,4.2235735E-7,0.033315435,-7.087496E-7,-0.019091623,7.1625664E-7,-0.045958508,-0.013966091,8.706968E-8,-0.025562227,0.015558522,-5.9637586E-7,0.0027304625,0.031567387,-6.558082E-8,0.010192601,-2.8393737E-7,-4.0619364E-7,0.030099811,-0.016783878,-0.0167481,0.005133239,0.01875539,5.9689876E-7,5.9774874E-7,9.802452E-4,0.0010151746,1.7815364E-7,0.027185366,0.02394082,0.025236363,-0.015075103,1.7093157E-7,-0.01627216,-0.021754391,-2.2681672E-7,0.02284204,-5.0570395E-7,-2.338499E-7,0.032238282,0.0043725064,-0.015959179,-2.7107965E-4,-0.022396022,0.015204891,3.350504E-7,4.4660987E-7,-0.001820106,4.3097504E-7,-0.0137423035,5.45794E-7,-0.006699114,-0.018207125,-0.035603218,2.6584223E-7,-5.777411E-7,-2.4874737E-8,-0.012282737,2.1861916E-7,0.0065466827,0.021392453,-4.1923232E-7,3.232642E-7,0.030754024,0.03526037,-5.161101E-7,-7.207629E-7,-5.665868E-7,0.016677039,0.029812105,-6.07865E-7,-0.011493473,-0.019246235,-3.4719983E-7,7.583086E-7,0.033886578,0.025222912,5.9149573E-7,-3.649384E-7,-5.674572E-7,-1.07726066E-7,2.45087E-7,-0.0042734155,9.969642E-8,-2.8425205E-7,-2.1326258E-7,-0.02379721,-2.9803556E-7,-2.481707E-7,-1.9106147E-7,4.744722E-7,4.640849E-7,-0.031148668,-0.029464317,-6.1440534E-7,-0.017312927,-0.023766015,2.1911512E-7,-0.032103103,-0.036633648,-7.970277E-8,2.4003668E-8,0.0056031323,3.972495E-7,0.017507095,0.01499598,0.027934387,1.1667771E-7,7.2355425E-7,-0.033695072,-5.828915E-7,6.938372E-7,0.009682854,1.2114822E-7,0.017371047,5.903329E-7,-2.9007538E-7,0.018026687,2.4519352E-8,-6.910983E-7,0.019166037,3.103571E-8,-4.2512698E-7,-6.6401606E-7,-2.7411659E-8,4.5057732E-7,0.035019353,-1.0299789E-7,2.8232307E-8,5.5851007E-7,-6.8236733E-7,0.0111171715,-6.0944785E-8,-0.0075869504,0.008433775,0.003201819,0.0132155055,3.6571493E-7,0.0051864386,-2.4605419E-7,2.0553546E-7,0.0026652804,-7.0224246E-7,-6.433055E-8,1.2859118E-7,5.573799E-7,1.6114967E-7,3.539293E-8,-4.6945559E-7,-0.005185843,-2.2587756E-8,-0.027252387,0.007460162,-7.140628E-7,5.796058E-7,-0.009156772,-7.1425916E-7,5.066023E-7,0.014267161,-0.012846274,0.016803473,-0.020300647,7.4081856E-7,-5.4084956E-7,-2.8925638E-7,-5.7861605E-4,-0.011265975,-0.029204607,7.0692823E-7,0.013330036,1.3093882E-9,3.76821E-7,-3.751265E-7,5.4640424E-7,-0.0038906564,-2.3545283E-8,0.023258222,-6.1730543E-7,-6.2784113E-7,-0.035587996,0.03552236,0.012291872,-4.1269362E-7,-2.2033612E-7,4.873713E-7,-0.028649982,0.016062886,6.389353E-7,0.018546997,-6.764736E-8,0.028985571,0.015320021,-4.926522E-7,0.012640962,-1.7431722E-7,-2.168955E-7,-5.513735E-7,3.177426E-7,0.02346674,0.0015845048,-6.693883E-7,-0.0070804274,-6.544243E-7,6.547934E-7,-0.021615464,3.9128292E-7,-4.6131987E-7,0.013850745,-0.034674305,-6.728807E-7,-4.2200583E-7,-6.118476E-7,7.678126E-7,0.006130438,-2.2257944E-7,7.6002846E-7,-0.0150061045,4.2489268E-7,-3.840131E-8,5.761917E-7,-0.035702452,-3.9936594E-8,4.3324076E-7,-0.0033411747,-1.1001568E-4,-0.022644326,5.3289426E-7,0.029195258,-2.580041E-7,3.2160187E-8,0.010056623,0.0097444495,-7.3650995E-8,0.005731194,5.256502E-7,-1.729598E-7,0.008119156,2.7632097E-8,-0.010615281,-0.027936228,-1.2726706E-4,1.9403217E-4,-5.4573104E-7,-1.9778995E-6,-1.21830424E-4,0.02363487,8.054165E-6,-0.02869096,0.0015040069,-7.2066774E-7,0.02698133,0.055694886,-0.008073872,2.0390276E-5,-0.005256167,-0.012822185,-3.2538608E-6,9.99544E-4,-1.3899427E-7,-1.0251125E-7,-1.15465424E-4,0.05610401,-3.6565137E-7,-5.3463923E-6,-5.5653458E-5,-6.395661E-7,2.7838207E-4,-1.614564E-5,-6.5933085E-7,0.008666933,-0.031215675,0.056383874,0.019898612,3.723537E-4,-5.298488E-7,0.013487036,-1.2364791E-7,-0.025862776,1.1931184E-7,0.0035129567,-0.019497313,0.025632422,6.65653E-7,-0.0019817436,-3.664055E-5,0.0021645336,0.091369085,-5.3051253E-6,4.5606743E-7,0.037670445,-1.19117485E-5,0.013474483,5.4491902E-5,3.0567587E-4,-0.0380357,-0.024869274,3.2760937E-7,-0.0670708,-3.4066496E-5,-0.010341817,-0.062008258,-0.0064618425,-0.0058643804,0.012145775,-0.003978973,8.91488E-7,0.01042183,-1.15734365E-4,-1.0931302E-5,-0.0064772842,-0.022480346,0.046499625,1.8290795E-5,-0.00850152,-0.0016727933,0.038124524,-0.037675545,9.3070133E-7,0.03765124,5.222139E-5,-0.062582605,-1.3101204E-4,4.9221635E-5,1.6574855E-5,-0.03290419,0.056864552,0.06379465,-1.4570921E-4,-0.020781059,-6.8774125E-7,-1.6059184E-4,0.008176234,-0.012957757,2.8047067E-4,-6.891456E-5,7.039517E-5,-9.2725185E-7,-0.010745798,0.04292571,0.017324122,-0.109640665,-0.014255195,0.021197503,-0.00788554,-0.013646111,0.092017114,0.11212658,-0.032059703,-0.03361188,2.96998E-6,-0.04674241,0.04291853,-0.017066263,0.037256278,-0.0064771026,-1.3733762E-5,-6.131098E-5,-0.0692741,0.0035878303,0.023150295,-0.02591481,-5.534699E-4,1.3729621E-4,5.3406475E-6,-0.0019622003,0.047139615,0.022395125,-3.3273976E-5,-1.4347449E-4,-1.4554911E-4,-0.046432767,0.03229833,-0.021025006,0.05922729,-0.02571917,-6.9149886E-5,-0.060458254,-0.057586033,0.008432847,0.011503219,-0.06422806,-5.6336913E-4,7.40369E-4,0.018783273,-0.030730816,0.107887775,0.015006544,-2.3935341E-5,-8.1398415E-5,-3.6783345E-4,-3.4581864E-4,0.05725282,-0.049415406,0.044235323,2.6006004E-4,-2.91291E-5,1.1844035E-4,-2.3611402E-4,0.07673557,1.024744E-4,-0.07803289,0.01216036,0.001376252,-4.7010286E-5,-0.065814026,0.03584144,0.009535535,-2.1861326E-4,1.2245898E-5,-0.013598641,1.1972988E-5,0.041548688,-0.03730865,0.12123478,-0.056089524,-0.04317226,-9.237394E-6,-0.04916507,0.02720194,0.046960376,1.4521307E-4,-1.18049866E-4,3.6856852E-4,0.015621894,-0.044704117,0.044784516,0.07648864,-1.2650956E-4,-2.0110745E-5,-2.124457E-5,3.163691E-4,0.04304492,-0.004216372,0.04210325,0.014096781,-0.045075435,-8.111153E-5,-6.3371546E-5,0.0063206237,-6.195284E-5,-0.0014531885,0.01217704,1.3315577E-4,-0.049367443,-0.0076665385,0.017137423,-0.013153606,-0.032259114,3.5471276E-5,-3.6622718E-5,2.3752238E-4,1.5127125E-4,0.043287296,0.031839732,-1.3525494E-4,-1.02051825E-4,-5.0523413E-5,-8.2220125E-5,2.3141482E-4,1.3667898E-5,-1.21124736E-4,0.01676138,4.5038993E-5,-0.0017866127,-0.00776393,0.018328965,-2.4520644E-4,-4.626648E-5,1.9155703E-5,-8.4729094E-5,3.300807E-5,6.399104E-5,0.01253723,0.049102195,1.3818658E-6,-5.1176805E-5,-9.075545E-5,-1.7946057E-5,0.052030753,2.208239E-5,-0.007341535,0.032308742,-1.6597618E-5,-0.008909732,-0.0063234237,3.3735464E-4,-0.03890548,-9.7208285E-5,0.006020472,-0.03261112,6.586638E-5,0.0070056934,0.050543953,0.010528485,0.036557153,0.00821214,0.003961725,2.7402504E-5,1.325056E-4,-0.01519656,1.4693022E-4,0.011414808,-1.28148595E-5,-0.017416848,-0.066992275,6.9094465E-5,-0.012944123,-0.024985326,5.8342186E-5,-0.019971957,1.0754287E-4,0.046087906,0.062133305,-1.4149019E-6,4.9571463E-5,3.5251223E-6,-8.763125E-6,0.01300021,-1.097003E-5,-2.014516E-5,1.3395955E-5,0.018714974,0.042634763,0.017614884,-0.015472243,-8.916628E-6,-0.04087559,1.71674E-7,0.038374826,1.4714524E-5,-0.014064975,0.027253263,0.07388302,0.037056647,1.4981589E-7,0.026998281,-0.020923568,4.4176699E-7,-7.1317622E-6,-1.2993261E-6,-0.020543644,0.015863972,1.7978726E-7,-3.4927773E-6,2.588039E-6,-1.1702682E-5,-0.06302758,-2.5861226E-7,9.213687E-6,-1.6083686E-5,6.626312E-7,-9.618121E-6,0.032900292,0.03590656,2.3022953E-6,2.3256149E-7,-0.024303649,-0.03252684,-3.2930677E-7,-2.4802472E-7,-0.019092469,0.014983214,0.01259689,4.0026242E-7,1.9398078E-7,3.8462E-6,-0.009347592,-3.4793766E-7,-0.02267129,-5.5477918E-5,-0.03044282,-0.018713009,0.04748269,-0.00796268,4.731612E-7,-4.6972826E-7,0.0034438565,4.4326953E-7,0.029875835,-8.021675E-8,-1.3068793E-5,-0.004088538,-3.4255788E-7,-0.03664247,0.012147897,2.394916E-7,-7.165983E-8,6.5180586E-7,3.671306E-8,-4.5079392E-5,4.90118E-7,0.028446062,4.3860728E-5,-2.414581E-7,-2.9438576E-7,0.030581912,-7.0614925E-7,6.2592926E-7,-0.0018271308,0.011430975,0.0073706135,0.023120847,0.005194425,-5.4956274E-7,0.020714635,1.1301216E-7,3.352992E-7,0.0052888333,3.682976E-8,-5.2957904E-7,5.881813E-7,-6.2377444E-7,-1.2013953E-7,-0.0057344637,0.035922192,0.025977738,-3.401392E-7,2.830168E-7,0.027963107,-7.1676556E-7,-3.9716372E-7,0.03238681,-6.671207E-7,0.027400075,0.0038508833,-0.021525787,-0.007608264,-0.026367392,-6.6696197E-7,6.6138824E-7,-0.023280017,6.664732E-8,0.032455504,-0.009524734,0.014369639,1.9831305E-8,-6.999626E-7,-0.026911216,2.7238173E-7,-0.027380798,-0.012056127,0.028117498,6.1098285E-7,-0.012815353,-2.9927094E-8,0.006705134,-0.027872063,0.024551827,-4.1216782E-7,0.003237192,0.011927523,0.025809133,-0.017732736,-0.020848656,-0.029994447,-1.1558052E-7,5.385097E-7,-0.0016428155,0.008462589,2.7815884E-7,-2.7629522E-7,-0.01679974,-0.0016665729,-0.026273802,-0.012066653,-1.4845472E-7,-7.5651013E-7,-2.1788526E-7,1.7344729E-7,6.34918E-7,7.226873E-4,-2.7919555E-8,-6.728108E-7,-0.013553685,2.980227E-7,-5.052716E-7,0.011017515,3.1230041E-7,-6.5278766E-7,0.009351256,5.755146E-7,0.0072737355,-3.804363E-7,4.4138073E-7,-7.2420795E-7,0.01802749,0.014496421,2.8244528E-8,-0.029557321,4.2348591E-7,8.41959E-9,6.3531536E-7,4.2537636E-9,-0.030546708,-4.0700888E-7,0.007415044,-0.03247418,0.0233254,1.4770825E-7,2.4150256E-7,-0.011861599,-6.710274E-7,0.0068935053,5.827528E-7,0.02953432,-3.9464544E-7,4.2759788E-7,0.033045158,0.0048799654,-0.019642597,-0.003301659,-5.3283935E-7,-6.1741855E-7,-0.028973887,-3.3913295E-8,0.005522644,1.6427197E-7,5.6805618E-8,-1.2245323E-8,0.021039736,5.96858E-7,0.020835457,0.032917805,-2.2220001E-7,-6.006149E-7,0.025904352,-0.0049040914,-0.03354832,-0.019357627,0.015054159,3.3671796E-7,-5.2115013E-8,-2.0156796E-7,-2.944924E-7,-0.016578551,-0.010196317,4.7332787E-7,1.42146E-7,-3.93834E-6,4.6456367E-5,0.03480808,0.03288705,5.668994E-8,-4.6037522E-7,1.787837E-7,-0.007088457,0.012470604,0.03596844,-4.9986215E-7,-7.594781E-8,0.029561026,1.3158495E-7,2.7775616E-6,-0.008109283,0.006646666,-0.016817449,-0.020702941,3.7077024E-7,0.01122156,1.0722102E-4,4.035773E-6,-7.381075E-6,0.02550294,-6.8292866E-7,-1.0980933E-4,-0.009811864,-0.0063301157,-0.03198317,-0.021134734,-6.0344337E-6,2.2344739E-5,-0.032498255,-0.013389446,-1.1830667E-7,-0.050782893,0.044095308,5.195716E-9,-0.035907757,4.555433E-6,0.003145823,0.0026607572,9.980884E-7,0.014420513,-0.01849006,-1.2162761E-4,0.015084369,-0.004260729,-0.031702735,-0.0016978055,-0.018089006,4.8113707E-5,1.9820827E-6,-0.0031230727,-2.1558058E-6,-0.00942909,0.01739856,1.4153386E-8,-1.330879E-7,2.35615E-5,0.006499763,-1.4885602E-4,2.0758166E-4,3.0876907E-7,-0.016469628,-0.04059857,0.011531797,0.026294524,-0.0026459435,-0.061451994,0.05083793,0.0070566647,2.6956448E-4,-0.019640695,-0.033692073,-0.014902642,6.569568E-5,0.015052409,-0.032912526,0.026402,0.015036651,-0.065641984,-0.036276236,-2.3225459E-4,-0.01657049,-1.695032E-4,0.08881875,0.07383652,0.012579612,-0.017288748,-7.6375534E-7,1.2673454E-4,0.024152834,-0.024966104,3.207401E-4,-0.099001676,9.124411E-5,-0.03237936,-0.06754141,0.026452165,3.5958452E-4,-5.717902E-5,2.7190037E-5,1.641508E-4,-7.995726E-5,-0.03976656,0.067572355,0.030426754,-0.033425845,-0.07148675,6.355072E-5,-0.06428273,-0.0036107018,-0.04525962,3.4771548E-4,-0.003820219,0.06880623,-0.019034283,-0.031801753,5.8850364E-5,0.07596456,-0.001695045,-0.04645239,0.027737418,-2.1739707E-4,-0.06884594,0.12046241,0.08720907,-0.019428898,-0.067118764,0.009623614,-9.320211E-5,0.07195187,3.681815E-5,5.0411036E-5,-0.056360546,0.04889575,-0.009942469,-0.060833316,0.0021808497,5.9474994E-5,-0.008808966,-0.034786787,8.466174E-5,0.030453917,-0.024850769,0.1214087,4.751108E-4,-0.07887394,-0.023164256,0.027380137,-9.08425E-5,0.011942847,-0.0865993,-0.024065968,-0.059034605,0.07570383,-0.06186925,-0.08114528,0.051022682,0.014613921,-0.10136687,-0.070394084,-6.1545936E-5,0.0015833487,-0.03403335,0.061221305,0.10813857,-0.062411338,-0.0024408272,0.04706103,0.0042257803,0.008682168,-0.06861436,-5.4988277E-6,-0.014256227,0.023986146,-4.8491616E-5,-0.060221974,-1.17336225E-4,5.415924E-4,-0.04891398,-0.068496145,-2.2262851E-4,0.006050271,-4.73189E-4,0.04262944,0.05760642,-0.11281651,-0.053705227,0.030759228,-3.232121E-4,0.055723235,-0.03465576,-0.030704949,-0.044052783,0.08455852,-0.042159054,-0.038227323,6.3352357E-4,1.20180484E-4,-0.13442262,-0.083401136,0.012765,0.034200136,-0.0016977158,0.055665504,0.053793352,-0.08922979,-0.017601596,0.049677085,3.388806E-4,0.06617202,-0.0040447037,-0.03038817,6.6909E-5,0.013717121,8.5059546E-5,-7.011289E-4,0.008063266,0.027625587,-0.13098268,-0.012903505,0.048405282,0.03425081,-0.0015261837,0.059124973,0.008547186,-0.06726565,-0.017598972,0.03231355,0.018930689,0.023017362,-0.05073933,0.018569373,1.1861807E-4,0.03157573,4.516285E-5,-0.041425224,8.986172E-4,0.011887396,-0.09323221,0.012033351,0.050202407,-0.020563083,-0.04992204,0.0066281883,0.05901999,-0.0653602,-0.0011507885,0.078983955,1.2370314E-4,0.014462336,-3.449603E-4,0.0052488064,1.1300438E-4,-0.016646286,0.03161447,0.005607163,0.0479641,-0.0017407486,-0.08973226,0.003997012,0.05322357,-0.01799293,1.756527E-4,0.06963377,3.173895E-4,-0.08262926,-2.0803581E-4,-1.6636688E-4,5.746678E-4,0.06935617,0.002257992,0.006007961,5.0545626E-5,-0.040697537,0.024862094,-0.027800212,0.03344932,0.0071499078,-0.006576453,0.05261005,0.033094306,-0.030984335,3.2187765E-4,0.011267656,2.2854187E-5,-0.05182612,-3.5831291E-4,0.006245825,7.4452686E-4,0.033860203,1.3656517E-4,0.022103999,-4.1348854E-4,-0.03350708,-6.8867266E-5,-7.0295355E-4,-0.010698862,0.011057474,-0.008011961,0.030359767,0.031246262,-0.032827932,-0.0034225914,0.018635856,-2.2216693E-4,3.774581E-5,0.008590369,0.0046311324,1.710936E-5,-3.1895797E-5,0.05445796,0.044414412,-4.740183E-4,-3.0505485E-5,0.0019906801,-3.438253E-5,-3.134858E-4,9.855442E-4,0.001954056,0.06760875,0.009798032,-0.045880515,3.1753193E-4,-0.028647505,-0.027897956,-0.009950406,1.7996785E-5,0.004514057,-0.0067468183,-0.002967165,0.017280495,3.3844038E-4,0.013931707,-0.043740112,0.0034486554,2.463585E-4,-0.022579718,-4.430727E-6,2.2900691E-5,0.071009025,0.055064704,-0.006628629,2.906078E-4,-4.811049E-5,-0.022116965,0.018954903,0.05561317,0.007145653,-0.009051508,-1.16625466E-4,0.0338836,3.86383E-4,0.06487358,-0.008084114,2.4410616E-5,0.05822181,0.005898583,1.8728142E-5,-7.25318E-5,0.044451743,0.004264806,-3.329252E-5,-0.026170386,-0.0012032604,-0.09095026,1.15607E-5,0.0040490734,-0.025949216,-1.9060854E-4,-2.6427037E-5,0.047702245,-0.0017035594,0.03477048,-2.0051139E-6,-0.004802546,0.010659891,-3.7538155E-6,-1.5690483E-4,0.014561159,4.301481E-4,1.9019318E-4,-0.01998492,-0.025374087,-0.026530433,-2.519345E-4,-0.0033231634,0.01847553,-0.034021724,-0.010247559,-4.8457514E-6,0.0063507464,4.030629E-5,-0.0055090627,-6.827234E-4,-0.020617597,-1.3837169E-4,-1.7679058E-5,3.5788764E-7,0.03497615,0.018630067,0.03385415,0.034767855,-7.727744E-5,-7.466606E-7,6.106102E-7,-0.00202542,-2.3592548E-7,0.008829069,8.963304E-6,-0.030683385,0.009933384,-1.5095978E-6,0.02972841,0.003850843,-0.021338345,-5.520055E-7,-3.9960605E-7,-3.4086577E-7,2.8946738E-6,-0.021166706,0.009141383,0.015788166,-5.4529308E-5,5.1312668E-8,-5.2135186E-7,3.384975E-7,3.5445305E-7,0.026968641,0.012580301,-5.0562494E-7,-0.027844036,-6.123438E-7,9.625635E-6,-0.013146219,-4.2836803E-7,-3.9693722E-7,-7.089357E-7,-3.3595438E-7,-0.022484964,0.026074275,-3.0686067E-7,5.752957E-7,-0.010575188,-0.020706253,1.6793496E-7,-2.2086749E-7,1.9022366E-7,1.0581999E-7,-0.026960917,-5.304555E-7,-2.8006366E-7,-0.012418776,1.2966598E-7,-7.3672163E-7,4.379698E-7,5.146385E-7,-4.2554234E-7,5.844563E-7,-3.2593312E-7,-0.0014344623,-2.858165E-7,0.014415906,-4.547303E-7,-0.018234903,-2.8141324E-7,-0.027176067,-1.8310777E-7,0.027183512,9.9010435E-9,-5.055715E-7,-0.016508944,-4.7193987E-7,-0.019768603,4.2289236E-7,0.025294658,0.029059026,-5.4309396E-8,0.031158086,-2.2345768E-7,2.601496E-9,2.8582247E-7,5.068998E-7,-0.0028405334,-4.257932E-7,-2.1420107E-7,-0.0039995075,-0.0027787418,5.910864E-7,-0.010735421,-0.0065591196,2.4756554E-7,-6.838376E-7,6.417237E-7,-0.0046938416,0.008947053,-0.0071998984,0.018100662,0.03656993,-4.0645398E-7,-0.0071547786,2.4601928E-7,5.129514E-7,0.0228042,-5.7054956E-7,-1.2033246E-7,-1.142933E-7,-0.022844564,6.054465E-7,8.084217E-4,6.586406E-7,0.0074582333,0.023848388,-0.008098776,0.008029523,-6.508058E-7,4.1495758E-7,0.016430989,0.029319506,-0.021577828,-4.6539958E-7,-0.006371419,-7.2496397E-7,-4.6278655E-7,-7.184384E-7,0.0030879322,-1.0449827E-7,-6.4923853E-7,7.226457E-7,7.180761E-7,6.4566586E-7,0.026124233,-4.398603E-7,-1.1270237E-7,-1.0383178E-7,-5.312133E-7,-0.012594075,0.013934303,-0.02931291,5.181484E-7,0.026052091,0.009440565,0.038740497,5.976892E-7,8.003699E-4,-0.004720495,4.5544442E-7,2.878453E-7,-4.3748736E-7,0.030388908,7.042948E-7,-0.012759647,7.44471E-7,-6.522525E-7,0.010384136,4.7174384E-5,-0.009807668,0.0024159553,0.039061155,2.167614E-7,-1.0654195E-5,2.3824732E-6,-5.8084163E-7,-0.0023139808,0.032833733,-0.008547513,-4.99992E-6,-2.0398602E-7,-1.1936577E-6,9.7945085E-6,7.12589E-7,0.011794148,0.0037340554,-0.044832215,7.79178E-5,9.7650875E-5,0.0028414414,-0.0058470652,0.016615385,-5.922242E-4,-0.024328526,-4.45751E-5,-2.0508392E-4,-1.346019E-4,2.4020538E-4,0.0076821377,-0.0033276055,-4.217807E-5,-0.01391735,1.6761695E-4,-0.022667216,-0.051053893,-1.5128526E-5,-0.0046736244,8.536266E-5,-0.019927789,-4.3414475E-6,0.02063093,0.018548056,-2.8188771E-5,4.0317773E-5,2.2252805E-5,-0.0133802155,-1.139356E-4,0.10751825,-1.3877102E-4,-0.04403014,-8.595596E-5,-4.807511E-5,1.6768795E-4,0.01657156,-0.029257651,-0.0030247814,-0.0374638,0.0073143006,-2.7346064E-6,-0.025501437,0.037570734,0.0022001339,-0.0045993947,-2.5958732E-5,-0.013803391,1.9890276E-5,-0.025048995,0.02133038,0.08211111,-0.0048166844,-4.6611116E-5,1.2506047E-4,1.5466938E-4,-1.7397531E-5,-9.1303045E-6,-0.031472154,2.3886215E-4,-0.01221437,-0.0133799,-0.069980524,3.031772E-4,0.028662186,-0.01198562,2.082854E-4,5.212259E-4,-8.524866E-5,-0.022710003,0.02026776,0.056833096,-0.035720974,-0.028202482,-0.026196036,9.676513E-5,0.020264953,2.0605198E-4,-1.2788207E-5,5.740725E-4,-4.6601152E-4,-9.2648974E-5,-0.036417063,5.659963E-4,-4.2410742E-4,-0.06543506,-1.8139537E-4,0.031582497,-0.016445244,-0.07632253,9.2296884E-4,0.033229496,-0.02173283,-0.026152117,3.2714594E-4,-0.027661853,0.017187752,-0.015471124,-8.7863846E-5,4.4441398E-4,-2.4361764E-4,-2.638012E-5,-0.18466105,0.02962132,-0.020874135,-0.041626245,-0.08003346,0.052568134,-7.511095E-4,-0.023079492,0.07112315,0.04049059,-0.08472823,-0.10012401,2.4890737E-4,-0.01801368,7.531096E-4,-0.06933249,-0.05418168,-0.016801659,0.039940108,-0.09980736,-0.056334723,0.06348094,-2.0863579E-4,-0.038884025,-0.10300278,0.08224084,0.0087685855,-0.053954847,9.5922727E-4,0.025879808,-0.13026993,-0.026188493,8.371279E-4,-0.0044508413,-1.878808E-4,-0.039081074,-0.023262734,3.704748E-4,0.016922414,-0.07735783,-0.030019186,0.095442474,-0.008665826,-0.10222343,-0.094428144,0.06694604,-1.1791548E-4,-3.5777068E-4,0.03673291,3.2501618E-4,-0.11266371,-0.059011374,0.03257832,-0.0010092015,-1.9642655E-4,-0.009606275,-5.6507648E-5,6.6721573E-4,0.03561179,-0.04393713,-0.024511557,0.017500756,-0.008811246,-0.085179016,-0.1478973,-1.02492195E-5,6.329018E-4,0.020203706,0.055247627,0.03660655,-0.1784439,-0.008925904,0.025626512,0.026788805,-7.8944786E-4,-0.08527095,-0.005286892,-0.010063757,5.6050904E-4,-0.010115538,-0.040895637,0.054500435,8.082279E-4,-0.09285811,-0.11640118,-7.3687534E-4,0.014665231,0.012941729,0.04912665,0.009987723,-0.2163813,0.055928815,0.027773889,0.022103546,2.292261E-5,-0.066131845,-0.01446022,-0.00102794,0.02249721,-0.057692934,-0.0013959823,0.049188275,7.4172893E-4,-0.08361136,-0.145298,-6.4954563E-4,5.459992E-4,0.02368114,0.08878704,0.049072254,-0.25467288,-0.017037872,0.060336787,6.890871E-4,0.016994772,-0.039141234,-0.045689154,-0.018562809,0.041789427,-0.04027249,4.8135855E-4,0.053412125,0.0020962139,-0.08922856,-0.12402673,0.05650313,0.02883521,0.034252636,3.4663474E-4,0.011030704,-0.21925887,-2.1584696E-5,0.009026233,2.2482191E-4,0.07760802,-0.054784905,-0.022622595,-8.686994E-4,2.6198555E-4,-0.0023788365,-0.014283041,0.073733166,-0.01713925,-0.056486785,-0.026154192,0.011606491,4.2145804E-4,0.06946842,0.00130473,0.06863184,-0.15396035,-3.396967E-4,0.03630024,-1.11698304E-4,0.0058033266,-0.013013891,-0.005611072,-6.0228526E-4,-2.558867E-6,-2.3695125E-4,-2.3395747E-5,0.052833322,0.019275924,-0.011491612,0.0083018495,0.121774554,-0.034203064,0.008301775,0.025451051,-0.003540148,-0.15377632,-2.441797E-4,2.4008492E-4,-0.020898521,0.0078159645,-0.02096364,-0.009470309,0.001688764,-0.005047639,2.6902353E-4,-0.02774955,0.021120036,0.0018240246,-0.08343841,0.02883316,0.009843918,-0.050574288,0.03394133,0.010112884,-0.013496602,-0.10047195,0.007216889,0.001968912,-0.05504898,1.0715824E-4,-6.361448E-4,-2.2583632E-4,0.023659911,-0.037006687,-0.02227318,1.2524879E-4,0.043695502,0.0039742603,-0.0081207,0.028751725,0.023995372,-0.04161095,4.2363818E-4,-0.023013672,-3.6207816E-4,-0.077190004,0.011888156,8.4717356E-4,-3.4921744E-4,-7.63551E-5,-0.0243772,-2.067005E-4,-4.1900383E-4,-0.019445304,-1.1148082E-4,0.0029485633,0.019501036,-0.04368421,-0.05035049,0.014720551,0.05740032,-0.07161712,0.022101317,-3.575122E-4,0.0093039675,-0.011191468,1.1753773E-5,2.1453574E-4,-3.0737752E-4,-0.04636083,-0.0098039685,-0.023408387,0.04896255,-0.008672701,-1.4019431E-5,0.071257666,0.053560942,-0.031339936,9.1469565E-7,0.01047273,4.0375252E-4,-0.040270492,1.9941483E-4,-0.09379614,-0.02326017,-0.051445983,0.0146435425,0.0039262744,-9.368501E-5,-1.7610073E-4,4.8974318E-5,-0.07269376,6.5628556E-4,-3.749868E-6,-0.03262249,-2.9749606E-7,0.06089123,-0.06131243,1.0537997E-5,0.015822316,-5.414997E-5,-4.4179542E-5,-0.043912254,-0.024037022,-0.07003532,1.0787868E-4,1.850925E-4,0.008100279,1.6149657E-4,-0.045150388,0.03575128,-0.011311847,0.041116804,-4.1058356E-6,3.8145507E-5,-1.9694298E-5,1.4513057E-4,0.011317357,-1.0599226E-5,-9.475227E-5,-1.3181427E-4,1.4863633E-6,-2.2468914E-4,-7.9110876E-5,-0.04968636,8.92794E-5,0.005723992,1.2542895E-4,1.3544687E-4,1.9065297E-5,-0.027640404,6.9220073E-4,0.0042476375,-4.0539044E-7,-1.1990733E-7,-0.04869624,-0.0023100302,2.3765415E-7,1.1691081E-5,-9.964692E-5,5.8157902E-6,6.0942125E-7,-4.152598E-5,-0.03810634,-0.045180973,3.9969163E-6,-0.021717984,8.697208E-8,0.013125562,-0.012337194,-3.8320253E-5,-7.6256026E-7,-3.696034E-6,-0.016314307,-0.030527137,7.365194E-7,6.0138103E-7,7.577538E-7,-0.030475156,-1.6779706E-5,-6.005232E-7,-5.737509E-7,-6.084787E-6,5.1823844E-7,-0.036719713,-0.027339162,-3.312029E-7,-3.7773611E-7,-5.8754557E-7,-1.3641715E-4,-3.6607918E-7,1.213827E-7,5.1506316E-7,-0.01870794,0.021715371,-0.008307943,-6.246304E-7,-1.6814937E-7,2.7495608E-7,-0.035526484,-0.018472854,5.6771927E-7,-0.023420101,-5.9692024E-7,2.7863905E-8,-4.388113E-8,-0.021023931,-3.8471075E-7,0.029440362,-5.906782E-7,-0.0072088167,0.01614848,0.012016699,1.885785E-7,5.6635423E-7,-0.005448105,-1.05306015E-7,0.02887144,-4.4916186E-7,-0.010244022,-1.564967E-7,-4.1129016E-7,4.3692273E-7,-9.6320605E-8,3.1279336E-7,-1.8079857E-7,-8.006771E-8,-5.081306E-7,-0.03037921,7.493996E-7,0.025820918,-3.5349638E-7,0.024553576,-6.17615E-7,1.6547722E-7,3.050269E-8,3.0146339E-9,0.010420054,2.406989E-7,-7.1121315E-7,-0.0070861876,5.967574E-7,2.7672831E-7,2.3024404E-7,-6.912612E-7,1.4870233E-7,-0.021684404,-0.0048441077,6.2397066E-7,-2.3471904E-7,0.020770857,0.011362182,0.004057585,-1.2914165E-7,-3.3150002E-8,-5.783169E-7,0.03081129,6.9589333E-7,0.018301215,0.014793226,7.562255E-8,-1.7395644E-7,6.292081E-7,7.468834E-7,-7.4701353E-7,-3.374887E-7,6.468606E-7,-0.017658757,1.3697206E-7,-0.013876708,0.026628062,-0.027540384,4.702405E-6,-6.351636E-7,4.3041263E-7,0.0024727748,-2.602261E-5,-0.005205112,1.6283168E-6,-1.5623198E-5,3.2116617E-7,1.2071816E-6,-4.05719E-7,4.999924E-6,-9.028781E-8,0.010480175,-7.1819744E-7,-9.544232E-6,-1.7784527E-7,1.6014724E-8,0.008510657,-0.028434563,2.3849202E-7,1.9678202E-5,0.020274436,-7.865173E-6,1.17969306E-4,0.033863578,-0.02532017,0.024840068,2.4706264E-5,2.1887226E-5,0.0040697716,0.011688678,-1.752323E-4,0.028874254,-0.022327166,-3.898748E-5,1.06769985E-4,-0.011032034,-1.0770567E-4,-0.029552925,2.1334913E-6,2.8161088E-5,5.351005E-5,-9.17626E-6,0.034105938,0.011279955,-0.030002404,3.2740394E-5,-0.02213251,-8.497563E-6,-0.027217329,1.4205038E-4,-9.463783E-5,2.5856926E-4,-0.004840374,-8.7390465E-5,0.028712414,-0.050477415,-3.9929477E-4,-0.03351547,-0.015171234,-0.022328911,3.5239547E-5,-0.03294877,-0.005924746,0.09047524,-0.0028713227,-1.1986223E-5,-0.009666193,1.9343497E-5,-3.346861E-4,0.06780432,2.3391853E-4,4.810122E-4,-0.03371255,-0.052077014,-0.006150332,-2.553378E-4,-2.5227206E-4,-0.023354275,-0.01276784,-0.048197363,-1.1666512E-4,-1.0564608E-5,-1.4310327E-4,-4.0061632E-4,-0.08114323,-0.029795863,7.219732E-5,0.0048904875,-0.04837079,0.08855221,4.3826015E-4,-0.049326304,-0.03241596,-0.047103167,-0.008982472,-2.538851E-4,-0.008875086,-0.09598094,-0.0144975,-0.03087643,6.209458E-5,-0.016127868,0.012750499,0.012806114,-0.032175817,-0.06294688,5.343584E-4,0.028461942,-0.046944916,0.02713932,0.025749132,0.04261732,-0.03657534,-2.7502747E-4,-0.010425935,-2.6433112E-4,-0.0015113782,-0.005114802,8.110286E-4,-0.031920422,-0.023302795,-0.08798952,6.19997E-4,2.1074439E-4,-0.039175645,-0.13507967,0.0130650895,0.024295976,-0.093272574,0.03408235,0.002485522,-0.011355844,-0.12499924,-6.799704E-4,-0.06575377,-7.251976E-4,-0.027683057,-0.022960737,9.681612E-5,-0.025973799,0.017957583,-0.12985568,-0.025189739,-3.3613597E-4,-0.093255565,-0.12503135,0.033124186,-6.058493E-4,-0.04789765,0.06768269,0.0025872402,0.0017466833,-0.06232742,-0.020919483,-0.03722988,-1.488683E-4,-0.010230557,-0.02797832,-4.8467446E-5,0.056977663,4.326195E-4,-0.07624236,0.001537141,0.012265889,-0.07157758,-0.09079734,0.05692177,-5.922792E-4,-0.02273185,0.059981097,0.014729647,-0.016694194,-0.026281565,0.0011365378,-0.03330086,0.013944428,-0.11985154,-6.0500737E-5,1.6796573E-4,0.11023393,-2.6233235E-4,-0.13931431,9.2044804E-4,0.0013711579,-0.034794424,-0.084384255,0.01828638,-0.09999789,-0.006648907,0.078985244,0.013970712,2.1109878E-4,-0.06660564,4.4275718E-4,2.5552773E-4,0.09644569,-0.054137994,-0.05103414,8.8386907E-4,0.06217544,1.7313087E-4,-0.07032981,0.047889773,0.01808179,0.07643624,-0.07590086,0.033949323,-0.08896404,-0.0011828068,0.14941016,0.008617696,-0.0017365387,-0.016532494,0.06226904,0.010016005,0.03410062,-0.09952565,-0.028551638,7.5664197E-4,0.042004246,0.0041052606,-0.04001869,0.04715006,0.026522964,0.01061035,-0.018703828,0.032520052,-0.0022424462,0.0015461249,0.019795699,0.022869932,-7.97173E-4,-5.488796E-4,-2.08513E-4,0.0103378305,0.04223219,-0.12511116,-0.01142613,-0.046608828,0.03668051,0.0041602976,-0.04122319,0.08440512,6.3882436E-4,-0.004429538,-8.977956E-4,0.061859794,0.031522848,0.0107224565,-0.008766079,0.015157849,0.053142186,7.1635237E-4,0.0061504003,-0.004411185,0.098219775,-0.09757631,-0.05630833,-9.025758E-4,0.010908313,7.631621E-4,-0.023242878,0.09604347,0.04677403,-9.7594445E-4,-0.049174495,0.013791241,0.08464249,0.011796098,-0.002216259,0.033874866,0.046740167,0.040682193,-0.004770248,-0.0047375425,0.06096749,-0.16741057,-0.040292967,-0.019639743,-9.217672E-5,-0.010638137,-0.015026102,0.0031755427,4.495467E-4,-0.019398313,0.009028646,0.065725066,0.05668216,0.053462215,-6.596177E-4,-4.756749E-4,0.021680586,5.9864315E-4,4.8068876E-4,-0.00315571,0.029521795,-0.10098688,-0.05316752,-0.0013825535,-0.049790207,2.5006282E-4,-7.4330583E-4,0.014546366,0.006626738,3.9487967E-4,3.9743868E-4,0.06700337,-7.0640387E-4,0.012912348,0.004392959,-2.8576545E-4,-0.0026840137,-0.023593457,-9.6627526E-5,1.9799758E-4,-0.05095222,-0.064030275,-0.020337362,-1.7062004E-5,-0.045442294,0.0069045797,-3.2502727E-4,6.928527E-5,0.0018222162,-7.924149E-4,-0.0074066087,0.04219059,-0.04607616,8.323391E-4,-0.011620011,-8.8076945E-4,-0.037352294,-0.030571733,0.008194388,-0.014314127,-0.027181871,-0.056106973,-0.08835056,4.2897975E-4,-0.020270193,0.007251082,6.25481E-4,3.8723048E-4,0.028237937,-0.022883393,0.010363253,0.06777567,-0.03520421,-0.002268394,-0.0091243,-6.168072E-5,-0.076170966,0.00983713,0.004428634,0.0023838137,-0.11628853,-0.014415982,-0.07382737,0.019610379,-0.028428717,-4.3911376E-5,2.1248417E-4,9.842084E-4,0.012413119,-1.1220656E-4,-0.035916306,-0.008798415,-0.08880537,3.0822295E-5,-0.07578695,-0.004733343,5.8499227E-5,-5.715621E-4,-0.020151736,-0.02150179,-0.083960995,-0.0040110494,-0.020856155,0.07750733,-0.08146483,-7.456653E-5,2.5679354E-4,2.525258E-5,-0.003048207,-0.010507149,-9.412688E-4,-6.431353E-4,-0.07014644,0.009064052,-0.060307443,-3.94262E-4,-0.033264287,-0.011170829,0.008250709,3.490673E-4,-0.1556184,0.021480821,-0.12220815,0.07682235,-0.04472563,0.011420248,-3.0666066E-5,0.02969183,-0.040310137,-0.009455158,-0.011103054,-0.065052904,-0.03596542,-0.0051240195,-0.10043106,-0.021648815,-0.07698661,1.6157744E-4,0.017175479,4.7406848E-4,-0.023429357,-0.0371281,-0.017293379,0.078039154,-0.019074189,0.020373626,-7.038752E-5,0.092633896,-0.0039224913,-0.011226463,-0.010505269,-9.059727E-5,-0.03480909,-0.029823251,-0.082723886,-0.0020363496,-0.051815532,1.9894986E-5,0.009346493,0.048260123,-0.043312054,-1.392829E-4,-0.057348218,0.017028376,-0.015693614,0.019707577,-3.7463764E-7,0.0060853753,-8.522735E-6,0.019078754,-0.003434918,-1.9401236E-6,-0.0020475998,-0.05729075,-0.004468907,-4.593611E-7,-0.037949104,0.032682106,1.5360121E-5,6.266209E-6,-0.013249731,0.0056973025,-6.437256E-7,-7.833864E-7,-2.9329658E-7,1.0734914E-7,1.16876265E-7,3.0717968E-7,0.01860238,0.0056203655,0.024181599,0.018667221,0.02129886,-7.3843495E-7,-0.021575827,2.5483274E-7,-1.9396003E-7,3.929997E-7,8.9749155E-6,0.03490898,-0.023011537,-0.024924586,-0.03367367,-7.269636E-7,2.0387711E-7,5.368865E-7,5.2245633E-7,0.02633775,0.029696688,0.008764907,-7.541175E-7,3.028494E-7,-4.219815E-7,2.3001812E-6,-0.020701857,0.02623604,-5.2628366E-6,0.023687497,-0.0329665,2.7815813E-7,5.594405E-7,2.751841E-7,0.017997174,5.8357057E-7,-0.032989167,-0.020557433,0.03230879,0.011835468,0.016343141,0.03248401,0.001927126,0.02676773,-3.2846248E-7,-4.2949233E-7,4.7324647E-7,0.0321992,7.03148E-7,-0.030679446,6.659571E-7,-5.5784994E-8,-0.0067790137,2.8212747E-7,-4.3704586E-7,0.02924436,6.983208E-8,-0.013509655,6.258285E-7,6.702389E-7,0.0092746625,-7.2503923E-7,3.2570597E-8,1.4864969E-7,-1.3557326E-7,5.271094E-7,-0.032837085,3.823638E-7,3.3935095E-7,-0.013876492,0.023346681,0.028255504,6.7618396E-7,-3.8220782E-7,-0.02134614,0.003863658,-0.02450714,-1.942256E-5,4.1042904E-7,-0.04394838,-1.2613685E-7,0.0017072243,-4.8995577E-7,-0.015785899,1.2174155E-9,-0.021108778,3.6871722E-7,1.726851E-4,-5.175102E-7,6.6554543E-7,-5.647662E-7,6.000829E-8,-0.029827308,-3.0224987E-7,-0.026411407,-0.044896893,0.031133078,-0.030460907,0.012682685,-7.1606875E-5,0.004066504,5.230784E-6,-1.4057042E-5,-6.71E-7,4.3860346E-6,-7.90043E-5,3.1254367E-5,1.4414718E-4,1.3251613E-4,-0.03880981,-2.9449122E-5,0.037077267,0.027269734,1.6723083E-5,-8.58728E-5,-0.005565203,-4.3106604E-5,-4.0322703E-7,-2.9901325E-6,-0.03088236,0.048459437,-0.07136803,-5.6560682E-5,-9.2927214E-5,5.6178484E-4,-0.030748855,0.060413614,7.765221E-5,0.03943689,8.924504E-6,-0.027583152,0.025525715,-5.128597E-7,-0.04941874,-0.0024800461,-0.015206521,-0.029385466,-1.0297825E-5,-8.529457E-6,-0.007150882,0.043527726,-0.05445731,-0.07106404,3.240968E-5,0.03836239,-0.05245283,0.024713287,0.010523831,6.8516284E-4,-0.00915967,-0.021350347,-0.020386562,-0.010101703,-0.055896778,-0.01412987,-0.054074682,-0.0025345946,-6.694109E-5,1.1401229E-5,-0.0010782403,0.012293468,-0.064728625,-0.11940936,0.010054944,0.0012931229,4.2451396E-5,0.01967857,4.0630394E-4,0.021779831,-3.1080137E-5,0.0057431837,2.0826106E-5,-0.06679829,-0.048333,-0.024166686,-0.006263148,-0.05027009,-0.033310667,-0.080955945,-0.0010230873,5.8756716E-4,-0.082517296,-0.12110557,0.039055858,0.067949206,-0.0421916,0.030540438,-5.731452E-6,0.020370714,-0.056508306,-1.6792158E-4,-0.008528259,-0.0014052242,-0.002380287,-0.014556485,-0.02198153,-0.010875373,-0.0040070624,-0.10873189,-0.020220716,0.03863534,-0.12825726,-0.053771332,0.038718335,0.03564666,-0.061213404,7.480823E-5,0.0044684466,0.0030660832,-0.099167384,-7.2446896E-4,-0.021643113,-5.9323265E-5,-0.0432031,-0.07049578,0.0042769075,-0.032122046,-0.031729106,-0.069495335,0.002049969,0.024608962,-0.048122216,-0.07208931,0.05181321,-0.0010783715,-0.020192588,-0.048109453,0.0018090584,0.0108376015,-0.10689433,-0.0138169555,-0.06917773,0.031384174,-0.053064443,-0.09575184,-3.20312E-4,-7.408046E-4,0.0014632507,-0.12527154,6.705394E-4,5.197739E-4,-0.09821565,-0.10429236,0.07173766,-0.001165511,-0.050402485,-0.003248443,0.026605928,0.023359675,-0.12585783,-8.390957E-4,-0.07963946,0.042059615,-0.0563771,-0.01911533,-0.02192189,0.0335573,0.039659422,-0.16393097,4.5984017E-4,0.015346913,-0.022390898,-0.095895305,0.034237828,-0.048869092,-2.3767458E-4,9.601509E-4,0.02392204,0.049753524,-0.026992906,-0.0064586704,-2.612642E-4,0.043386485,-0.045511406,-0.026366364,5.290198E-4,0.07959825,0.054924797,-0.06405293,-2.8679133E-4,0.006825378,8.3577906E-4,-0.05532433,0.026837379,-0.10267245,1.7924902E-4,0.024810633,0.021879274,0.047455788,-0.004942159,-0.008972815,0.04276582,0.037772898,-0.07129405,-0.007493423,0.0011760534,0.10140667,0.043894526,-0.045921404,-4.3566077E-4,0.018457917,0.0022063926,-0.043993358,0.022717344,-0.057497457,7.1751105E-4,0.07902647,0.026437957,0.043283887,-0.001042159,-0.004755914,-4.3934718E-4,0.0675177,-0.05704481,-0.003326479,0.0013493751,0.06604984,0.07423928,-4.131976E-5,0.102131896,0.04697912,0.07524326,-0.028137857,0.012469052,-0.09832352,0.036266647,0.0020764407,0.053424817,0.08440388,2.6172603E-4,-0.011367028,0.0276945,0.060123038,-0.046079993,-0.07413725,2.973377E-4,0.030754626,0.067793585,-0.014641623,0.040268406,2.7651543E-4,0.012642811,0.024823181,0.02920485,0.06130279,6.5529445E-4,0.06788014,-0.0057034018,0.15193567,0.037015595,-7.0949266E-4,-0.032710135,0.00126348,-0.116421215,-0.074085966,4.236657E-4,-4.6076172E-4,0.010421133,9.918214E-4,0.075749114,-0.002346361,0.0058146804,0.07728838,0.08947474,0.08515936,0.0323883,-0.011868352,0.03150521,0.14878018,0.017889613,-0.0039012933,-0.023323944,-0.06298357,-0.06886557,-0.06035366,0.043792732,-0.017842067,0.009364865,-0.015350414,0.010291222,0.02914775,9.4607694E-4,0.015776645,0.06778534,0.048705995,0.07184608,-0.0010198049,0.001671413,0.0989505,6.3474756E-4,-0.012870922,-0.06546333,-0.07708059,-0.046933495,-0.019686785,0.026303817,-0.039382994,5.060363E-4,-0.002733023,0.0072675333,0.009656112,-0.015921393,-4.2322362E-4,0.045133952,-0.0021974081,0.04397724,-0.005762565,0.016568132,0.035163794,-0.009186793,-0.024944568,-0.018610753,-0.15593223,-0.07466889,-0.10481789,4.364567E-4,-0.09190101,0.005974371,0.003389249,-0.009705736,0.009860577,-0.031590182,-0.06417172,0.058179934,-0.030244367,0.03492623,4.2220316E-4,0.038284235,0.029770749,-0.012928767,-0.0055252686,-0.048624083,-0.14164829,-0.03800831,-0.07685034,0.0038021517,-0.08387772,0.0076998803,0.034735385,8.6399574E-5,0.0120254755,-0.03551616,-0.03053112,0.015004708,-0.095836386,-3.912828E-6,-0.02017092,0.023092596,0.0026048042,-0.017220303,0.0010050242,-0.06603544,-0.20728374,-0.11388868,-0.11957987,0.0420186,-0.011040404,7.0494274E-4,0.004527378,-0.002457213,-0.004034685,-0.025865272,-0.044977877,7.5969845E-5,-0.054357853,0.0010840092,-0.021153647,3.6503252E-4,0.01421973,-0.03313351,0.003404409,-0.015006221,-0.11158551,2.0730212E-4,-0.021358522,0.08788235,-0.021953914,-8.4791E-5,7.1628287E-4,1.5586424E-4,-1.4008781E-4,-0.07491053,-0.09718921,-0.011363599,-0.10811269,6.596029E-4,-0.102864206,0.03854457,-0.050906386,-3.7775584E-4,-3.3064232E-5,9.1732864E-4,-0.20486845,-5.0541592E-5,-0.1337628,0.051616173,-9.833845E-5,1.0181643E-4,-0.025246628,0.02270704,-0.070918135,-0.012036374,-0.0919267,-0.03541285,-0.024204366,-9.14376E-5,-0.08246666,-0.012636008,-0.018632764,-1.3374136E-4,0.019403506,0.0068397666,-0.10456941,-0.015357194,-0.14050058,0.038054265,0.020001277,1.3791202E-4,-0.03774611,0.047413256,-0.056580752,-1.0753081E-4,-0.027337255,1.7143817E-5,3.6328736E-5,-0.06122597,-0.05211583,-0.08637609,-0.10268385,-0.0014211664,5.2374355E-5,2.404084E-4,-0.0010733911,-0.020200647,-0.035412513,3.937575E-5,8.4304907E-7,0.025947398,1.0752308E-7,0.0130971335,-3.2057386E-7,-2.4315632E-5,-0.008026575,-5.9374435E-7,1.7527861E-7,-0.023961388,-6.0405846E-6,-0.033453636,-0.06893911,3.237195E-6,-0.012844911,0.010288616,-0.020720083,-0.045536123,-6.48955E-4,-7.040093E-6,-5.5768925E-7,-0.005630902,-4.587877E-7,0.045306366,0.0095776,0.032595605,0.021773951,-2.3357228E-7,0.027907789,-0.05746929,-6.3781545E-7,5.502531E-7,-2.9810337E-8,-3.9105828E-7,3.827991E-7,-4.615167E-6,-0.038325753,-1.4614159E-7,0.030432303,-3.6232486E-6,-2.2010073E-7,-7.369101E-7,-0.025469402,0.015480845,4.37888E-7,-0.025005989,-9.925832E-6,-0.023065422,3.1051178E-7,0.031889107,4.5807838E-9,5.759523E-8,-1.8197972E-5,6.897846E-7,-3.408549E-7,4.9957237E-7,1.6035688E-7,-7.246888E-6,7.0771887E-7,-5.329327E-7,-3.377998E-7,-0.035721395,4.946341E-7,4.5717286E-7,-5.6034955E-4,6.57622E-7,-3.457353E-8,2.728973E-7,-2.3875072E-7,0.00501504,-5.880107E-7,0.012711989,0.0065306905,-0.009954944,6.557977E-7,6.0530726E-7,-0.0034039156,0.019578012,-5.68517E-7,0.031606853,0.005164044,-0.009105003,4.2717965E-4,-1.2997378E-7,-0.0069594593,0.025214799,6.5835087E-7,-1.9719852E-7,-0.038134437,4.3322655E-7,3.8670373E-7,3.2790706E-7,0.0073254514,0.034233168,0.008955265,0.022160577,-1.0091259E-7,2.7322196E-7,0.018106598,-3.4974454E-7,0.011807471,2.0166414E-7,-0.027831078,-5.520069E-7,-2.7491643E-7,-2.2267784E-7,3.2766366E-7,-3.2174853E-7,0.0093371365,0.03270262,-0.025633905,1.02358674E-4,0.042427547,2.1346614E-7,-0.016518548,0.023725921,-6.249326E-8,-4.6356945E-8,-4.8080285E-5,-0.019338133,4.396244E-7,8.314379E-8,-0.020603126,-0.049345724,-7.683579E-5,-0.04417748,-0.027310193,-7.716131E-6,1.3588513E-6,-7.077496E-5,3.955533E-6,1.4768205E-4,0.0015206829,4.5473357E-6,-6.869533E-6,-2.1146205E-5,0.023650404,-0.008482725,-2.6077163E-4,-0.07258714,-0.005514299,0.03100338,0.013089528,-0.011772859,0.026487371,-0.062412083,-0.0028417006,-0.06770131,0.070027806,-0.04674444,0.06448189,4.2618945E-4,0.0047756624,9.8020955E-6,-0.0039072903,-4.354799E-5,-1.05566076E-4,-6.6692417E-4,-0.0063026207,-0.062205773,-1.621682E-4,-0.031156385,-0.03725056,-0.01587549,0.04187163,-0.011494119,-0.0034361724,-0.03347283,0.014244144,-0.030464983,0.006524205,1.7837409E-4,6.8123464E-4,5.3759265E-7,-7.647135E-5,-7.89249E-6,-2.8559446E-4,-5.6935713E-4,-9.0722466E-4,-0.08670608,-4.734624E-4,-2.7551714E-4,2.5127172E-5,-7.724581E-5,0.002312477,-0.040090226,-0.068498135,-0.0024155795,-4.3308048E-4,3.72091E-5,0.019239979,-0.0020557675,7.9450157E-4,-8.888876E-5,1.6907623E-4,-1.5423204E-4,-0.0019377146,-0.053908877,-0.007729678,-0.0068790824,-0.05754703,-0.043835048,2.3898916E-5,-0.0020915424,0.062243562,-0.08675996,-0.11007987,-3.5310636E-4,-1.7983312E-4,-8.436616E-5,-6.171576E-5,-7.7093823E-4,0.038135402,-0.0410737,0.008110836,-0.05888202,-0.0013692733,-0.0465034,-0.04109977,-1.8631776E-4,-0.032023318,-0.0059018997,-0.034137793,-0.001116154,0.0035261668,-0.04547813,-0.053092264,8.566268E-4,-0.016983375,-0.052892335,-0.023744205,0.0067974497,0.029258428,-0.04048987,0.02516821,-0.05749089,3.698131E-4,-0.024952047,-0.033801496,-0.0021713618,-0.059247524,-0.042841703,-0.04443747,-0.010150384,0.020822916,-0.033358406,-0.08874341,5.145647E-4,-4.991494E-4,-4.724674E-4,-0.02821946,3.6515977E-4,0.03605525,-0.016488075,0.008550972,-0.0806502,0.0123577,-0.03596213,0.027590346,-0.001435033,-0.0012214343,-0.042262673,-0.1742297,0.002100415,0.008151287,-0.008909102,-0.07276863,0.032519847,-0.0012246354,0.015250679,-5.889581E-4,0.02560173,0.03441957,-0.064235754,0.023862472,-0.062345326,0.036029328,-0.010281074,-0.015769737,0.0017937907,-0.002719113,0.0092407,-0.21480174,0.0037552959,0.00734528,-0.08020943,-0.11244257,0.06841417,-0.092880175,0.0044509885,-0.026935339,0.08623865,0.030415444,-1.9825631E-5,-0.0072101876,-0.05625402,0.05992518,-0.06353907,-3.9308687E-4,0.029721478,-7.543299E-4,0.0287569,-0.11330525,0.03454504,0.019758385,-0.07740653,-0.08547447,0.00138368,-0.04330207,0.0055652326,-0.034593184,-0.002870949,0.0826803,0.02113198,2.748303E-5,-0.00486836,-0.0106794555,-0.026438849,-2.7820477E-4,4.8037886E-4,0.08474737,0.016235508,-0.049390223,-4.2338725E-4,0.05112122,-0.031111835,-0.09250508,-0.018913487,-0.089910544,8.666566E-4,-0.011312523,-0.0015557737,0.116049275,0.08985526,0.03809094,-0.0010852865,-0.001059054,-0.07300472,0.024072457,0.0040771835,-6.7136914E-4,0.10584558,0.0010931098,0.0065673883,0.054960996,-0.0045536673,-0.0625317,8.538147E-4,6.495996E-5,0.009007195,0.03058472,0.06773993,0.04677633,8.002195E-5,1.4038282E-4,0.009215194,-0.06469982,-0.10960931,-0.039156735,0.059596036,-0.01780561,0.0055659083,0.07856637,0.010198041,0.034142863,-0.035865217,-0.0625244,0.0028446473,0.07371352,0.026789203,0.08365938,0.0137841925,0.10821733,-0.0073779416,1.1589299E-4,-0.0018010963,-0.13182673,-0.17501035,-0.049878757,0.0943045,-0.03989921,0.0012330376,0.0015889806,0.0033450301,-0.017475722,-0.051277813,4.0059965E-4,0.0017790645,0.056567412,0.15931208,0.04427852,6.864324E-4,0.04159545,0.008019868,6.2663254E-4,-0.06501409,-0.26673594,-0.11012242,-0.06446959,0.10573771,9.4386423E-4,0.007935494,0.03869234,0.013529755,-0.0037542214,-0.043390915,-0.028931728,-0.020153096,0.008972172,0.09196885,-3.2703168E-4,7.7956886E-4,0.057933185,-0.03678657,-0.0063262773,-0.054243147,-0.29565743,-0.04951536,-0.13330917,0.05166241,-0.04965562,0.023049006,0.0015358673,0.019160226,0.038573723,-0.06306742,-0.093710646,-0.016514843,-0.055131316,0.006486712,-0.0011118219,-0.008558012,0.03392495,-0.024418425,0.011234826,-0.09641177,-0.27030295,-0.04830842,-0.09334166,0.07312658,-0.039276,0.011870411,1.6476845E-4,0.049431648,0.048001293,-0.041727625,-0.11758215,-0.03373468,-0.05987849,0.0012107613,-0.0042074593,0.0018999237,0.02160075,-0.026133008,-0.0034613286,-0.09877703,-0.27080196,-0.0917793,-0.086538635,0.09073519,-0.09385567,0.008162268,-4.9651513E-4,0.03746082,1.6490128E-4,-0.004449928,-0.11034877,-0.037704635,-0.0768737,0.0010122212,-0.010893095,-4.3356846E-4,0.0011116354,-0.005220627,-0.0028736335,-0.07709773,-0.16718504,-0.04270156,-0.008616793,0.06192817,-0.05364112,0.007187594,2.3031158E-4,6.869475E-5,-0.0026695947,-1.7562899E-4,-0.055742085,-0.072167456,-0.08600721,9.4674714E-4,-0.009997375,-3.110459E-4,8.547551E-5,-7.5837533E-4,-0.0023189464,-0.010570767,-0.20599335,-0.10832784,-0.14296646,0.041981243,-0.030344969,2.6540245E-5,5.0938944E-4,1.8752448E-4,-0.011854397,-0.0378863,-6.0725346E-4,-0.11100986,-0.05279392,0.005991644,-0.06267,2.5912502E-4,0.01976358,-8.299041E-5,-0.01365393,-5.526518E-4,-0.15595883,-0.08064484,-0.06342613,0.08789427,-0.034162167,1.8230929E-5,-0.021112654,0.0013219398,-0.15369736,-0.0012054846,-0.060524296,-0.057745095,-3.9415304E-6,0.04532019,-0.044432357,-0.0547503,-0.074492365,0.023405729,-0.004359699,-2.0951683E-4,-0.13216084,-0.052843872,-0.046515897,0.07017369,-0.032337364,2.7042788E-5,-0.08040805,0.01863039,-0.019798247,-5.863938E-6,-0.07935945,-0.004212125,-0.05574886,-0.0323395,-0.15952069,-0.017418157,-0.064096965,-6.538064E-6,-2.4918743E-4,0.085808374,-0.05538906,-0.004367527,-1.8392966E-4,0.04002016,6.483209E-7,0.03463465,-0.055571936,0.03157179,-3.472098E-6,-0.014084847,-0.01705233,3.4986706E-6,1.7961023E-5,-0.05110395,3.569944E-6,1.1010852E-5,-0.093939655,-1.1101728E-5,-1.4227389E-6,0.0019095811,-0.044877302,-0.07363344,0.014103963,0.016393645,-0.028369348,1.5108623E-7,1.8367302E-8,0.024315596,-0.021984914,6.4521015E-7,-1.5427848E-5,2.2777112E-7,-0.0069042877,-6.886295E-7,-0.04470726,0.028243715,-4.1054733E-7,-0.03078359,-0.009494478,0.0020241644,-4.69137E-6,-0.054071564,0.009490371,-1.2169977E-7,-6.3666835E-7,-0.03428912,0.021783719,1.1859282E-7,2.6327757E-7,-2.9597788E-7,-1.699363E-5,1.4899024E-7,4.1721938E-7,-1.0839699E-8,-1.7717798E-7,3.992609E-7,-0.028985359,0.035519537,0.033607233,0.0010573729,0.009834654,0.0015616792,-4.2123077E-7,0.009626707,-3.8568493E-7,-4.6800795E-7,-4.6959747E-7,4.639648E-7,-0.008271404,-0.017230434,-0.025666896,-5.0042905E-7,-1.7189888E-7,-0.01795649,-0.016016359,-1.4451956E-7,-6.1336414E-7,-0.031355057,0.008870482,7.0561316E-7,-6.828856E-8,-5.836683E-7,-2.123216E-7,-0.020623334,0.028947532,-0.025440553,4.233396E-7,0.004489627,-6.89857E-7,-6.6560824E-5,2.0221603E-7,-0.024858614,-0.0021974128,-3.544673E-7,-7.3541173E-9,-5.976507E-7,-0.018744884,-5.730692E-8,-0.015960632,-0.026043395,-0.024381395,-0.012825755,3.729872E-7,-0.03164109,8.821985E-9,5.5136354E-8,0.025288733,-2.9769062E-6,7.0437005E-7,-3.3335677E-5,-4.9096485E-7,-0.020031642,0.035990365,1.1637724E-7,-4.142752E-7,1.4761419E-5,8.543249E-5,-6.169516E-7,1.2667249E-7,-6.311909E-7,-8.0867835E-8,6.45274E-7,0.0236638,5.784132E-7,-1.2514416E-5,5.160487E-6,-0.007914123,-4.7592635E-5,7.322038E-5,-0.08457415,-2.8459799E-5,1.1044356E-5,0.012803625,-1.868646E-5,-8.869497E-7,-1.1553892E-5,0.05413017,-0.029509224,-2.1512076E-5,0.026172522,0.029488327,-6.27629E-6,-0.028901774,-0.0068392777,0.02055499,-0.023244519,0.012933644,-0.03250372,0.033091135,-0.018893259,-0.054465868,-6.353048E-7,5.0566933E-4,6.791327E-6,-3.2707743E-5,-0.011672508,0.012155799,-0.043917947,1.5363636E-5,-0.042532466,-0.03251481,-6.601824E-4,-0.007034867,-5.769782E-6,-7.906972E-5,-0.029191678,-0.047578957,-0.00818591,0.04704717,-0.10600654,-0.02531904,-0.011963243,0.049452685,2.9757008E-4,5.7118646E-6,1.4568475E-4,0.010099403,-0.039560776,2.9524488E-4,-8.672542E-5,-0.0021767777,-3.45767E-4,-2.7239506E-5,-4.2139075E-4,-1.969392E-4,-0.0042811963,-0.009273163,1.4444017E-4,0.037195485,2.6388577E-4,-0.032059934,0.02230477,-0.037094116,1.3238248E-4,-2.0273135E-4,-0.008489365,0.009649342,-0.009115118,2.9314202E-4,-1.521049E-4,3.3404493E-5,-0.03648879,0.004789731,-0.05642836,-0.016892826,-0.070645824,-0.0351973,-3.9110266E-5,0.004275137,9.060689E-5,-0.03471534,5.108336E-4,-7.4121443E-4,2.112655E-4,-0.054717544,0.0054609845,0.0018671352,-0.012077474,0.011712248,-2.92782E-4,0.007499248,-0.017960284,0.004662603,-0.0014199078,-0.013715383,-0.0122223105,-0.10573077,-4.4056683E-4,7.543937E-4,-5.5771467E-4,-4.2039377E-4,0.028718792,-0.0077381423,4.3124822E-4,-0.0965999,0.03199977,0.0015776586,-0.12642913,0.015290242,-0.039244115,0.01270445,-0.027573278,5.455055E-4,-5.759408E-4,-9.965939E-4,-0.004437715,-0.096819125,0.025517607,0.0032363345,-4.1334302E-4,-0.044307437,1.11772926E-4,-0.036763247,0.017032316,-0.092514865,0.008101562,0.041639138,-0.016602805,0.0305124,-0.08698805,0.029065127,2.4861738E-4,3.50128E-4,0.0021278472,-0.0011580812,-0.108281046,-0.07172179,0.036121726,0.008249358,-0.018917968,-0.0011626242,0.034637872,-0.030208621,0.004300848,-0.126254,0.0010248761,0.057234414,-0.009217943,0.0011836782,-0.05551766,-0.029831488,5.6830027E-5,-0.009177864,0.034038667,-0.0188812,-0.023063658,-0.07067737,0.03504826,-0.033848725,-0.015286244,-0.03731533,0.06940357,-0.10820822,7.7969616E-4,-0.21820249,-0.035369728,0.069852225,0.034489308,0.0020098598,-0.055397663,-0.0014499882,-0.019210326,0.0067979298,0.027132807,0.013372685,-4.739079E-4,-0.09594049,-8.237506E-4,0.00275782,-0.059516,-0.0142347645,0.0452123,-0.0730435,0.0054304055,-0.11037448,6.8229175E-4,0.06796842,4.769264E-4,-0.032210123,-0.0226665,-0.07438962,0.004085052,0.051029243,0.058994353,0.009054659,0.001563563,-0.06082102,1.9986155E-4,0.008775857,-0.0098734405,-0.07480894,-0.0553828,0.024955682,0.05430076,-7.3456985E-4,-0.039488513,0.04703451,0.089531206,0.0047205184,3.2655708E-4,-0.107907094,-0.022204226,0.06900576,0.059540555,-3.52074E-4,0.031899326,0.027065113,-0.0010490026,0.03630006,-0.03058996,-0.110611655,-0.1385865,0.08547673,0.0081751775,0.06568634,6.24695E-5,0.1024958,0.04732897,3.3674896E-4,0.07347354,-0.086307906,-0.08043943,-0.0028916462,0.01004579,-8.778727E-4,3.125947E-4,0.064475894,0.0014288054,0.01281721,-0.019822702,-0.03926592,-0.16892332,0.08428741,-0.0064676628,0.107639134,0.08407356,0.09050527,-3.4144582E-4,-0.0140051115,0.09188802,-0.19486141,-0.18056291,-0.05449492,0.011532911,-0.0070406725,3.615458E-4,0.109963186,0.022783685,0.027997356,-0.11572821,-0.08865181,-0.15309037,0.087353386,0.06731821,0.15323053,0.02024286,0.02005838,-0.029844198,1.6930477E-5,-0.017442105,-0.15188625,-0.03454997,-0.14576073,5.1647023E-4,-0.07183276,0.012114711,0.0112265935,0.039295185,0.060321495,-0.06162772,-0.13475074,-0.17249723,-0.0078401975,0.035563394,0.06296606,0.03678593,0.12139573,-0.005961849,0.0037468984,-0.033024117,-0.17437758,-0.07914412,-0.0827909,0.018642636,-0.03340528,0.0022062007,6.594084E-4,0.04430829,0.021510538,-0.04366241,-0.06678794,-0.2395418,-0.07329732,0.096881285,0.04069451,-6.5329275E-4,0.02048458,-0.08013787,5.41833E-4,-0.0078565115,-0.14810786,-0.08632929,-0.13269751,0.048030734,-0.027100679,0.0011820389,-0.053995196,0.03798148,-3.002066E-4,-0.07086794,-0.08878029,-0.18107112,-0.05817743,0.06248604,-1.1128746E-4,-3.1547731E-4,0.04942057,-0.0014990999,-1.595937E-4,-0.0014326028,-0.15162088,-0.06597485,-0.042677455,0.028838975,-0.06407533,0.06660644,-0.030647274,0.012070883,5.96191E-4,-0.020960812,-3.7630758E-4,-0.20108205,-0.14828034,0.001150777,0.0048806476,-0.05407392,0.004344882,-0.041155856,-0.008409545,0.012966663,-0.10171557,-0.039147492,-0.06724536,0.09575604,-0.088484816,3.5309864E-4,-0.089914426,0.0139906965,-0.018898575,-0.07718181,-0.0095285345,-0.14297144,-0.044363808,0.013253081,3.304688E-4,-0.004100103,-0.041873824,7.312312E-4,-8.45521E-4,-2.1961963E-5,-0.1311116,-0.0928153,-0.008382886,0.08300885,-0.0029266733,0.019375168,-0.107238464,-0.020264719,0.0011969308,-0.04977846,-0.045042917,-0.06562954,-0.05947006,0.0014775752,0.0018493951,-0.0117063,-4.7730832E-4,0.0013239974,-3.277906E-4,0.070362285,-0.12744105,-0.04243206,-0.12203614,0.04331731,-2.9523408E-5,-2.7581258E-4,-0.11755235,-1.9522892E-4,-0.10220682,-0.025830865,-0.042355824,-0.01741745,-0.0052680247,0.047272857,-8.274235E-5,-1.0963693E-4,-0.10661614,0.0027443082,0.04198832,0.06915816,-0.03016688,-0.18231608,-0.06557085,0.117872044,1.4993448E-5,-1.271833E-5,-5.4548077E-6,0.0030362597,-0.10268882,-0.0030849567,-0.0122372685,-0.002947312,-5.1415547E-5,-0.055543218,-0.12047411,-5.2180054E-4,-0.07503279,1.10896384E-4,0.014906118,0.091860354,-0.014148441,-0.14359803,-0.036072057,2.8768237E-4,-0.032092668,1.9478393E-5,-2.048192E-6,3.66601E-5,-4.8701007E-5,1.2127005E-6,-0.0030251534,2.1890487E-6,0.0075302185,-0.11643318,-0.047598585,3.9860397E-6,-0.028011216,-0.0022336347,1.2306988E-4,0.075770795,-1.5087221E-7,-0.1127126,-9.9322915E-6,3.1360707E-6,0.021205356,8.60217E-6,2.4319718E-8,0.021165747,-2.305507E-5,6.661973E-7,5.6230556E-7,-6.8717657E-7,-4.5670754E-7,2.534922E-7,-0.008457838,3.915315E-7,-0.0021114387,0.035799265,1.967318E-4,-3.1218628E-5,-1.2553528E-8,-3.478126E-5,4.929678E-7,1.2447906E-5,6.9814445E-7,0.033137187,-1.6736698E-7,0.031544518,5.109722E-7,0.0020787313,0.022160968,-3.5729556E-7,4.4098687E-7,-5.472496E-7,-1.2419719E-7,-2.2189454E-8,5.477922E-7,-0.0064348504,-0.020517964,0.026251532,-0.03272335,-5.703741E-7,6.0129526E-7,-0.004012598,0.030963005,3.433401E-7,-0.023485405,-0.015645003,6.032451E-9,-3.5837178E-7,0.010060539,5.4580937E-8,0.012658337,-7.588362E-7,-1.8467887E-7,0.010397211,-4.144295E-7,3.7149084E-7,-7.442972E-7,-0.033548176,-4.9450153E-7,0.010960566,-6.239553E-7,-0.020629764,0.011438396,-6.2922584E-7,-0.035553943,-0.033079077,-0.033215176,1.0206228E-4,-5.661713E-7,3.9544545E-8,-2.0395587E-6,-0.0368734,0.006189623,-0.03378942,0.011589577,6.535263E-7,0.0037859962,2.9974285E-6,5.7486676E-7,-5.9771625E-4,-1.68908E-7,-0.03222724,2.8878117E-7,0.019025512,0.0044230763,0.002898955,8.685146E-8,-0.039209113,1.854869E-8,-0.017865244,0.018091513,2.5068977E-7,6.3144773E-7,-6.973889E-7,0.012691262,-6.1704003E-7,0.035642486,-6.395134E-7,2.5662246E-7,-0.0269744,-1.2042511E-5,-0.030132247,-1.764384E-5,8.590429E-6,-2.6683222E-7,-4.8843343E-5,8.2988645E-6,-0.01364055,-0.05775768,1.484415E-5,-0.017158382,1.35229975E-5,0.012405339,-0.04289904,0.010890328,-0.013643054,-3.4588425E-7,-0.03686167,-2.2074403E-6,6.967336E-5,-0.053365648,1.1791235E-4,-0.023420408,-9.2831215E-6,0.01880338,-0.031424843,2.9171139E-5,-6.474741E-4,-0.024332725,-0.0023067032,-1.1784172E-5,4.998207E-5,-0.012179009,6.625129E-5,0.039048694,6.637071E-6,0.019884463,-0.020704012,-6.379912E-5,-0.04465011,0.0045045726,-4.1811165E-4,-0.018320119,0.014450017,0.014370106,4.0935763E-4,-1.9278543E-4,-0.013319277,-0.009914176,-2.5810914E-5,0.03305972,4.686192E-4,-0.03366626,-0.007228233,0.0010176965,-5.439425E-5,0.018327536,-3.575391E-5,4.3571923E-5,0.004778583,2.3374853E-4,-3.3433706E-4,-0.0053243553,-0.010896316,-0.06480245,0.03737134,1.3030996E-4,-3.6746665E-4,-4.3101184E-4,9.364177E-5,-0.031745173,2.4024353E-5,-0.10105292,0.016912729,0.03946736,-0.06666769,0.01541492,-0.0047592255,-0.026840255,-0.018225644,0.06260293,1.5813224E-5,-4.004559E-4,-0.01965481,-4.5194825E-5,0.051711015,-0.039707884,0.018934764,-1.9991313E-4,5.7607787E-5,-0.045831963,2.9583322E-4,-0.10378187,0.0040050726,0.0020501753,-0.06675528,0.002842038,-0.005164186,-4.1574094E-5,7.5460365E-4,0.05848235,0.015448427,0.022858564,-0.05932266,-0.031819005,0.04403208,-3.1348882E-4,0.0042326977,0.0017275747,0.04716854,-0.020215366,7.005277E-4,-0.11098481,-0.016725782,0.01972864,-0.037677836,0.001955473,-0.025384797,0.0017587275,0.0058037913,-0.017126413,0.024412293,-1.763488E-4,-0.027482787,-0.05672442,0.035346568,-0.13184518,0.0063064066,3.0151004E-4,0.011548799,-0.052900173,0.0020238524,-0.14816345,0.001144549,0.015027755,-0.04425754,0.013937127,-0.047363218,8.5645815E-4,-6.89601E-4,-0.005659116,0.0019047596,-0.039840728,-0.053528197,-0.075050004,0.027260557,-0.07958049,0.02771819,3.5798133E-4,-0.0021616032,-0.02384985,4.983396E-4,-0.15919879,-0.010283393,0.061304647,-0.0025981162,0.024832096,-0.03839868,-0.03790447,0.016395617,-0.030641971,0.04820082,-4.04472E-4,-0.13397264,-0.05084282,0.01807417,-0.15685077,-0.0048688888,-4.938984E-5,8.746357E-4,-0.03116474,0.031550158,-0.1224832,-0.033034794,0.025677325,-4.014275E-4,0.0014339124,-0.0010246363,-0.045207687,0.006405772,-0.019748071,0.004861928,0.01589078,-0.08642431,-0.118056834,-0.0010419431,-0.112254284,-5.77197E-4,-0.0048957663,0.0011228645,0.0023961037,0.0014465388,-0.12196591,-0.05487071,0.070371784,0.045608934,-0.010831335,1.7583795E-4,-0.09147795,0.04271857,0.07142543,0.0017146766,0.10566112,-0.012631275,-0.035723414,0.0040807156,-0.014064501,-0.08070126,-0.050662726,-0.018463917,0.06415859,3.4260322E-4,-5.7746266E-4,-0.122816175,0.20039453,0.09746549,0.018793954,0.15058684,-0.0044243885,0.0020434114,0.1417809,5.976867E-4,0.09584021,-1.3491815E-4,0.025513677,0.048743248,-0.0018878366,-0.17225493,-0.06850412,-0.10001824,0.10511969,-0.007212631,0.017135095,-0.13070253,0.11225255,0.16094051,0.064920716,0.17018956,-0.010820214,-0.13573362,1.5348797E-4,-0.15294787,-3.071004E-4,0.002687629,0.064409636,-7.2790346E-5,5.0050112E-5,-0.090812966,-0.1380808,-0.099187,0.11930734,-0.07768606,-5.6284526E-4,0.007825112,0.07086133,0.06849913,-0.08917063,0.12570435,0.0019956469,-0.105487734,-0.08526558,-0.12769039,-0.0023748754,3.8059783E-4,0.06964318,7.904907E-4,0.016180076,-0.073610775,-0.20596379,-0.08409373,0.015776778,-9.716004E-4,0.050868407,0.046865083,0.15027739,-0.042046227,-0.027568355,0.081925765,0.056012087,-0.024771012,-0.14676997,-0.17462468,-0.028975615,9.831183E-4,0.07262817,0.01769368,0.082203306,-0.0048029292,-0.15549925,-0.059492573,7.702135E-5,0.0011692626,0.035765346,0.073574744,0.07713007,-0.001599095,-0.035069548,0.048122887,0.05670559,0.003880807,-0.095113896,-0.082987055,-0.016984887,6.001566E-4,-0.01887899,0.017683696,0.020373896,-0.03964821,-0.115621395,-0.14561854,-0.05415017,0.07334269,0.041523643,-5.0705345E-4,0.064270064,-0.019238729,0.002032262,0.023217937,0.02444866,4.9495266E-4,-0.07653272,-0.10190626,-0.010831288,0.030042151,-0.007195537,0.010530975,0.061608274,-0.03761743,-0.046257935,-0.1720245,-0.111114725,0.040762555,3.914901E-5,-0.0014906686,0.044169467,-0.0130535,-0.010726072,0.012248829,0.0057460135,-3.106261E-4,-0.075334325,-0.017508684,-0.024721833,-4.0601117E-6,-0.08740007,9.060136E-4,0.013424359,-0.05613384,-0.08662014,-0.09925771,-0.07034339,0.073402174,0.05455723,-0.019701416,0.043018494,0.022143358,-0.0010067523,0.0076260115,0.0057192068,-0.026554683,9.120176E-5,-0.04117177,-0.014507603,6.494869E-6,-0.099782765,3.388404E-4,0.057735212,-0.026373992,-0.0964087,-0.11089169,-0.07683559,0.042417385,0.007510107,-0.09326283,3.3494936E-5,2.7293025E-4,0.0018673519,0.056720734,-0.019514574,-0.03190129,-0.07654713,-0.1311326,-0.060033236,-4.3196537E-4,-0.032049064,-0.029087937,-0.031554114,-0.02619913,-0.11255861,-0.16223112,-0.06698039,0.0130620785,4.6840197E-4,-0.081013314,0.007534501,0.0067247134,0.0055173184,0.016996706,-4.8223566E-4,-0.0443828,-0.022130953,-0.03567397,-0.0064372183,-0.008574545,-0.02062093,-6.0612237E-4,-0.08426948,-0.021420544,-0.05833325,-0.13385476,-0.018041927,0.049254484,2.8046234E-6,-1.665506E-5,-0.087043084,-1.5533595E-4,0.03850408,0.15149218,-2.5748022E-5,-0.11413461,-0.016706122,-2.9846563E-4,-0.05697736,-1.8485142E-4,-7.2097895E-4,-0.0075553553,-5.0810886E-5,-1.2785323E-4,-0.025294207,-2.5787838E-5,-4.342748E-5,-2.457505E-4,-1.77691E-4,-0.0076741106,-0.053293824,0.032835007,0.040679324,0.047996104,2.4961639E-5,-0.16309005,-0.0827216,0.014631163,-5.9182963E-7,0.029880425,3.8440982E-7,-2.1578273E-7,0.0054102223,-6.8971976E-6,-1.2941114E-6,0.012119947,2.5766246E-7,-0.026010433,-0.0016518984,-4.1184177E-7,-0.0059817755,0.038288377,2.4707479E-5,0.077242255,4.5413508E-5,-0.15754633,-4.0520217E-7,0.017595757,-0.012883726,-1.6016105E-7,0.0016672257,-0.0010720157,-0.028589638,-0.018664246,-0.027287772,0.010646317,6.841532E-7,-6.357084E-7,-2.364817E-7,6.0835646E-8,6.2763866E-7,-0.0013896129,7.4977254E-7,6.585082E-4,-2.3053423E-7,5.199378E-7,-0.035015754,0.015269559,6.682687E-7,-3.6787685E-7,-3.3442439E-7,-0.023701964,-6.5877276E-7,0.031115342,-6.643802E-7,-0.034749396,-1.0839983E-8,-0.020226197,-0.010101151,2.8012926E-7,6.467664E-7,0.021583458,8.4126485E-4,2.491292E-7,3.655225E-7,-1.4335421E-7,-5.429689E-8,4.983677E-7,6.83136E-7,-0.017103156,3.9761989E-7,4.7940205E-7,-0.01121484,-0.017066313,-6.131092E-7,2.8365542E-7,-4.890976E-7,-5.2306046E-7,-4.5133896E-7,-0.0034763014,0.0063864514,-0.023691418,-3.4929224E-7,5.758978E-7,0.0063195373,2.4483728E-7,2.4727757E-7,4.978576E-7,2.7833397E-7,-4.079444E-7,-6.0743946E-7,5.6605796E-7,0.030623777,0.0022661705,-4.1401694E-7,-1.01912974E-7,-5.7261343E-7,0.034599986,-0.018339187,-0.03390081,-7.2370034E-7,-7.990775E-8,-0.013782436,-0.018220002,0.030682418,4.231469E-7,4.5174022E-7,-0.03727405,-1.0817794E-6,0.031963244,5.603217E-7,0.002380957,-0.020366523,-3.8742757E-5,3.0927703E-7,0.0032731406,-0.012765989,-0.024256084,-0.023909241,0.008487719,0.052215558,0.020532154,0.014456158,0.0016458491,-3.2020432E-7,-0.013409661,0.015407012,0.023832545,-0.03168786,1.3017429E-5,4.4221176E-7,0.0014987034,-2.4393474E-5,-0.057552066,-3.590875E-5,-0.014235292,3.0522938E-6,5.83923E-4,2.0571576E-8,1.3546372E-7,0.0014923484,-0.020527942,0.0279996,-3.096388E-6,3.0048858E-7,2.4637822E-5,3.565164E-5,-0.021592429,2.281879E-6,-7.030512E-5,0.0016052176,0.03709956,-1.0632579E-4,-0.045018416,-0.06669287,0.007653198,-4.9606693E-5,1.7103706E-5,-0.021529624,-0.056312505,0.021283966,-1.3754175E-5,0.017330747,-0.021841176,0.041122,-2.6100766E-4,-1.6445874E-5,-5.1537406E-4,1.7216381E-6,-1.4045631E-4,1.2364046E-7,0.0010361128,-0.011705778,0.019899953,-2.5218428E-4,-3.835863E-5,-7.576164E-4,2.8300215E-4,-9.142771E-4,-0.07167132,0.08185959,-7.2175106E-5,0.012326873,-1.849227E-5,0.016109109,-2.6421066E-4,-0.015814045,-6.2551163E-4,-0.048308913,-0.0042595165,-0.008823337,0.025362812,-0.07608114,0.019221723,0.01570145,0.008074082,-0.031038964,0.03635281,-0.026156139,-0.16687718,0.07180287,-0.019304255,0.05805808,-5.0963194E-4,0.02016365,0.0014406636,0.005829517,0.03382488,0.036444224,-0.014918771,-0.023798326,0.023415852,-0.1289323,0.020076135,0.007928813,-0.021229936,-0.02524665,8.362916E-5,-0.058721002,-0.13282782,0.0063819154,-0.016892228,0.052548748,-0.03316353,-0.0056595597,0.03566207,-0.0023247509,0.00874472,0.038102377,-0.010576213,-0.012711298,0.055178158,-0.14756365,0.09677541,0.03159991,-0.041706316,-0.034557354,-1.893473E-4,-0.12772404,-0.13689712,0.039412044,-0.035073873,0.009761422,-0.01871115,-1.6387568E-4,0.012636684,-0.053676497,0.010657823,0.060551133,-0.01386885,-0.018508757,0.04001858,-0.18449484,0.079946525,0.018216074,-0.016540254,5.498717E-5,1.2316734E-4,-2.3281059E-4,-0.113611795,0.038904097,-0.07101934,0.017538879,-0.0010767438,2.9297875E-5,0.0871165,-0.030680036,0.015067848,-0.020054214,-0.015366708,-4.6220934E-4,-9.55917E-5,-0.115070365,0.01523337,0.010009132,-0.0038984169,-0.007581808,-0.014914084,-0.014675506,-0.17454985,0.02910246,-0.0012803734,0.0012794004,0.0032091953,-0.019209579,0.09245283,-0.07397852,-0.001673787,-2.7108035E-4,-0.045857605,-0.08229791,0.006419595,-0.09800316,0.027579151,0.035453886,0.011233352,0.0563259,0.016804287,-0.016292293,-0.15862592,0.096680604,0.040559076,0.00210475,0.0038110996,-0.03799232,0.07606043,-0.0028380672,0.042617027,0.12758176,-0.08226103,-0.079520375,0.009954699,-0.037645757,0.004803608,-9.0726407E-4,-6.10427E-4,0.123974904,0.014711212,4.8872083E-4,-0.28399116,-2.0350446E-4,0.028423974,-0.0012128724,0.07734624,7.3871383E-4,0.073160425,0.07574029,-9.524232E-4,0.1730478,-0.07079029,-0.014742222,0.028486332,-0.011668163,-0.10072157,0.021416519,0.0010868296,0.08781273,-0.015611939,0.0012074827,-0.22159146,0.02374804,0.060392257,0.044863906,0.14101519,0.08001651,1.5799224E-4,0.070467286,-0.08011525,0.2099868,9.914817E-5,0.011319903,0.030190172,0.05497223,-0.094387524,-0.013689393,-0.035491496,0.015752649,-0.1020119,1.904668E-4,-0.14659399,0.0052262284,0.11817381,0.0661956,0.14675795,0.0352972,-0.053111136,4.5339286E-4,-0.14607112,-1.568677E-4,0.04137376,0.1216233,-0.009089447,0.08940372,-7.820755E-4,-0.1953601,0.0010377901,0.0589874,-0.21330616,5.472901E-4,-0.0639818,0.11905863,0.09021295,-0.016470766,0.13412441,0.04664064,-0.02983996,-0.026193883,-0.17659053,4.4125243E-4,0.0394826,0.14018656,-0.056128256,0.04189453,0.0011972992,-0.11459637,0.016904552,0.0050539784,-0.13593143,5.3141656E-4,0.018622115,0.11405462,0.010507277,-0.0025380296,0.005722918,0.17054299,0.046292752,-0.036916167,-0.23704891,-9.200553E-4,0.001102033,0.0030068934,-0.006010767,0.07083981,0.008670552,-0.11829891,0.009804733,-0.012177522,-2.1920861E-4,2.2125401E-4,-0.0031312972,0.08004498,-0.0011944374,0.0014646089,0.0012701482,0.13362446,0.042659897,-0.03720513,-0.25918457,-0.02393612,1.3240043E-4,0.033280898,6.441581E-4,0.019881697,-1.8438158E-4,-0.125322,0.055708084,-0.042627033,0.0064772777,-0.0043236953,-0.003252846,0.12552547,-8.8604615E-4,0.0010706254,0.026127959,0.100495845,0.01967819,-0.042751994,-0.33398604,-0.04449289,-0.011111344,5.180893E-4,0.0067349286,0.031173179,6.921355E-4,-0.106520936,-7.2503655E-4,-0.04558042,0.058514554,2.7366186E-5,-0.034189437,0.07128991,-0.0044002393,-2.8065604E-4,1.06669475E-4,0.0011898977,0.0013044319,-1.590275E-4,-0.2875729,-0.04154292,-6.35513E-4,-0.050427604,0.005259548,0.075288795,0.0011265771,-0.0879234,-0.114339605,-0.038326737,0.11683945,0.02424999,-0.058842044,0.13133529,-0.045143284,-0.0012078497,-0.0013333824,0.07654355,-0.0034634906,0.008986318,-0.31778082,-0.038372442,0.008878028,-0.028687257,5.7652633E-4,9.082099E-4,-0.0017096323,-0.024684723,-0.09036353,-0.0045691296,0.0748406,0.019683132,-0.07279693,0.029758025,-7.707475E-4,0.0045393715,-2.8862257E-4,0.008930736,-0.038478706,0.0019045306,-0.17230298,-0.0056157685,-5.573919E-4,-0.0321114,-0.009012925,-7.020074E-5,0.0038534221,-0.058063086,-0.03425141,-0.024717458,0.12999666,0.11537928,-0.0674692,0.017233444,-0.047446683,0.010120956,-0.040055845,4.6715856E-4,-0.009051707,-1.2490347E-4,-0.1980917,1.2488455E-5,-3.4162885E-4,-0.05039579,-3.2437724E-4,4.1744534E-7,-0.0037129105,-0.004211524,-0.01582234,-5.298693E-5,0.014748,4.6742323E-5,-0.09645541,-0.048040845,-0.03172758,0.046827234,3.5278415E-4,0.0392191,-0.06613478,-0.06254795,-0.067352526,-7.839816E-8,-1.832785E-4,6.0703826E-7,-2.3885377E-7,1.195117E-7,6.411654E-5,-8.188777E-5,-0.01638305,-7.6236256E-6,-1.2177888E-5,-0.019377934,-1.8344724E-7,-0.052638832,-5.619001E-7,0.014890337,0.08344941,0.03350548,-0.10148038,4.6614714E-6,-0.015225835,-0.019110095,-0.033543188,0.002304444,-3.5074834E-8,1.6161835E-8,0.0188075,-0.021913871,-1.3605433E-7,-7.260867E-7,-0.019460132,3.5625257E-7,3.6886096E-5,-2.1414945E-7,-0.016779121,4.830691E-6,0.024802944,1.1955213E-5,-0.09688493,-1.5145498E-5,4.483637E-5,0.03247912,1.1787881E-7,0.0025114277,0.037212074,-3.037939E-7,-4.4056299E-7,-6.005852E-7,-0.03713179,0.020528896,-0.028139561,4.1652447E-7,-4.150939E-7,-1.4569889E-7,-7.054287E-7,4.7254096E-5,0.04831451,0.022559881,-7.629513E-6,0.0031457862,0.014653003,0.0035137935,4.8448186E-4,1.6477662E-7,4.5273924E-7,0.00333875,-4.5865977E-7,2.8236457E-8,-6.435948E-8,0.022376368,-0.009054644,-0.03292544,-6.4555513E-7,0.02986287,-1.0300204E-7,-7.1055354E-8,0.019633936,-1.689524E-7,-1.1402943E-7,-0.019663975,4.5343148E-7,-0.02607435,8.129069E-8,0.010937085,0.008165544,-5.902024E-7,-6.2844356E-7,0.027617652,-6.226487E-7,-0.033089757,-0.013549887,0.001961303,-2.7003261E-7,0.03201441,-0.028067509,-6.815487E-7,-0.0029571622,4.5988293E-7,-0.024819277,-6.139353E-7,0.03654167,-0.01386965,-4.6977675E-8,-2.998189E-8,-5.6762656E-7,-0.019013325,-0.040490914,0.0077623003,-0.031902965,-5.735768E-7,7.3881944E-7,-0.006464362,2.5146778E-4,2.298226E-7,-4.4702637E-7,-0.023487367,-5.5942104E-7,-0.007073816,2.6123365E-7,0.0057296986,0.013866156,-5.9233315E-7,0.007911848,0.018859137,4.3218726E-5,0.008269709,-6.015227E-5,-0.026088305,1.46124535E-8,0.01956033,-6.321636E-7,-1.5665097E-7,0.00300747,0.011675033,0.021810548,7.380624E-7,-0.013269621,0.022300232,0.0056663407,-0.023981636,-0.014895225,7.1069167E-7,-0.031423226,6.627204E-7,0.032803304,-2.4469959E-5,-5.433225E-4,-0.018916879,0.020723386,-2.9512264E-6,-0.019377265,-5.6937495E-8,-1.7143164E-5,0.029775077,-0.022928182,0.0021688715,6.937358E-7,0.046075307,0.017026098,-1.8495044E-5,2.370549E-5,-0.010680826,-1.1517881E-7,-0.02520231,7.196883E-4,-2.2677894E-4,-0.04327217,-1.2798554E-4,-3.650538E-5,-9.262637E-5,0.0022723684,-0.038991466,-0.031783663,0.099966824,4.0417348E-5,-2.3128348E-5,4.2372412E-6,-0.00602338,-2.5714815E-4,-0.05121949,2.3349832E-5,-8.418354E-6,-0.036635015,-0.005718621,0.0024071,-0.101846285,0.07326376,9.61827E-6,5.421807E-4,-6.2252354E-4,0.0011393178,-3.4611786E-4,-0.11477193,0.08927663,-1.1420145E-4,0.05669748,5.560929E-6,0.03687574,1.8392607E-4,-0.028484363,-2.0138604E-4,-9.02794E-4,-2.7517276E-4,1.2375052E-6,0.03323786,-0.03541664,0.024563177,0.027051035,4.2875842E-4,-0.028341735,0.052349005,-0.074060865,-0.20083669,0.015505396,-0.029901987,2.3469776E-4,-2.4588837E-4,0.009766195,0.05032398,-0.014450501,-3.3691846E-4,0.0071606194,-6.2951214E-5,-0.02388432,0.0065426654,-0.100709334,0.034694914,2.583305E-4,-0.004077027,-0.03189436,0.07393233,-0.05755494,-0.3046079,0.10030657,-0.024834964,0.005854632,-1.3940682E-4,0.031685106,0.092206895,-5.1284797E-4,7.811156E-4,0.022761814,-0.0017836356,-0.091975264,0.009652931,-0.11183743,0.0014160029,3.4259746E-4,-0.00813034,0.0072705545,2.0594834E-4,0.030691752,-0.32483044,0.033060856,-0.086559035,-0.018421551,0.017712772,-0.0040176767,0.10160662,-0.00647012,0.0052997936,0.025223255,0.014480418,-0.046777982,5.5616074E-6,-0.029849617,0.06916081,0.054260466,-0.017661175,0.0016266613,0.006599386,0.0034825779,-0.36151105,0.0062896153,-0.009557044,0.010360946,0.001677234,0.035754215,0.051539414,-0.06877641,3.4044456E-4,-4.817082E-5,-0.06109801,-0.04451703,0.018630825,-0.007728254,0.1195101,0.039042056,0.0105039915,0.0395845,0.012108218,-1.4611187E-4,-0.34975457,0.029639032,-0.0041935286,-0.006402809,0.01047722,8.970846E-5,0.086852714,-0.07596022,0.05122264,-0.0011359467,-0.09304904,-0.15331867,-0.0017151656,-0.0930605,0.035815343,0.048443936,0.028564913,0.01832136,5.744891E-4,-4.3256546E-4,-0.34471008,-0.011266171,6.497214E-4,-0.008221739,0.04650849,0.0041476847,0.113033906,-7.705878E-5,0.0012891393,0.03268512,-0.07989499,-0.041707598,-7.475466E-4,-0.035338882,0.043518607,0.03018028,0.0044551417,0.014043808,0.042889286,9.2208575E-5,-0.23367381,-0.16976054,0.03323448,0.0031168638,0.08391643,-0.0018181751,0.11016815,0.024351656,6.700303E-5,0.09119102,-0.053697713,-0.023139723,0.057037044,0.0077751265,0.1197386,0.03881666,-0.05925233,0.0032628968,0.0067156996,0.008720998,-0.2692861,-0.15510401,0.072507575,0.012188871,0.1659459,-0.0012003168,-0.052080713,0.03614682,-0.022179082,0.060447995,0.021053832,0.06035132,0.049096778,0.16687135,0.07667639,3.4009566E-4,-0.01846763,0.0011789427,-0.16098912,-0.023511892,-0.21070252,-0.1012184,0.041697077,0.122891106,0.03906019,0.020311639,-0.07365585,5.143358E-4,-0.07578438,-0.062226713,0.01700772,0.10872398,0.0011840259,0.08945548,3.584218E-4,-0.035334773,-0.061053533,-0.010138188,-0.16645654,-0.023138262,-0.14262503,0.035989355,0.10889483,0.018860804,-0.0021086873,0.014251518,0.026046744,-0.006801712,-0.087948345,1.8966943E-4,0.037142396,0.017588027,-0.03384251,0.05887365,0.045386463,-0.022499792,3.0416404E-4,-2.544495E-4,-0.20992228,0.0053626294,-0.013103351,0.12819484,0.011931224,0.0015236967,-0.12163826,0.11294457,0.16782129,-0.006429837,-0.077981874,-0.0034893255,5.3421373E-4,0.008374038,0.05098434,0.043932598,0.014630604,0.005256121,4.6591338E-4,-0.027410977,-0.116016425,-0.015081944,-0.08885403,0.15771207,-0.007923848,0.008150614,-0.020950606,0.028821986,0.10839057,-0.023895474,-0.1848996,-0.002142579,-0.02268353,0.021001963,0.0063447,0.10675875,0.0035052977,6.695715E-4,0.03936297,-0.030017532,9.951311E-4,-0.013268241,-0.019552698,0.10301593,3.611698E-4,-0.015123001,-0.051752087,0.004964717,0.05320148,-0.010422221,-0.15547134,-0.03435589,-0.009539051,-0.10237393,0.042706963,0.002909303,0.06288881,-0.013259016,0.10402838,-0.05471881,0.01782238,-1.1874859E-4,-0.0041280175,0.075398944,-0.0012246992,0.005284784,-0.033186268,0.0012161671,0.081629165,-9.0720074E-5,-0.23247664,1.1087929E-4,-0.011781886,-0.012619202,0.01059435,-0.011671795,5.463674E-4,-6.1126094E-4,0.037629258,-2.5402143E-4,0.009862046,0.053867187,-0.0041191154,0.054328438,-9.132022E-5,0.03516074,-0.04240505,0.017926412,0.0077414587,0.01522019,-0.23867005,3.0086394E-5,-7.214328E-4,1.2481687E-6,1.4196913E-4,-0.027652482,0.074262045,-9.7212684E-4,-5.345759E-5,4.7876342E-4,0.0387876,7.7231764E-4,-0.058130547,0.03466124,0.018667469,0.008845914,-0.15294321,0.015427653,0.069589995,1.2651685E-4,-0.17291658,-0.043498013,-3.1749756E-4,7.916476E-7,0.0022295716,-0.0354101,0.017383598,-0.037390903,-0.05666394,6.6637294E-5,0.16052653,0.08303862,-0.08183909,0.06320494,-8.4549196E-5,0.057300568,-0.09379575,0.07044518,7.1551316E-5,0.057411034,-0.09868515,-0.051257197,0.017447937,-0.011339007,3.9063543E-5,-0.06640045,1.4872335E-4,0.011450173,-0.025803927,-0.0057477527,0.12306781,0.030620562,-0.09235501,-0.009049644,7.7658143E-7,0.052777693,-0.02189167,0.08935572,-0.037756708,1.2733051E-4,-0.054964237,-0.020064494,-3.4007262E-5,-0.032955434,0.022532871,-5.4846635E-7,-0.03162155,2.2376411E-5,3.7348173E-6,-0.023305675,0.10370709,0.087064765,1.7507776E-4,-0.019688841,-0.029729396,0.038534906,2.0683149E-7,0.009053172,0.01569088,6.8081434E-5,3.6581486E-7,5.671588E-7,1.7368035E-7,-0.041431796,4.7843287E-8,0.008841491,-4.4458277E-5,8.367303E-5,0.002927631,1.3925103E-8,-1.8003402E-5,2.2118402E-5,-0.007144426,-0.012491395,1.4387001E-7,0.03999962,5.3091426E-5,1.2155668E-4,-0.03938464,-2.2295467E-4,1.0217849E-7,-3.2378532E-4,5.577548E-7,-6.728098E-7,0.011734439,7.016733E-4,-5.625788E-7,-1.0798556E-5,-6.235333E-7,0.033732034,-1.621471E-6,-5.88841E-10,-3.73988E-5,-0.02815155,-7.280875E-7,0.0012235343,-0.0051475917,0.017609114,-1.9139306E-4,-6.0099524E-7,-0.008593069,0.03552883,0.020286294,-0.010145382,3.4502682E-7,-0.025682395,2.957588E-7,-0.0042306185,-3.6039222E-7,1.2676196E-8,-0.022258269,-4.598444E-7,-0.008580708,-3.004747E-7,0.001672148,0.033307258,4.2777071E-7,0.0030511771,0.021675047,-6.291841E-7,-4.1455115E-7,-0.0108199185,-6.8412044E-7,0.017226135,0.036749765,0.035469025,-0.03285206,1.994045E-7,-2.0835671E-8,0.017969431,-0.036932845,-0.032020945,0.030026138,-0.0019762975,-0.016728232,8.3988766E-8,0.003389852,-4.822345E-7,-4.0620517E-7,0.016463734,1.8449975E-7,-7.2000904E-7,0.030550692,5.558065E-7,-0.037822127,3.694821E-7,4.0239456E-10,-0.021768155,0.031853884,4.5116548E-7,-0.033627104,0.019887535,-0.004779479,-5.7113044E-7,-0.028517928,3.347576E-7,-7.597725E-7,0.005752139,-2.4213892E-7,-0.022124004,0.002159931,0.019327952,0.0011365802,0.016869368,-5.1388804E-7,-0.018389024,-0.02331432,-5.0993316E-7,3.8612671E-7,0.0060798745,6.187025E-8,-0.025239544,-0.016125122,0.017802881,-0.011075104,-0.033832543,-0.018703964,3.8643257E-4,6.4623777E-7,-2.1268636E-7,-0.034203935,0.010189433,0.027630992,0.013656572,1.9434342E-4,0.02563417,0.015452166,-0.035349887,0.011728132,0.011496291,-3.6023972E-5,2.7853054E-7,-0.022994792,-3.3535278E-5,0.0050988183,0.03573336,-0.02638924,-0.001421778,-0.022160895,-0.060800575,0.014102107,0.00836412,-0.031892028,3.0237254E-7,4.5774336E-4,-4.900614E-5,1.7900646E-4,-1.6986002E-4,0.02878014,-1.0489391E-4,3.1374407E-4,8.696685E-7,-0.037500832,0.0032397227,-1.1224482E-5,-0.010457598,1.3826723E-6,-1.322953E-4,-0.002492063,-0.06962738,0.038583763,0.0020804917,-1.1541945E-4,3.072154E-7,0.00931834,-0.018481616,0.06103835,-0.021011775,-6.239532E-6,-2.703141E-4,0.0790832,2.2105276E-6,-0.2601046,0.0068749767,-7.855085E-5,-2.4862465E-4,-0.0073432,0.0046482673,0.019544069,-0.06308416,0.0106069045,-0.057425942,-0.034943942,3.137966E-7,8.820463E-4,-0.06958904,0.0956525,0.049028452,-1.9271053E-4,0.06819663,0.06563498,-0.03794221,-0.24534398,0.01011294,-0.009352512,-1.3630684E-4,-0.00567077,0.011472939,0.16174367,-0.0462117,7.3693134E-4,2.0823069E-4,-6.590599E-4,-8.694355E-6,8.114445E-4,-0.04739465,0.10984125,0.030038416,-9.106969E-4,0.0076872227,0.032281127,0.0014973585,-0.29543477,3.5342542E-5,-0.038061365,2.0561973E-4,4.676564E-5,5.1285414E-4,0.048283115,-0.003783421,2.6528144E-4,0.0067827855,-5.4142287E-4,-0.025032861,2.726141E-4,-0.029138228,0.1055912,0.062065646,-0.059719056,0.013998317,0.072548896,0.0017804278,-0.1675843,0.0034026625,-0.1085929,-3.865423E-4,0.011566552,0.05624248,0.09766934,-0.11971698,0.0015495566,5.235343E-4,-6.446175E-4,-0.045049567,-0.02935971,-0.055539563,0.07587956,0.09174855,-0.039472044,3.024526E-5,0.032160267,9.371748E-4,-0.105666205,-0.030219393,-0.08557877,0.009613134,0.024439676,1.4461759E-4,0.07368139,4.6615125E-5,0.049263857,-5.140064E-4,-0.00820823,-0.10113958,-0.029348824,-0.034879893,0.06730313,0.02191318,0.0051491247,0.010038912,0.07255601,0.0015879875,-0.08657041,-0.022113694,-0.019851036,-0.011278038,3.225674E-4,0.0050784624,0.108943805,0.017425692,0.070206895,-0.02933932,-0.044468272,-0.09204354,-0.004435127,-0.046083994,0.17318498,0.0866972,0.025606737,0.006281913,3.0375793E-4,-0.022480465,-0.020550845,-0.10370929,-0.0072163935,-0.008820673,0.02820053,-0.011235111,0.05052096,0.059702713,0.061503835,-0.023444392,-0.09571911,0.0073202956,-0.0013498752,-9.096947E-4,0.14520264,0.101201855,-1.9778525E-4,-0.04509715,0.04125087,-3.148205E-4,-0.102793425,-0.24599554,1.9431219E-4,0.03704309,0.043759648,-0.037927825,0.01454972,0.04371128,-0.028180905,-0.009514719,-0.114900246,-0.08501403,0.15539698,0.13509795,0.17702723,0.10872139,-0.025440056,-0.06105526,-0.054675784,-0.020384068,7.6570825E-5,-0.10914155,-4.2203168E-4,0.09748927,-0.0050741173,-0.014078045,-0.07693751,0.0525248,-0.0503566,0.01123162,0.0074888463,0.16675852,0.03356004,0.17162168,0.09480038,6.482092E-4,-0.025098389,-0.030766204,-0.18440087,-0.17955191,-0.09242987,-0.06297809,0.115599185,0.03323387,-0.0948453,-0.019646646,-0.053385966,0.0010808087,-0.032220487,-0.044765785,0.022180095,0.0012334166,0.00309191,0.002025022,0.08281304,0.027754799,-0.03488778,-0.008924373,-0.2950978,-0.015243518,-0.0686895,0.0014778055,0.040549237,0.032359164,-0.048493765,0.040297512,0.050551083,9.88243E-4,-0.015466016,0.0015226528,-0.018436754,0.039870303,0.005033073,0.08201576,0.0795643,0.041532148,-0.09800986,0.017437916,-0.23730706,1.6889394E-4,-0.044960644,0.10885002,0.048479155,0.019049875,-0.084417924,5.39804E-4,0.04488377,-0.04300776,0.004864426,-0.017400831,-0.008724703,0.0010457478,0.033300534,-0.0010786653,0.07741905,0.035143375,-0.010540877,-0.014206446,-0.086872295,-5.030563E-4,-0.050643187,0.08178946,0.0033522025,0.0020063976,-0.022140764,0.009322642,0.1264161,-8.68334E-4,-0.08663869,-0.012534973,-0.01696765,-0.012658333,0.046721462,-0.0032039352,0.103488594,0.00786681,-0.008354104,-0.04352681,-0.018892778,-3.2350904E-4,-0.0287893,0.046463903,-0.013726639,-0.009103052,-0.03163493,0.004056196,0.041564174,-0.01594379,-0.028701806,-0.014886933,-0.0057908623,-0.12163737,0.052237608,-0.005449319,0.082283676,0.0016415141,0.011739797,0.048084363,-0.026419548,-0.03938531,-0.0202506,0.07420942,-0.0564685,0.04138211,-0.07238183,0.0016449351,0.036111727,-0.03158511,-0.08178095,-0.05071813,-0.00772645,-0.07864079,3.637929E-4,-0.0429336,0.07492356,-0.004022509,0.009312745,-0.019971926,-0.039833635,0.00301012,-0.07777753,0.019278893,-0.0472977,0.03872912,-0.0119376825,0.015678497,0.05539011,3.7705252E-4,-0.07496047,-0.061154854,-0.0021748408,-4.063807E-6,-0.0011152591,-0.02129318,0.08714778,-3.8192785E-4,0.02317324,0.004427146,0.02107834,0.0017851056,-0.0017599497,-2.560541E-4,-0.033162285,-7.748517E-4,-0.026926376,0.02554503,0.04864682,0.009821745,-0.10812105,-0.03554535,-9.428914E-5,-1.8641907E-7,-0.0014555672,-0.14258893,2.2269925E-4,-0.02397,3.3131204E-4,0.00508639,0.074134134,0.052922755,-0.0462292,-0.013831211,-2.2361967E-4,-9.888137E-5,-0.07280259,0.04123211,2.5066984E-4,0.084230356,-0.08391913,-1.083261E-5,-0.025013294,1.0057305E-6,2.2636004E-5,-0.08199365,-3.024739E-4,-0.002280689,-1.2011931E-6,7.525064E-5,0.15177718,0.007297835,2.2561052E-4,-0.013954216,-0.0471196,0.0020193101,-0.06290836,0.046249587,-1.9232731E-4,0.039641168,-0.002777058,-9.940512E-7,-1.08999535E-4,1.1776935E-6,0.0068913423,-6.7092435E-7,-0.07664844,-0.005726112,-0.017022027,0.02901799,0.0316584,0.08376529,2.6110324E-4,-0.0054807737,-0.014446878,4.0735745E-6,-0.05603951,2.590264E-4,0.022440977,2.3578687E-4,0.018775178,-0.018048506,-0.010899574,0.0083725,0.005008715,-1.3445555E-7,-0.026832508,-0.003599563,-7.525272E-7,3.140318E-7,5.9232985E-7,7.3000133E-6,-2.3564282E-5,-0.044560228,-3.9005104E-7,9.83957E-5,-1.7065418E-7,1.1831043E-4,5.144523E-7,0.0044708345,0.012846064,-4.3548823E-8,-7.6530546E-7,0.030835083,4.1842372E-7,-2.476907E-7,0.018588848,-6.0018443E-5,0.027032578,6.2642755E-8,2.3442959E-7,0.0023139548,-0.029645475,0.015337335,-0.030652896,1.2263977E-4,-0.036928333,-0.004160897,0.007530605,0.0045772297,4.6120266E-7,-2.0600748E-7,-3.7875247E-7,0.032162614,-7.007673E-7,1.9029017E-8,-1.9931912E-7,5.79367E-7,0.010156714,4.206125E-7,5.1981357E-7,-0.014433159,-7.655948E-7,0.017905327,0.0019555779,-0.008223657,-3.5033088E-7,0.011989119,0.01337368,-0.036012605,-0.015985172,-0.02444958,0.025919829,0.008864895,0.02774447,-4.4158566E-7,-0.009425544,4.9993423E-7,-0.017235145,4.6677485E-8,-6.99108E-7,9.239511E-8,7.0962403E-4,0.027389342,1.5518958E-7,4.7284396E-7,-3.7726625E-7,-0.022472072,4.0785147E-7,-5.421182E-7,-0.03280184,-3.4642602E-7,-5.8883666E-7,0.01039275,6.924281E-7,0.02028777,-6.9580716E-7,-3.3278637E-5,-0.008426904,-4.9554336E-7,-1.1514561E-7,-9.4545016E-4,0.008205629,0.033338074,8.698663E-8,0.008171622,1.16374395E-7,0.02038681,7.5458405E-7,-5.821199E-7,-0.03533993,-4.1892662E-7,0.002636894,-0.013710018,-0.025474425,6.6056856E-7,-0.005565127,-0.039722584,-0.00495758,-4.194976E-8,9.777176E-8,-2.9105078E-7,-2.5430307E-7,1.2175792E-7,