{
  "layerSizes": [
    784,
    25,
    25,
    25,
    10
  ],
  "activationFunctions": [
    {
      "@class": "edu.yaprnn.networks.functions.LinearActivationFunction"
    },
    {
      "@class": "edu.yaprnn.networks.functions.TangentHyperbolicActivationFunction"
    },
    {
      "@class": "edu.yaprnn.networks.functions.TangentHyperbolicActivationFunction"
    },
    {
      "@class": "edu.yaprnn.networks.functions.TangentHyperbolicActivationFunction"
    },
    {
      "@class": "edu.yaprnn.networks.functions.TangentHyperbolicActivationFunction"
    }
  ],
  "bias": -1.0,
  "name": "digits",
  "layerWeights": [
    [
      4.7799773E-9,
      -4.7823416E-9,
      -4.7867514E-9,
      4.780944E-9,
      -5.0468785E-9,
      4.782942E-9,
      -4.771425E-9,
      4.7800652E-9,
      -4.780457E-9,
      4.779902E-9,
      -4.7873305E-9,
      4.7715165E-9,
      4.771602E-9,
      -7.8890405E-10,
      4.7720468E-9,
      4.767372E-9,
      4.7821347E-9,
      4.7818682E-9,
      -4.773605E-9,
      4.787302E-9,
      -4.779305E-9,
      4.7820854E-9,
      4.787082E-9,
      4.7703743E-9,
      4.774539E-9,
      -4.780479E-9,
      -4.7819086E-9,
      4.7831E-9,
      4.787302E-9,
      5.027976E-9,
      4.7278794E-9,
      -4.7707758E-9,
      -4.78242E-9,
      4.7694595E-9,
      -2.984244E-10,
      -4.781285E-9,
      4.7719926E-9,
      4.787302E-9,
      4.7851074E-9,
      -4.767386E-9,
      4.770902E-9,
      -4.7277267E-9,
      -4.7826E-9,
      -4.1684656E-9,
      4.7813327E-9,
      4.7844324E-9,
      -4.788034E-9,
      4.7800652E-9,
      -4.783963E-9,
      4.7756883E-9,
      -4.7798494E-9,
      2.5661073E-10,
      -4.783705E-9,
      -5.046717E-9,
      4.780262E-9,
      -4.7811928E-9,
      -4.775429E-9,
      -4.780809E-9,
      -4.779305E-9,
      -2.5661073E-10,
      -4.7679043E-9,
      -4.6551607E-9,
      5.080095E-9,
      -4.783996E-9,
      4.7814663E-9,
      -4.7835638E-9,
      -4.6678066E-9,
      4.7806226E-9,
      -4.7873305E-9,
      -5.080038E-9,
      -4.7711453E-9,
      4.7720468E-9,
      4.7814344E-9,
      -4.759819E-9,
      -4.7792623E-9,
      -4.7871915E-9,
      -4.770655E-9,
      -4.7814663E-9,
      -4.7809654E-9,
      4.781822E-9,
      4.7804076E-9,
      -4.7667963E-9,
      -4.7814357E-9,
      4.661521E-9,
      -5.047859E-9,
      -4.7833124E-9,
      4.76898E-9,
      3.726086E-10,
      3.6849812E-10,
      -4.783676E-9,
      -4.77486E-9,
      5.0473403E-9,
      4.7850137E-9,
      5.0473403E-9,
      -4.7820317E-9,
      -4.7833506E-9,
      3.9464876E-11,
      4.727702E-9,
      -4.771251E-9,
      4.769213E-9,
      -4.781477E-9,
      -4.782608E-9,
      -4.772118E-9,
      -4.7715734E-9,
      4.6613655E-9,
      4.7828106E-9,
      5.0529434E-9,
      4.7795936E-9,
      -1.2710872E-9,
      4.772118E-9,
      4.7732747E-9,
      4.7775432E-9,
      -4.7698427E-9,
      4.7817297E-9,
      -4.781075E-9,
      -4.7813775E-9,
      -4.781569E-9,
      -4.775642E-9,
      4.787384E-9,
      -4.782136E-9,
      -4.7798396E-9,
      -5.0473403E-9,
      4.001804E-9,
      1.6398793E-10,
      -4.7877173E-9,
      -4.7718007E-9,
      -4.7790785E-9,
      -4.777103E-9,
      4.7839377E-9,
      -4.7798023E-9,
      4.7834985E-9,
      4.774917E-9,
      -4.771765E-9,
      4.7712487E-9,
      2.4734161E-9,
      4.783239E-9,
      1.0174768E-9,
      5.046978E-9,
      4.783489E-9,
      -4.7742303E-9,
      -4.787668E-9,
      5.047749E-9,
      4.7821347E-9,
      5.0478586E-9,
      -4.743294E-9,
      4.787231E-9,
      4.7757007E-9,
      4.77905E-9,
      4.7798316E-9,
      4.7775575E-9,
      4.780828E-9,
      4.780162E-9,
      4.7710342E-9,
      -4.7800652E-9,
      4.7720468E-9,
      4.7848787E-9,
      -4.787398E-9,
      4.781972E-9,
      1.0772583E-10,
      -4.7811928E-9,
      4.781822E-9,
      4.7751136E-9,
      -4.7678914E-9,
      4.773412E-9,
      4.7812154E-9,
      -4.7811004E-9,
      -4.783961E-9,
      -4.783929E-9,
      4.7873305E-9,
      -4.7702815E-9,
      -4.7676734E-9,
      5.047628E-9,
      -4.727954E-9,
      -5.4535487E-11,
      -5.027976E-9,
      4.7833364E-9,
      4.7795905E-9,
      4.782195E-9,
      3.104204E-9,
      4.7836446E-9,
      -6.1978955E-10,
      4.780567E-9,
      -4.7806985E-9,
      -4.7821427E-9,
      4.7715307E-9,
      -4.771545E-9,
      -4.774346E-9,
      4.661355E-9,
      -4.773534E-9,
      4.780844E-9,
      4.7810507E-9,
      -4.780567E-9,
      -4.7819215E-9,
      -4.7718185E-9,
      1.2766472E-9,
      -1.3890853E-9,
      -4.781964E-9,
      2.2354696E-9,
      -4.7823523E-9,
      4.782848E-9,
      6.1978955E-10,
      -4.7792303E-9,
      -4.7816124E-9,
      4.7731894E-9,
      4.7710618E-9,
      -4.7811195E-9,
      2.90835E-9,
      4.781912E-9,
      4.780182E-9,
      4.77996E-9,
      4.773765E-9,
      -2.7700926E-9,
      4.7837463E-9,
      5.4535487E-11,
      4.782864E-9,
      4.7676694E-9,
      -1.898881E-11,
      -4.7873305E-9,
      -4.78179E-9,
      -4.7813185E-9,
      4.0038506E-9,
      -3.8954173E-10,
      -5.047497E-9,
      -4.7836406E-9,
      4.780162E-9,
      4.7798188E-9,
      -4.782001E-9,
      -4.7880864E-9,
      4.7735056E-9,
      -4.7876005E-9,
      -4.7869753E-9,
      -4.7795568E-9,
      4.787398E-9,
      4.7819513E-9,
      4.7839968E-9,
      -4.776983E-9,
      -5.0799707E-9,
      4.7800444E-9,
      -4.772132E-9,
      -4.780424E-9,
      2.2358924E-9,
      4.787281E-9,
      4.7718576E-9,
      -4.7757007E-9,
      6.1978955E-10,
      -4.779979E-9,
      -4.7734416E-9,
      -4.7822093E-9,
      4.7742406E-9,
      -4.78078E-9,
      -4.781688E-9,
      -4.7676196E-9,
      4.7704236E-9,
      4.7800652E-9,
      4.768724E-9,
      4.7728204E-9,
      4.783963E-9,
      -4.7800652E-9,
      4.774195E-9,
      4.784392E-9,
      4.78302E-9,
      4.7839968E-9,
      4.7670037E-9,
      4.781663E-9,
      4.7751962E-9,
      4.769797E-9,
      3.5730352E-10,
      -4.7733066E-9,
      -4.7814215E-9,
      -4.7817874E-9,
      4.7740287E-9,
      4.8624216E-11,
      4.7821347E-9,
      -4.7827067E-9,
      -4.784106E-9,
      4.770118E-9,
      5.0483533E-9,
      4.7201643E-9,
      -4.7796362E-9,
      4.7817257E-9,
      -5.047145E-9,
      -4.7821347E-9,
      -4.7720468E-9,
      4.7674025E-9,
      -4.7812696E-9,
      2.2350148E-9,
      4.779489E-9,
      4.7756825E-9,
      4.759819E-9,
      -4.7802757E-9,
      4.7840865E-9,
      -4.7836872E-9,
      -5.0469353E-9,
      4.7727067E-9,
      4.7793485E-9,
      5.047003E-9,
      4.7274247E-9,
      4.7821347E-9,
      -4.7277102E-9,
      4.7874122E-9,
      3.508509E-10,
      -2.3113746E-9,
      4.8972204E-10,
      2.0125057E-10,
      -4.6603117E-9,
      -2.8795464E-9,
      8.426584E-10,
      1.0604726E-9,
      -3.1802183E-9,
      -3.8631387E-9,
      5.4786407E-9,
      -4.3880157E-9,
      3.5150118E-9,
      -5.144926E-9,
      -2.4908733E-9,
      2.1628312E-9,
      2.4462579E-9,
      -1.460362E-9,
      -5.8165606E-10,
      1.7570496E-9,
      -5.6313536E-9,
      -2.804943E-10,
      1.7192732E-9,
      -4.1449404E-9,
      4.0903858E-10,
      -1.0142713E-9,
      -4.3190385E-10,
      4.733032E-10,
      -4.520521E-9,
      4.827174E-9,
      -4.5471182E-9,
      1.8391382E-9,
      -1.2601187E-9,
      5.8963794E-9,
      5.2307607E-9,
      2.3726028E-9,
      -3.4861412E-9,
      -3.1143008E-9,
      -5.27612E-9,
      -3.7309147E-9,
      -1.4178361E-9,
      4.4135677E-9,
      1.4162609E-9,
      -3.0568952E-9,
      1.8491746E-9,
      -4.0540393E-9,
      -9.955161E-10,
      -4.160754E-9,
      -3.551818E-9,
      3.974763E-9,
      -1.0146906E-9,
      -4.0539656E-9,
      5.445909E-9,
      -5.769112E-9,
      -3.772044E-9,
      -4.1820254E-9,
      -3.5893666E-9,
      -1.0142283E-9,
      -3.96769E-9,
      -5.7323772E-9,
      3.3729353E-9,
      -3.7937555E-9,
      -8.4949736E-10,
      -1.5509025E-9,
      -5.2480176E-9,
      -3.2592844E-9,
      8.652701E-10,
      -5.646702E-9,
      5.114845E-9,
      -3.822144E-9,
      -4.0588892E-9,
      3.1894383E-9,
      5.566883E-9,
      -5.045004E-9,
      -1.3140449E-9,
      -3.9283305E-9,
      -4.509568E-9,
      -4.6090864E-10,
      -2.1362263E-9,
      -3.8798964E-10,
      3.8198795E-9,
      5.671148E-10,
      -1.9110762E-9,
      3.8974957E-9,
      -3.838553E-9,
      2.8736427E-9,
      -9.994183E-11,
      2.437612E-9,
      2.3835907E-9,
      -2.617369E-9,
      2.1855784E-9,
      8.538992E-10,
      -1.1695755E-10,
      4.551964E-9,
      -4.8824487E-9,
      4.1790615E-9,
      -3.3624477E-9,
      -1.8749855E-9,
      5.0467786E-9,
      -3.7557273E-9,
      4.772504E-9,
      4.7699924E-9,
      4.7816204E-9,
      4.772277E-9,
      4.7278723E-9,
      -4.779902E-9,
      -9.699841E-11,
      -1.741916E-9,
      -4.7678665E-9,
      4.782927E-9,
      4.7819224E-9,
      4.770598E-9,
      -2.321392E-9,
      -5.0470277E-9,
      -4.782163E-9,
      4.7688515E-9,
      -4.783962E-9,
      4.7756954E-9,
      -4.668149E-9,
      4.7873803E-9,
      -4.7685957E-9,
      -4.7821347E-9,
      -4.759819E-9,
      -4.7731787E-9,
      4.769214E-9,
      4.7722772E-9,
      -4.786623E-9,
      4.770918E-9,
      -4.787302E-9,
      4.7817155E-9,
      -4.7821738E-9,
      -4.1776955E-9,
      4.7720468E-9,
      -4.7763185E-9,
      -4.7832924E-9,
      -4.782272E-9,
      5.273115E-9,
      4.7822084E-9,
      4.7843196E-9,
      -4.7687485E-9,
      4.7808695E-9,
      -4.7816737E-9,
      4.7728417E-9,
      4.7807167E-9,
      4.7839004E-9,
      2.6904265E-9,
      -4.7839874E-9,
      4.7716986E-9,
      4.7278794E-9,
      -4.773534E-9,
      9.7010844E-11,
      -4.770072E-9,
      -4.7872737E-9,
      -4.76809E-9,
      4.7840993E-9,
      -4.7804067E-9,
      4.786684E-9,
      4.7693924E-9,
      4.769893E-9,
      3.2739953E-9,
      4.7873305E-9,
      4.778835E-9,
      -4.7804463E-9,
      -4.7818185E-9,
      5.0473155E-9,
      5.0475113E-9,
      5.0483746E-9,
      -4.7818576E-9,
      3.331908E-9,
      -4.777674E-9,
      4.7865774E-9,
      -4.7834647E-9,
      4.7810813E-9,
      4.7680047E-9,
      -5.0467186E-9,
      -5.0471485E-9,
      4.177461E-9,
      4.7764965E-9,
      -4.7702993E-9,
      -4.661266E-9,
      -4.7835105E-9,
      -4.779905E-9,
      4.6552655E-9,
      -4.727844E-9,
      5.0473403E-9,
      2.566063E-10,
      4.7798387E-9,
      -4.655246E-9,
      4.77566E-9,
      4.779223E-9,
      7.8890405E-10,
      -4.786769E-9,
      -4.7820707E-9,
      4.7798836E-9,
      4.782623E-9,
      -4.779736E-9,
      -4.7835873E-9,
      4.6613655E-9,
      4.787302E-9,
      -4.781065E-9,
      4.7839217E-9,
      4.781818E-9,
      -8.7472696E-10,
      -4.779031E-9,
      4.771418E-9,
      -4.781539E-9,
      4.7699764E-9,
      -8.7471275E-10,
      -4.77425E-9,
      4.7755853E-9,
      -4.769809E-9,
      5.0475113E-9,
      4.779902E-9,
      4.781751E-9,
      -5.027976E-9,
      1.7658506E-9,
      4.787263E-9,
      -4.787384E-9,
      1.7419444E-9,
      -4.780507E-9,
      -4.7710813E-9,
      -4.782665E-9,
      -4.7796433E-9,
      -4.7836872E-9,
      4.7757047E-9,
      -4.769857E-9,
      -4.7756883E-9,
      4.7731503E-9,
      4.7736886E-9,
      4.786812E-9,
      -4.7717057E-9,
      4.7821347E-9,
      -4.782005E-9,
      -4.7831397E-9,
      5.0469353E-9,
      4.787565E-9,
      -5.0427746E-9,
      -5.0799733E-9,
      4.7798014E-9,
      -6.9674844E-10,
      3.726086E-10,
      4.779757E-9,
      -4.7756825E-9,
      4.787302E-9,
      -4.778993E-9,
      -4.779675E-9,
      -7.115881E-10,
      4.7722555E-9,
      5.0475113E-9,
      4.781278E-9,
      1.8616664E-11,
      4.780361E-9,
      4.786929E-9,
      5.373435E-11,
      4.7201643E-9,
      -4.782691E-9,
      -4.77997E-9,
      4.7687183E-9,
      5.027976E-9,
      -2.566063E-10,
      4.7834963E-9,
      4.7797983E-9,
      -4.7754987E-9,
      4.7821347E-9,
      -4.7795E-9,
      4.780856E-9,
      4.781957E-9,
      -4.7702353E-9,
      -4.783276E-9,
      4.7813433E-9,
      4.7830393E-9,
      -4.7736903E-9,
      -4.780999E-9,
      -4.7719615E-9,
      1.421987E-9,
      4.7716373E-9,
      -7.998535E-10,
      -4.771829E-9,
      -4.780567E-9,
      4.7719997E-9,
      -4.787366E-9,
      -2.9659324E-9,
      4.771791E-9,
      -4.782067E-9,
      4.7811928E-9,
      4.7665374E-9,
      -4.771478E-9,
      4.7811772E-9,
      7.8890405E-10,
      -4.7797926E-9,
      2.5661073E-10,
      -4.781765E-9,
      -4.7873305E-9,
      4.7662603E-9,
      -1.0772583E-10,
      4.773413E-9,
      -4.781676E-9,
      -4.7849693E-9,
      4.7827067E-9,
      4.774117E-9,
      -4.779902E-9,
      4.787302E-9,
      -4.777489E-9,
      -4.7715734E-9,
      4.779905E-9,
      4.7703987E-9,
      7.845502E-10,
      -4.7832223E-9,
      2.3259323E-9,
      -4.779548E-9,
      -4.7819926E-9,
      -4.771758E-9,
      -4.7817097E-9,
      -4.7825077E-9,
      -4.783193E-9,
      -5.0529434E-9,
      -4.7716515E-9,
      4.7818256E-9,
      -4.787668E-9,
      -4.767934E-9,
      -4.7697415E-9,
      4.787668E-9,
      4.773534E-9,
      4.778825E-9,
      4.7677244E-9,
      4.7819384E-9,
      -4.720017E-9,
      -4.7835975E-9,
      -4.786531E-9,
      -4.773534E-9,
      4.7811928E-9,
      -4.7693782E-9,
      -4.661504E-9,
      4.781148E-9,
      -4.782554E-9,
      -2.6701334E-9,
      -4.759819E-9,
      -4.781079E-9,
      5.4535487E-11,
      4.780567E-9,
      -4.7845603E-9,
      4.781939E-9,
      1.0772583E-10,
      -4.7747726E-9,
      -4.780301E-9,
      4.770214E-9,
      1.0772583E-10,
      -4.7883675E-9,
      -4.7802797E-9,
      4.783264E-9,
      -4.772891E-9,
      4.7710813E-9,
      -4.781065E-9,
      -4.7830873E-9,
      -6.1978955E-10,
      4.7279327E-9,
      4.780237E-9,
      4.6679154E-9,
      -4.781123E-9,
      4.7835873E-9,
      4.769866E-9,
      -4.783291E-9,
      4.782663E-9,
      -2.0013706E-9,
      -4.7798636E-9,
      -4.7726534E-9,
      -1.8075346E-9,
      4.774091E-9,
      4.7831397E-9,
      4.655182E-9,
      4.7840887E-9,
      4.7799915E-9,
      4.7276094E-9,
      4.7804365E-9,
      -4.779905E-9,
      5.047305E-9,
      -4.7800652E-9,
      -4.7803224E-9,
      -4.7735558E-9,
      -1.7659891E-9,
      2.5660274E-10,
      4.783632E-9,
      -4.772877E-9,
      -5.0529434E-9,
      4.772902E-9,
      -4.713964E-9,
      4.785012E-9,
      -4.769893E-9,
      -4.7201643E-9,
      4.7835056E-9,
      3.9937005E-9,
      5.4535487E-11,
      4.785971E-9,
      4.786035E-9,
      4.7811666E-9,
      4.779832E-9,
      4.782014E-9,
      -4.7680047E-9,
      -4.7820325E-9,
      -4.7665374E-9,
      5.0529434E-9,
      -4.783328E-9,
      4.727432E-9,
      4.7830317E-9,
      -4.771268E-9,
      4.784431E-9,
      4.780165E-9,
      4.771559E-9,
      4.7814606E-9,
      -4.780123E-9,
      5.04841E-9,
      4.769249E-9,
      4.7838715E-9,
      -4.661419E-9,
      -4.7750714E-9,
      -4.661234E-9,
      4.7720468E-9,
      4.6679154E-9,
      4.7842783E-9,
      4.781149E-9,
      4.7713966E-9,
      -4.7277515E-9,
      4.781534E-9,
      4.7814943E-9,
      3.896341E-10,
      4.7802757E-9,
      -5.024253E-9,
      -4.7675486E-9,
      2.0013706E-9,
      4.7726183E-9,
      -4.7824162E-9,
      -4.779789E-9,
      -4.787796E-9,
      -4.781155E-9,
      -4.782143E-9,
      4.7802193E-9,
      -4.772618E-9,
      1.0772583E-10,
      4.7877533E-9,
      5.0473403E-9,
      -4.77049E-9,
      -4.7841042E-9,
      -4.7822915E-9,
      4.7871387E-9,
      4.7826783E-9,
      4.7837756E-9,
      4.7681934E-9,
      -5.0473403E-9,
      4.7678808E-9,
      -4.7821347E-9,
      -4.786915E-9,
      4.775107E-9,
      -4.7795607E-9,
      4.7739155E-9,
      -4.77891E-9,
      -4.7809086E-9,
      4.7838427E-9,
      4.7825965E-9,
      -4.77469E-9,
      -4.782272E-9,
      4.784996E-9,
      -3.5904657E-10,
      4.781743E-9,
      -3.894698E-10,
      -4.7843636E-9,
      4.780103E-9,
      -4.7868505E-9,
      -4.779818E-9,
      -3.997158E-11,
      -4.7816124E-9,
      -4.7822954E-9,
      4.780997E-9,
      -4.7817306E-9,
      -4.7811928E-9,
      4.7795385E-9,
      5.0819815E-9,
      -4.7873305E-9,
      -5.0475073E-9,
      -4.7729305E-9,
      -4.7719215E-9,
      4.7816124E-9,
      4.769536E-9,
      4.7727458E-9,
      4.7793063E-9,
      -4.781136E-9,
      4.781209E-9,
      4.7718762E-9,
      -4.7803446E-9,
      -4.7816524E-9,
      -1.2706893E-9,
      4.7274993E-9,
      1.6312729E-11,
      -4.7836655E-9,
      4.7685957E-9,
      4.7813704E-9,
      4.786229E-9,
      5.4535487E-11,
      4.779273E-9,
      -4.7704702E-9,
      4.774677E-9,
      4.7797073E-9,
      -4.7811928E-9,
      4.7803983E-9,
      -5.410561E-11,
      4.772735E-9,
      -4.781745E-9,
      5.079974E-9,
      4.7843636E-9,
      -2.2369155E-9,
      -4.7700013E-9,
      4.7720423E-9,
      -4.772007E-9,
      4.7800484E-9,
      -4.7830744E-9,
      -4.7795607E-9,
      4.7819437E-9,
      -4.7792303E-9,
      -4.7843636E-9,
      4.7810507E-9,
      4.7802144E-9,
      -4.7807487E-9,
      5.047497E-9,
      -5.044516E-9,
      4.7757536E-9,
      4.7736264E-9,
      -1.8989699E-11,
      -4.7807394E-9,
      -4.759819E-9,
      -4.7827253E-9,
      1.0562262E-10,
      4.767996E-9,
      5.0473403E-9,
      4.7803614E-9,
      -1.0145706E-9,
      4.7824162E-9,
      4.782766E-9,
      -4.7789035E-9,
      -4.783477E-9,
      4.7840474E-9,
      -4.7807376E-9,
      -4.7830993E-9,
      4.780515E-9,
      4.787668E-9,
      4.7274E-9,
      -4.7709765E-9,
      -4.776852E-9,
      -5.047129E-9,
      -4.7798103E-9,
      4.7830895E-9,
      4.7816244E-9,
      3.6410408E-9,
      2.0573885E-9,
      4.6781716E-9,
      -2.448152E-9,
      -1.613123E-10,
      2.3891475E-9,
      -5.320567E-9,
      5.915031E-9,
      -5.3337423E-9,
      3.6567045E-9,
      -2.2556357E-10,
      -3.0466194E-9,
      -2.5586386E-9,
      1.5853066E-9,
      -5.41335E-9,
      -6.811618E-10,
      4.2947734E-10,
      -2.6429103E-9,
      -3.2263716E-9,
      -1.9864812E-9,
      3.405869E-9,
      5.3989404E-9,
      5.244165E-9,
      -3.8413317E-9,
      -3.2437448E-9,
      2.5806024E-12,
      5.184734E-9,
      -4.7363717E-9,
      -3.5420964E-9,
      -6.5571504E-10,
      1.4203785E-9,
      -5.620197E-9,
      3.8648147E-9,
      -4.6583604E-9,
      -5.3000715E-11,
      2.5069098E-9,
      -1.7667587E-9,
      -4.570977E-9,
      4.499054E-9,
      -3.434408E-9,
      -4.398976E-9,
      -4.978297E-9,
      5.302043E-9,
      6.8570927E-10,
      3.737079E-9,
      -4.192918E-9,
      -5.422749E-9,
      2.3038393E-9,
      -8.801937E-11,
      -3.042759E-9,
      -5.9758007E-9,
      -4.4809143E-9,
      -4.3836232E-9,
      2.6325526E-9,
      5.2973905E-9,
      1.7477042E-10,
      -6.8544237E-10,
      -3.237105E-9,
      -2.202361E-9,
      2.424673E-9,
      -2.4188407E-9,
      -1.7756636E-9,
      2.103298E-9,
      -1.3988526E-9,
      8.5688523E-10,
      -2.6830982E-9,
      -3.5923087E-10,
      -2.052758E-10,
      1.3869839E-10,
      2.3427997E-9,
      5.0016262E-9,
      -4.41202E-9,
      3.0333513E-9,
      2.4944824E-9,
      5.9982237E-9,
      -4.218373E-9,
      -2.6616664E-10,
      1.7078108E-9,
      -3.1751264E-9,
      -5.760832E-9,
      2.0306463E-9,
      5.5594596E-10,
      4.7526205E-10,
      -2.2994666E-9,
      9.416579E-10,
      -3.878755E-10,
      3.3149483E-9,
      -4.003959E-9,
      4.275799E-9,
      9.509504E-10,
      7.367156E-10,
      3.0645935E-9,
      1.2587016E-9,
      -2.2720328E-9,
      4.833392E-9,
      3.6194265E-9,
      -5.077944E-9,
      1.7886035E-9,
      -1.3468493E-9,
      1.4999846E-9,
      -2.7399403E-9,
      -1.9864688E-10,
      1.3507124E-9,
      2.51495E-9,
      -1.640633E-9,
      -5.208154E-9,
      2.0428512E-9,
      4.0673616E-9,
      3.8159196E-9,
      4.886665E-9,
      -3.57048E-9,
      -3.684597E-9,
      -4.9029847E-9,
      2.850118E-9,
      3.7485823E-9,
      -3.043771E-9,
      4.9628195E-9,
      4.6829345E-9,
      -6.674967E-10,
      4.943667E-9,
      -4.834844E-9,
      -4.3265973E-9,
      3.088732E-9,
      2.8056428E-9,
      2.8239442E-9,
      -4.8185407E-9,
      1.3169821E-10,
      -4.741083E-9,
      -1.9775253E-9,
      4.9273297E-9,
      5.0752655E-9,
      -1.0838033E-9,
      -3.952726E-9,
      3.1158995E-9,
      -4.3641712E-9,
      4.4767523E-9,
      7.0658546E-10,
      -5.7195866E-9,
      -2.7118658E-9,
      1.1926469E-9,
      -3.468645E-9,
      -1.9857653E-9,
      -5.42058E-9,
      1.6935342E-11,
      2.8741416E-9,
      -4.2381685E-9,
      1.6706978E-9,
      5.831299E-9,
      2.0566104E-9,
      5.439892E-9,
      1.112754E-8,
      -3.1525325E-9,
      4.9394084E-9,
      5.94172E-9,
      -4.2583594E-9,
      -2.10788E-9,
      -1.1597998E-9,
      4.4542987E-9,
      -8.515952E-8,
      1.2232215E-9,
      4.7127147E-9,
      3.966668E-7,
      -4.9438644E-9,
      -2.6816903E-7,
      5.558684E-9,
      -1.4202084E-9,
      -5.701097E-9,
      -1.1703492E-9,
      -1.0174679E-9,
      1.5019062E-9,
      -4.7016036E-9,
      2.2655149E-9,
      6.3058225E-10,
      4.535959E-9,
      4.638396E-9,
      1.1645892E-7,
      -1.1725794E-9,
      2.3084308E-9,
      3.1080472E-10,
      -5.0445963E-9,
      -5.4453375E-10,
      -4.9159867E-9,
      5.1429E-9,
      -3.845944E-9,
      -2.7484504E-10,
      -2.5000048E-8,
      2.2923027E-7,
      -1.2247472E-8,
      -4.9066195E-8,
      1.8997546E-9,
      -1.9719248E-9,
      -3.3304342E-9,
      4.7619636E-8,
      -4.067457E-9,
      -3.730515E-8,
      2.7986014E-9,
      2.6655926E-9,
      2.0858053E-8,
      7.6934676E-8,
      5.2010587E-9,
      2.409546E-8,
      1.1660717E-9,
      1.5700228E-9,
      -5.076218E-9,
      -1.7126678E-9,
      8.004948E-10,
      3.245399E-9,
      2.9323965E-9,
      6.768586E-11,
      1.9109212E-9,
      -3.0315288E-9,
      9.528916E-8,
      4.0436947E-9,
      -1.9817742E-8,
      -5.562577E-9,
      2.4172708E-10,
      -5.60963E-9,
      2.2424986E-8,
      3.678947E-9,
      -1.7077717E-8,
      -4.6268065E-9,
      4.706663E-9,
      8.844754E-9,
      3.2643808E-8,
      5.1783355E-9,
      -3.080662E-6,
      2.1176023E-9,
      -5.491032E-9,
      7.0515824E-8,
      1.9604012E-9,
      4.736077E-9,
      5.675344E-9,
      -4.6882498E-11,
      -3.1056322E-9,
      1.25872E-6,
      -8.2195095E-10,
      1.2891213E-9,
      -1.3380901E-9,
      -3.5890553E-9,
      -4.8722257E-9,
      2.6628277E-9,
      -5.5395057E-9,
      5.063501E-10,
      6.005497E-9,
      1.435918E-10,
      -9.635603E-10,
      4.7667217E-9,
      9.2067953E-10,
      -2.4763844E-9,
      4.523173E-10,
      1.2335875E-9,
      5.8206364E-9,
      -1.9256015E-9,
      -5.695283E-9,
      4.5636415E-9,
      -2.9775737E-10,
      -3.0466678E-9,
      -1.1545858E-9,
      -5.723001E-9,
      -3.1423317E-9,
      2.6098128E-9,
      4.414526E-9,
      -1.7548341E-9,
      -2.2792437E-7,
      -2.004886E-9,
      4.6789648E-9,
      3.7235282E-10,
      6.7569765E-8,
      -1.875978E-9,
      2.8844571E-9,
      2.6071278E-9,
      -1.8994575E-9,
      -1.0280594E-9,
      1.11931314E-7,
      -3.8463854E-10,
      1.2492567E-9,
      3.7813983E-9,
      -2.1408786E-9,
      3.4442555E-9,
      -6.5346883E-10,
      6.916565E-10,
      -2.1752231E-9,
      -3.5604386E-9,
      2.8676301E-9,
      2.3280053E-9,
      3.3483842E-9,
      -4.084127E-9,
      -3.4404195E-9,
      4.1454928E-10,
      5.9786385E-9,
      4.4765294E-9,
      2.9184082E-9,
      1.3469967E-9,
      5.293425E-9,
      -4.2185366E-10,
      3.630968E-9,
      -1.10199405E-10,
      -5.0574975E-9,
      4.371382E-9,
      4.6973887E-9,
      -5.3980473E-9,
      5.930261E-9,
      4.9203086E-10,
      -5.9681824E-9,
      1.709497E-9,
      -1.942226E-9,
      -2.2684077E-12,
      -8.93579E-10,
      -5.206936E-9,
      -3.564625E-9,
      -1.9247812E-9,
      -2.4337892E-9,
      2.5912428E-9,
      -7.7200113E-10,
      -5.5991496E-9,
      5.285079E-9,
      -2.4679783E-9,
      2.7900593E-9,
      2.4458302E-10,
      -3.6481258E-9,
      -9.952039E-12,
      3.3297853E-10,
      -5.332703E-10,
      -5.288754E-9,
      4.2911594E-9,
      -1.3938406E-10,
      2.1295374E-9,
      3.892213E-9,
      -3.878849E-9,
      4.7996926E-9,
      -4.3138173E-9,
      -5.2702793E-9,
      2.2217161E-10,
      -5.305314E-9,
      -2.272638E-9,
      -4.729761E-9,
      -4.5516777E-9,
      -5.0537556E-9,
      2.4011908E-9,
      -2.93916E-10,
      4.3492836E-9,
      -5.625802E-7,
      -4.838221E-9,
      3.0933487E-9,
      4.664526E-9,
      3.0439877E-9,
      -7.4819084E-10,
      -1.1790391E-9,
      1.1075199E-9,
      2.5363798E-9,
      -3.0800487E-9,
      -3.404422E-9,
      1.2715966E-9,
      -5.6245932E-9,
      3.4792382E-9,
      -4.7757167E-9,
      3.6779544E-9,
      -5.1926077E-9,
      -1.271665E-9,
      5.788876E-10,
      4.671065E-9,
      4.9096025E-9,
      5.420259E-9,
      -7.9422247E-10,
      2.952838E-10,
      1.3144925E-9,
      1.8054669E-10,
      4.945724E-10,
      -3.4377483E-9,
      -1.1823964E-10,
      -5.7460183E-9,
      -2.4064053E-9,
      -8.630785E-10,
      -2.2765523E-10,
      -6.0183827E-9,
      5.6248983E-9,
      2.8461469E-9,
      1.124151E-9,
      -4.1653108E-9,
      8.5998764E-11,
      -5.875476E-9,
      -4.5176618E-10,
      -3.244684E-9,
      5.4638245E-9,
      -4.4774504E-9,
      5.4685714E-9,
      -2.064135E-9,
      -1.2686256E-9,
      -2.8280573E-9,
      -1.3126118E-9,
      5.730158E-9,
      5.750364E-9,
      -5.887696E-9,
      -3.843324E-9,
      -9.141403E-10,
      -3.150213E-9,
      1.725442E-10,
      4.670274E-9,
      -4.9358495E-9,
      -3.0217464E-9,
      -4.492621E-9,
      1.9953146E-9,
      8.382699E-10,
      -3.783223E-9,
      2.7479397E-9,
      -3.7761527E-9,
      5.450336E-9,
      -2.1100477E-9,
      -4.79066E-9,
      5.90293E-9,
      -8.4454044E-10,
      -2.930752E-9,
      2.719239E-9,
      -2.4253541E-9,
      3.6521586E-9,
      -4.2672035E-9,
      4.1386747E-9,
      -4.345911E-9,
      2.6342946E-9,
      -5.173004E-9,
      2.134235E-10,
      -1.9617783E-9,
      1.97153E-9,
      -4.108508E-9,
      -1.2685355E-9,
      -8.3604457E-10,
      -5.734371E-9,
      -1.8033437E-9,
      5.5520695E-9,
      9.938614E-10,
      -3.1484069E-9,
      -1.24786E-9,
      3.5041405E-9,
      3.804181E-9,
      -9.713537E-10,
      -3.2489753E-9,
      7.9518037E-10,
      -2.6069387E-9,
      -4.3315014E-9,
      -3.3603027E-9,
      -3.2018836E-9,
      -3.8636228E-9,
      -5.765708E-9,
      4.9222848E-11,
      3.4617615E-9,
      -5.4558136E-10,
      3.0447969E-9,
      9.2485886E-10,
      -2.6129947E-9,
      -9.766987E-10,
      -4.7199284E-9,
      -1.0772583E-10,
      4.782942E-9,
      4.768053E-9,
      -4.7718007E-9,
      4.78113E-9,
      -2.3218893E-9,
      -4.773207E-9,
      4.7815902E-9,
      4.7844027E-9,
      4.775429E-9,
      -4.7708824E-9,
      4.774034E-9,
      4.787302E-9,
      -4.780802E-9,
      4.769054E-9,
      4.767995E-9,
      -4.7784177E-9,
      4.7645927E-9,
      4.779796E-9,
      -4.7828097E-9,
      4.7811928E-9,
      -4.771744E-9,
      4.782292E-9,
      4.7818114E-9,
      5.0475113E-9,
      4.787302E-9,
      4.787771E-9,
      4.7838786E-9,
      4.7877107E-9,
      -4.784103E-9,
      4.772026E-9,
      4.7815014E-9,
      4.7714392E-9,
      4.779305E-9,
      -5.0473403E-9,
      -4.780633E-9,
      4.7757007E-9,
      -5.0473403E-9,
      4.7746767E-9,
      -2.6442226E-10,
      4.782043E-9,
      -4.7817803E-9,
      -4.4342583E-9,
      4.7843396E-9,
      -4.7813065E-9,
      -4.787796E-9,
      -4.7676427E-9,
      -2.3203262E-9,
      -4.787668E-9,
      4.7836872E-9,
      -4.770118E-9,
      -4.7848503E-9,
      -4.7693796E-9,
      -4.7668394E-9,
      4.774565E-9,
      -4.7804014E-9,
      4.7805275E-9,
      -4.7836513E-9,
      4.781086E-9,
      -4.7835838E-9,
      -4.781539E-9,
      -4.7811666E-9,
      4.7821347E-9,
      5.4535487E-11,
      4.783678E-9,
      4.7793063E-9,
      4.7753392E-9,
      5.0475113E-9,
      -4.7722555E-9,
      -4.7816124E-9,
      -4.7819544E-9,
      4.775603E-9,
      -4.7828315E-9,
      -4.7866484E-9,
      -4.780169E-9,
      -4.7826356E-9,
      4.780287E-9,
      -4.7812354E-9,
      4.787288E-9,
      -4.7866373E-9,
      -4.782287E-9,
      -4.769935E-9,
      4.781624E-9,
      4.7813242E-9,
      4.778891E-9,
      -4.775731E-9,
      -4.777132E-9,
      -4.7695785E-9,
      4.781948E-9,
      -4.779902E-9,
      -4.773385E-9,
      4.6613904E-9,
      -5.0475286E-9,
      1.0619816E-9,
      4.786017E-9,
      -4.787025E-9,
      -4.772914E-9,
      4.777089E-9,
      -4.591909E-10,
      4.774799E-9,
      -1.3024151E-9,
      -4.3145034E-9,
      4.7804725E-9,
      4.7694506E-9,
      4.781733E-9,
      -2.4026674E-9,
      -4.7720468E-9,
      4.759819E-9,
      -4.780262E-9,
      4.7873554E-9,
      -2.5362672E-9,
      -4.781354E-9,
      4.773406E-9,
      -4.7275432E-9,
      4.782028E-9,
      -4.7824162E-9,
      -4.7732356E-9,
      4.0045327E-9,
      4.7800164E-9,
      -4.7201643E-9,
      -4.787668E-9,
      -4.779764E-9,
      4.773335E-9,
      -5.0475113E-9,
      5.0422244E-9,
      3.7261216E-10,
      -4.7723834E-9,
      1.8989699E-11,
      4.786954E-9,
      -4.7712225E-9,
      4.782253E-9,
      4.773477E-9,
      -4.772877E-9,
      -2.2351285E-9,
      -3.893721E-10,
      5.0372475E-9,
      -4.7824162E-9,
      -4.784349E-9,
      5.0529434E-9,
      -4.7285793E-9,
      5.4526605E-11,
      4.7820397E-9,
      -4.778432E-9,
      4.7719615E-9,
      4.767843E-9,
      -4.7824553E-9,
      1.4047075E-10,
      4.7800652E-9,
      -4.7808943E-9,
      2.147905E-9,
      2.1085294E-9,
      -4.093804E-9,
      2.2072713E-9,
      -3.1037195E-9,
      6.3988814E-12,
      4.306215E-9,
      4.5003374E-9,
      -5.905327E-9,
      -3.479498E-9,
      2.1187199E-9,
      4.9716515E-9,
      -3.3026244E-9,
      -4.3692205E-9,
      1.1054682E-9,
      -2.4248843E-9,
      5.83138E-11,
      -1.285315E-9,
      3.7149324E-9,
      3.653354E-9,
      -1.7790911E-9,
      -4.646134E-9,
      -2.0904332E-9,
      1.2863266E-9,
      -2.4770186E-10,
      -2.07501E-9,
      3.5758667E-9,
      -1.1045E-9,
      2.7979643E-9,
      1.7006783E-9,
      1.2565207E-9,
      3.5278247E-9,
      6.077389E-9,
      1.2295853E-9,
      -4.7637596E-9,
      -1.5387465E-9,
      -3.8830938E-10,
      -3.7767833E-9,
      1.3006036E-9,
      -2.5528073E-9,
      -2.065427E-9,
      -1.5138264E-9,
      -1.015021E-9,
      -2.5595264E-9,
      -2.2040925E-9,
      -4.010075E-9,
      3.3319938E-9,
      -1.314409E-9,
      -1.5155921E-10,
      4.6423065E-9,
      -3.8015564E-9,
      8.676242E-10,
      4.730857E-9,
      5.790648E-10,
      5.3257714E-9,
      4.6587667E-10,
      2.457335E-9,
      2.35534E-9,
      -4.924643E-10,
      1.8777624E-9,
      -1.865116E-9,
      -3.6661763E-9,
      -4.0148183E-9,
      -5.2809095E-9,
      -1.731153E-9,
      -3.356424E-9,
      -1.9619462E-9,
      1.0234533E-9,
      -3.354461E-9,
      1.1629853E-9,
      -5.698066E-9,
      -1.0376779E-9,
      -1.5446227E-9,
      3.5215475E-9,
      3.078818E-9,
      4.6107713E-9,
      2.0003479E-9,
      2.709946E-9,
      -5.134857E-10,
      -2.1715048E-9,
      3.2875258E-9,
      -3.6787684E-10,
      3.1041876E-9,
      3.546575E-9,
      4.5928235E-9,
      -1.200684E-11,
      -4.951746E-9,
      7.3976336E-10,
      -5.2802203E-9,
      -2.0860247E-10,
      -6.0795133E-9,
      -5.5775518E-9,
      5.2790514E-9,
      -4.0351735E-9,
      -5.8669976E-9,
      -5.023647E-9,
      -1.8392905E-9,
      -1.597515E-9,
      1.6834427E-9,
      -4.309773E-9,
      -3.1593785E-9,
      2.058039E-9,
      7.6134254E-10,
      -4.05989E-9,
      4.400398E-9,
      2.3812716E-9,
      -1.9104673E-10,
      5.3817026E-9,
      1.5451236E-9,
      5.7456484E-10,
      -5.773617E-10,
      1.6642026E-9,
      -2.8207303E-9,
      -4.475021E-9,
      -1.0181975E-9,
      3.6218464E-9,
      -4.1448516E-9,
      5.9292113E-9,
      -2.9236427E-9,
      3.065006E-9,
      2.4423934E-9,
      -3.5988634E-10,
      -5.644299E-9,
      9.153984E-10,
      7.19774E-10,
      -3.1887653E-9,
      -5.7286376E-9,
      5.213198E-9,
      5.145701E-9,
      -5.0438027E-9,
      1.289977E-10,
      1.2129959E-9,
      2.464794E-9,
      2.7400961E-9,
      -4.7897397E-9,
      5.6973226E-9,
      -2.980564E-9,
      2.7169378E-12,
      -3.3729477E-9,
      -2.312639E-11,
      2.2427264E-9,
      7.680274E-10,
      -2.6710172E-9,
      1.4085035E-9,
      -3.3404113E-9,
      5.0310254E-9,
      2.7263631E-9,
      -2.9901779E-9,
      2.8471399E-9,
      2.9883385E-10,
      -5.4702824E-9,
      8.9454E-10,
      -3.9179E-9,
      -2.6191835E-9,
      2.525127E-9,
      1.7316069E-9,
      -3.3506664E-10,
      4.975882E-10,
      1.5688864E-9,
      3.1391876E-9,
      1.2671189E-9,
      1.7888819E-9,
      2.321463E-9,
      9.2484154E-10,
      4.4196957E-9,
      -5.331971E-9,
      -1.0064014E-8,
      3.6912522E-9,
      -3.8746237E-9,
      2.2312747E-9,
      -6.569909E-10,
      2.9807963E-9,
      4.9960502E-9,
      -5.120379E-9,
      4.9197917E-9,
      4.518565E-7,
      4.283586E-9,
      4.3147796E-10,
      8.679204E-10,
      3.254843E-9,
      -9.003194E-10,
      -2.4011872E-9,
      -5.1897024E-9,
      -3.8871093E-9,
      2.1458222E-9,
      -2.1085445E-10,
      -3.4465053E-10,
      -3.5000025E-9,
      -1.4349544E-10,
      -4.9054556E-9,
      -1.3327073E-10,
      3.1876142E-9,
      2.9714453E-11,
      1.2381562E-10,
      -4.259446E-9,
      4.9489257E-9,
      5.63466E-9,
      1.7033659E-9,
      -7.1598505E-10,
      1.2490387E-9,
      -1.5378856E-8,
      -8.7810603E-10,
      -5.870349E-9,
      2.3404536E-9,
      3.5193222E-9,
      -1.0639796E-9,
      -3.7152543E-9,
      3.6632528E-9,
      -4.660029E-9,
      3.1423926E-9,
      4.8486988E-9,
      2.5415363E-7,
      3.5608916E-9,
      -8.256596E-8,
      5.531214E-9,
      -5.5994787E-9,
      -9.0731916E-8,
      8.820158E-10,
      1.5215185E-9,
      4.2043653E-9,
      3.6241992E-9,
      -3.4588554E-10,
      -4.541319E-9,
      -2.1089877E-9,
      6.627703E-10,
      -1.1704826E-8,
      2.606333E-10,
      -1.9219373E-9,
      2.711411E-9,
      -4.986987E-9,
      -3.8130055E-9,
      -5.8154574E-9,
      3.524625E-10,
      -1.7839258E-7,
      -4.065144E-9,
      5.681836E-9,
      1.5555751E-6,
      -4.5649293E-9,
      -2.563179E-7,
      1.0736332E-7,
      9.806929E-10,
      -2.1924711E-6,
      -7.826825E-7,
      8.3891827E-10,
      -4.0147756E-9,
      2.8903058E-10,
      7.1148865E-11,
      -6.6978004E-8,
      2.2428868E-9,
      5.920684E-9,
      3.6821525E-8,
      -2.584264E-9,
      3.6679815E-10,
      3.8036774E-10,
      -5.7323604E-9,
      -6.9521164E-8,
      -3.5992986E-9,
      -1.1607071E-10,
      1.6001138E-9,
      -3.6776546E-9,
      -3.3870102E-9,
      1.2980456E-6,
      -1.4242962E-9,
      -2.2088017E-7,
      1.13726784E-7,
      2.8540987E-9,
      -2.321046E-7,
      -8.137184E-7,
      -1.2282704E-9,
      -7.58191E-9,
      3.6969006E-10,
      -1.8534134E-9,
      5.5505E-9,
      3.946655E-8,
      -4.0212633E-9,
      1.1269662E-7,
      2.4776292E-9,
      4.9530824E-9,
      -5.818346E-10,
      2.583378E-9,
      -1.9793923E-7,
      8.788228E-10,
      5.506168E-9,
      -2.3996778E-8,
      3.96162E-9,
      -2.8975364E-8,
      4.6393419E-7,
      1.3644059E-7,
      -2.0337879E-7,
      1.1162036E-7,
      2.3147915E-9,
      -0.095627174,
      -3.352723E-7,
      -2.7189335E-9,
      -3.6670002E-8,
      5.8709052E-8,
      5.4047284E-8,
      2.0535149E-8,
      9.000816E-8,
      -4.6427497E-9,
      -0.0041332217,
      1.2030936E-9,
      -2.7301885E-9,
      1.466453E-6,
      -1.3081047E-9,
      3.4869745E-7,
      6.843539E-10,
      -2.2091946E-9,
      -4.9738037E-7,
      6.0963106E-7,
      3.5043684E-7,
      9.480253E-8,
      4.496851E-8,
      -5.8453026E-8,
      -2.92857E-7,
      -9.693908E-10,
      -0.030328788,
      3.1028964E-8,
      6.9241435E-7,
      1.4954183E-7,
      7.395133E-9,
      -1.1204211E-9,
      -2.3030464E-7,
      1.5117881E-6,
      -5.1269966E-9,
      -0.030583724,
      -2.8739512E-7,
      -4.4253983E-9,
      0.03033971,
      2.348342E-9,
      2.6621126E-6,
      2.8154399E-9,
      4.8558073E-9,
      -4.3835504E-7,
      4.941215E-6,
      1.6631914E-6,
      4.1107358E-9,
      -1.9406308E-9,
      -1.260176E-7,
      -1.380055E-8,
      -1.6658008E-10,
      -0.0065700337,
      1.4143109E-7,
      9.941135E-7,
      1.2950198E-6,
      -3.1114706E-9,
      -1.0024923E-9,
      -1.0167945E-6,
      1.6345923E-6,
      3.3648902E-7,
      -3.3496913E-6,
      -9.645287E-7,
      -7.825581E-8,
      4.680156E-6,
      -4.9189883E-9,
      2.034935E-6,
      -4.711525E-9,
      2.5694247E-10,
      3.5632417E-9,
      3.454139E-6,
      2.8822456E-7,
      3.6503582E-7,
      -5.536329E-9,
      -5.307419E-7,
      1.3913155E-9,
      1.7920976E-9,
      -6.526922E-7,
      -5.115157E-10,
      -6.6089303E-9,
      1.2006616E-6,
      2.0595339E-9,
      7.746559E-11,
      -5.7901337E-9,
      4.769953E-7,
      -3.9574046E-9,
      -1.8228069E-6,
      -2.7622798E-7,
      4.824999E-9,
      1.1425071E-6,
      -2.14611E-10,
      -2.6846552E-8,
      -2.5895994E-9,
      4.1000585E-9,
      1.1226473E-9,
      5.571645E-9,
      -1.6771189E-8,
      1.578773E-8,
      -2.837166E-10,
      -2.3847637E-8,
      1.2914225E-9,
      4.4232227E-9,
      1.5181012E-10,
      5.089706E-9,
      1.518563E-11,
      -3.8333545E-9,
      6.2392935E-10,
      2.616435E-9,
      6.1152265E-9,
      3.6134844E-7,
      -2.3728548E-9,
      -0.037428237,
      4.0746113E-9,
      -2.905249E-9,
      0.049344115,
      5.4002225E-9,
      2.8623596E-8,
      3.361182E-9,
      1.816614E-9,
      -3.2031E-10,
      -1.880751E-9,
      2.376332E-9,
      -8.827326E-9,
      -1.5315461E-8,
      1.6914656E-9,
      -9.2824237E-10,
      -5.4622347E-9,
      -1.2504805E-6,
      -4.9202225E-9,
      2.290938E-9,
      -3.338723E-9,
      4.9074953E-9,
      2.8742129E-9,
      -1.3066302E-8,
      4.4702819E-7,
      3.7546815E-9,
      -0.024334846,
      -2.7471176E-9,
      5.3111067E-9,
      0.024981927,
      5.5511165E-9,
      2.449605E-8,
      -5.0225712E-9,
      -6.4206507E-10,
      -1.9265567E-9,
      1.9235915E-9,
      -4.803139E-9,
      -5.5599405E-9,
      -9.027293E-9,
      -1.3337087E-9,
      -1.5353123E-9,
      -1.522019E-9,
      -0.0068316334,
      -7.0088486E-9,
      -3.1988403E-9,
      -1.4895196E-10,
      1.1846821E-9,
      6.6773964E-10,
      -1.6610041E-8,
      -9.583863E-9,
      2.833627E-9,
      -8.733086E-7,
      4.1371546E-9,
      6.071196E-9,
      2.1584745E-7,
      7.601648E-10,
      -2.7758684E-10,
      -5.407941E-10,
      -4.2877426E-9,
      2.7130773E-9,
      2.7303255E-9,
      3.0298057E-9,
      -5.215486E-10,
      3.3788576E-9,
      -3.041782E-9,
      4.0377492E-9,
      4.1329113E-9,
      -3.77411E-9,
      4.7071094E-9,
      1.8602138E-9,
      -2.1334658E-9,
      -2.8706753E-9,
      -1.6324146E-9,
      -1.5508254E-8,
      -2.000856E-9,
      2.7887994E-9,
      2.697218E-9,
      -1.2759602E-9,
      -3.494379E-9,
      -8.361214E-10,
      2.6594238E-10,
      -4.6523443E-9,
      -3.4240353E-9,
      4.5002677E-9,
      -1.507805E-9,
      1.501832E-9,
      2.057039E-10,
      8.940284E-10,
      8.3354346E-10,
      6.7593664E-10,
      3.6008867E-9,
      3.1037564E-9,
      -7.3122086E-10,
      -2.7518432E-11,
      -7.2473183E-10,
      -4.071304E-9,
      -4.186678E-9,
      -3.9863037E-9,
      -4.0894226E-9,
      1.1957755E-9,
      -2.9353489E-9,
      -2.5965519E-9,
      -1.0999144E-9,
      4.7380326E-9,
      -3.252187E-9,
      -5.416867E-9,
      -5.8827068E-9,
      -2.9313334E-9,
      1.9229156E-9,
      1.0283823E-9,
      -7.196932E-10,
      -4.8360658E-9,
      3.7244092E-9,
      5.9256475E-9,
      -3.2401304E-9,
      4.7407993E-9,
      2.3810967E-9,
      1.3298358E-9,
      5.894827E-9,
      -4.0063197E-10,
      7.4325435E-11,
      2.1078854E-9,
      4.1634154E-9,
      4.9553788E-9,
      5.6458695E-9,
      4.4218655E-9,
      3.805997E-9,
      -2.7361022E-9,
      -4.3319126E-11,
      -3.0651695E-9,
      -1.4027277E-9,
      -2.7928904E-10,
      5.01246E-9,
      -6.031107E-9,
      -7.783423E-10,
      -3.8868242E-10,
      5.607603E-9,
      5.3249445E-9,
      1.8411508E-9,
      4.4746864E-9,
      -1.574465E-9,
      -2.5407227E-9,
      5.364667E-9,
      1.9906814E-9,
      -5.8386145E-9,
      -2.012579E-9,
      4.1678083E-10,
      -1.369802E-10,
      8.746035E-10,
      4.41426E-9,
      3.7637813E-9,
      3.5000416E-9,
      5.9444263E-9,
      1.7927513E-9,
      2.4795042E-9,
      2.8153488E-9,
      3.2753849E-9,
      -1.4449046E-9,
      -4.1504684E-9,
      5.3722955E-9,
      1.683484E-9,
      8.8235685E-10,
      -6.068479E-12,
      -3.2667402E-9,
      4.6019024E-9,
      -5.288158E-9,
      4.062726E-9,
      -3.9615378E-9,
      2.5616034E-9,
      1.3534205E-9,
      -5.255387E-9,
      -3.0515026E-9,
      1.2281509E-10,
      8.581238E-10,
      -2.0569142E-9,
      4.284568E-9,
      -4.0563846E-9,
      2.0858755E-9,
      -4.3217154E-9,
      -5.9055054E-9,
      -7.681944E-10,
      -1.7518738E-9,
      3.1064058E-9,
      -2.7914124E-9,
      2.8140112E-9,
      -4.070918E-9,
      4.474614E-9,
      3.1696046E-9,
      1.1727859E-9,
      -5.8057243E-9,
      1.8470798E-9,
      3.7470707E-9,
      1.2273729E-9,
      1.4905464E-9,
      3.3823921E-10,
      5.4676623E-9,
      4.64238E-9,
      -3.0951863E-10,
      5.527996E-10,
      1.792722E-9,
      -3.608962E-9,
      4.7720468E-9,
      -4.783684E-9,
      -3.8934012E-10,
      -4.7832156E-9,
      4.7812057E-9,
      4.788132E-9,
      4.7820397E-9,
      4.7806483E-9,
      -5.4535487E-11,
      4.770118E-9,
      -4.787668E-9,
      4.7750035E-9,
      4.781548E-9,
      -5.027976E-9,
      4.185604E-9,
      -4.78161E-9,
      4.770742E-9,
      -4.781804E-9,
      -4.775091E-9,
      5.0475113E-9,
      -4.7715236E-9,
      -4.782552E-9,
      4.7873696E-9,
      -4.6614046E-9,
      -4.764983E-9,
      4.7277053E-9,
      -4.7806843E-9,
      -4.781491E-9,
      5.0476636E-9,
      4.780668E-9,
      -4.7825193E-9,
      3.8942538E-10,
      4.7797535E-9,
      -4.767877E-9,
      2.321232E-9,
      4.7802797E-9,
      -4.7702566E-9,
      4.7800652E-9,
      -4.3136508E-9,
      -4.770861E-9,
      -4.781535E-9,
      4.7839874E-9,
      -4.768085E-9,
      -4.776955E-9,
      -4.783808E-9,
      -5.0475824E-9,
      4.7697206E-9,
      -4.7789355E-9,
      4.7811928E-9,
      -3.3964147E-9,
      4.7875277E-9,
      -4.759819E-9,
      5.0475966E-9,
      4.7720468E-9,
      -4.771822E-9,
      -4.7757007E-9,
      4.782942E-9,
      3.726086E-10,
      4.7843494E-9,
      4.7831143E-9,
      4.780319E-9,
      -4.780668E-9,
      4.7824864E-9,
      -4.771744E-9,
      4.781886E-9,
      -4.7278603E-9,
      -4.7831503E-9,
      -5.0475113E-9,
      -5.047497E-9,
      -4.7273714E-9,
      -2.3203262E-9,
      4.7825797E-9,
      -4.727471E-9,
      4.7732853E-9,
      -4.783573E-9,
      4.7826E-9,
      -4.720017E-9,
      -4.7838715E-9,
      4.3128123E-9,
      -4.780189E-9,
      -4.780668E-9,
      8.237331E-10,
      -5.0471307E-9,
      -4.770243E-9,
      3.8953285E-10,
      -4.7848983E-9,
      4.773534E-9,
      4.7277102E-9,
      -5.047063E-9,
      4.783704E-9,
      4.7720565E-9,
      -4.781619E-9,
      -4.7829207E-9,
      6.8640116E-10,
      4.7757007E-9,
      -4.783347E-9,
      -4.7817306E-9,
      -4.775796E-9,
      4.7825166E-9,
      4.770118E-9,
      -4.2717447E-9,
      -2.3286795E-10,
      -2.5376679E-9,
      -5.1665783E-11,
      3.4694554E-9,
      -2.612662E-9,
      4.4890642E-9,
      2.6573286E-9,
      -8.423231E-10,
      -3.756954E-9,
      -1.5386017E-9,
      -3.9628345E-10,
      -2.3174618E-10,
      -5.2123323E-9,
      2.6926332E-9,
      -7.0975625E-10,
      -5.461729E-10,
      -3.649005E-9,
      4.1268144E-10,
      5.7014433E-9,
      -3.833397E-9,
      -1.4332735E-9,
      3.7869352E-10,
      -1.1755543E-9,
      2.3110767E-9,
      -2.9121634E-9,
      -4.56483E-9,
      -4.9482356E-9,
      -5.211724E-9,
      5.4847105E-10,
      -2.3744922E-9,
      -5.7143854E-9,
      3.3762637E-10,
      3.648661E-9,
      -1.9844664E-9,
      5.313597E-9,
      2.253242E-10,
      -4.567854E-9,
      -2.348992E-10,
      -8.583756E-10,
      4.959997E-9,
      3.3781848E-9,
      -5.906009E-9,
      9.0570174E-10,
      -4.0889896E-9,
      2.0820656E-9,
      8.4951557E-10,
      1.9388966E-9,
      7.6060447E-10,
      -2.9035285E-9,
      -2.5178868E-9,
      -2.551503E-9,
      -1.2228507E-9,
      3.897575E-9,
      -3.96126E-9,
      2.8172353E-9,
      -5.259637E-9,
      -1.8431101E-9,
      -2.9789042E-9,
      1.0266352E-9,
      2.5056237E-9,
      4.874738E-9,
      1.3268853E-9,
      -4.509985E-9,
      -1.9752688E-10,
      3.9565813E-9,
      2.5821172E-9,
      -2.9985752E-9,
      5.495783E-9,
      9.253869E-10,
      -3.56017E-9,
      -2.3979267E-9,
      3.1851455E-9,
      5.7042597E-9,
      -1.5798021E-9,
      -5.0288147E-9,
      -4.638715E-9,
      6.486194E-10,
      2.4848408E-9,
      5.062231E-9,
      8.7249363E-10,
      1.60408E-9,
      3.5978944E-9,
      -5.959317E-9,
      5.4832414E-9,
      3.9801273E-10,
      -5.3550653E-9,
      5.107013E-9,
      -5.4583325E-9,
      -1.92281E-9,
      -2.9941258E-9,
      -8.5537843E-10,
      4.6306927E-9,
      3.1118594E-9,
      2.248921E-10,
      2.3081084E-9,
      2.0275701E-9,
      3.6055203E-10,
      -4.549786E-9,
      1.2250227E-9,
      4.569699E-9,
      -3.0944616E-9,
      -2.635367E-9,
      -3.7106407E-10,
      2.4050872E-9,
      -2.7298488E-9,
      3.50071E-9,
      -2.7207818E-9,
      -1.3513657E-9,
      6.0676175E-10,
      5.48352E-9,
      6.902283E-10,
      4.291597E-9,
      -2.0217832E-9,
      -2.3760287E-9,
      5.261507E-10,
      -6.4185324E-10,
      -8.985328E-10,
      5.9939054E-9,
      2.2886137E-10,
      -3.0557912E-9,
      -4.4076987E-9,
      -2.5103075E-9,
      -4.4635518E-9,
      -1.7740516E-9,
      -1.4690906E-9,
      7.725407E-10,
      -5.7572036E-9,
      -5.703804E-9,
      -2.1217739E-9,
      4.7222417E-9,
      4.952164E-9,
      1.8751227E-9,
      -5.5562204E-9,
      -3.0375453E-9,
      2.5777969E-9,
      -1.2684729E-9,
      -4.8623456E-9,
      -4.7466995E-9,
      8.522658E-10,
      2.7280374E-9,
      4.3550323E-9,
      1.1761951E-9,
      -3.1873921E-9,
      -9.307972E-10,
      1.9033122E-9,
      -5.9923817E-9,
      -1.8365935E-9,
      -3.9148347E-9,
      -3.9934012E-10,
      5.2669725E-7,
      5.551883E-9,
      -1.3671109E-10,
      -3.0283278E-9,
      3.3514276E-9,
      -2.0921398E-10,
      -3.5872159E-9,
      1.9674053E-9,
      2.8676457E-9,
      -4.1550483E-9,
      3.51042E-9,
      1.6264198E-6,
      -8.7679686E-10,
      1.0592256E-9,
      3.977259E-9,
      7.5266415E-10,
      -5.77449E-9,
      -3.129199E-10,
      3.2073306E-9,
      5.720806E-9,
      -5.0795363E-9,
      -2.385324E-9,
      1.3886572E-9,
      2.4228246E-9,
      2.1270354E-9,
      2.1647863E-6,
      -1.8180661E-9,
      -1.4884853E-9,
      -6.712051E-7,
      -1.6702106E-10,
      -8.701799E-7,
      5.3432028E-9,
      1.0745186E-8,
      5.12052E-9,
      -8.284949E-7,
      -2.0406019E-7,
      7.83655E-7,
      -2.8657612E-7,
      -2.8073444E-9,
      1.22028325E-8,
      -4.073948E-9,
      -0.045315105,
      -4.8780004E-7,
      6.551933E-8,
      -1.0781225E-8,
      -3.1514764E-9,
      -1.9402965E-7,
      8.042938E-9,
      0.0072776205,
      3.064061E-7,
      8.350884E-7,
      2.2828958E-7,
      -4.0425313E-8,
      -9.979385E-7,
      4.2396624E-9,
      -1.0294863E-6,
      1.3189702E-8,
      -1.089188E-7,
      7.4310744E-9,
      -0.039219636,
      -3.486586E-7,
      6.777702E-7,
      -6.469898E-8,
      -1.9164764E-7,
      1.0486879E-7,
      -7.607337E-10,
      -0.09172652,
      -1.0333E-6,
      -3.2703338E-9,
      -8.9042366E-8,
      -1.5095263E-9,
      1.7604895E-10,
      9.4726076E-8,
      0.022274341,
      1.7380827E-7,
      -1.8641416E-6,
      3.3333671E-7,
      -1.05772735E-7,
      -6.5998895E-10,
      -5.0265E-9,
      -1.028495E-6,
      9.480914E-10,
      -1.5889023E-10,
      -1.4944987E-7,
      -0.08620102,
      -7.8253714E-7,
      2.8285135E-6,
      1.1283585E-7,
      -7.680406E-7,
      5.0870403E-7,
      -5.1503903E-9,
      -0.16647705,
      -0.031235121,
      7.859786E-8,
      -1.851177E-7,
      -1.8197884E-8,
      6.522761E-7,
      -3.0454735E-6,
      9.259371E-8,
      -2.8282832E-7,
      -9.033971E-7,
      -4.77079E-9,
      -3.039853E-7,
      2.971318E-7,
      -2.041971E-9,
      -6.885407E-7,
      -2.0692024E-8,
      -5.509802E-8,
      0.005516355,
      -0.009282598,
      -0.03716279,
      0.0531408,
      9.470743E-8,
      -2.6366424E-6,
      0.014838838,
      1.2859198E-9,
      -0.0021499463,
      -7.0294254E-7,
      3.9201342E-7,
      1.2238536E-6,
      2.4081584E-7,
      4.2976012E-8,
      -3.326914E-6,
      3.1749462E-6,
      4.5888903E-8,
      -2.330048E-6,
      2.4735724E-7,
      -0.042218424,
      1.7846944E-6,
      4.175779E-9,
      3.1089694E-6,
      9.370484E-8,
      0.08150464,
      -4.2118035E-7,
      -0.010190152,
      -0.11997241,
      0.06620051,
      7.67322E-7,
      -0.104670025,
      -5.326823E-7,
      -1.350351E-10,
      -0.07743016,
      -5.152457E-7,
      5.698454E-7,
      3.7233388E-6,
      4.021629E-7,
      3.5792397E-7,
      -0.007227838,
      0.049395565,
      -3.7934658E-8,
      -7.931143E-6,
      -1.6505729E-6,
      -0.045779824,
      2.6223381E-6,
      -8.9776144E-8,
      6.979043E-6,
      1.9401779E-7,
      0.015905432,
      5.1416055E-7,
      -0.070619285,
      -0.04925248,
      7.688649E-7,
      2.0684429E-6,
      -5.214927E-7,
      -9.068494E-7,
      5.6680416E-9,
      -0.07787957,
      -2.363139E-6,
      -0.062430598,
      0.010328694,
      2.0753393E-7,
      1.9656986E-6,
      -0.030255953,
      0.011064811,
      -3.0508406E-7,
      -5.9390286E-6,
      -4.418816E-6,
      -1.6921051E-9,
      0.010746211,
      4.286688E-8,
      8.601386E-6,
      5.8356274E-8,
      -1.3472652E-6,
      1.9506215E-6,
      7.87104E-6,
      -0.06142208,
      0.09531975,
      2.9348905E-7,
      -0.029320918,
      -1.1012256E-6,
      -1.8307902E-9,
      -0.0011083301,
      -1.2927861E-6,
      -0.02815639,
      0.0026027828,
      5.8873746E-7,
      3.472134E-7,
      -8.751602E-6,
      0.009484929,
      8.50869E-8,
      -1.360432E-7,
      -5.526429E-6,
      -3.7809278E-7,
      1.3023081E-5,
      4.4158574E-7,
      5.141577E-6,
      5.482018E-7,
      -1.2138782E-6,
      -7.57107E-7,
      5.160842E-6,
      -0.029854484,
      0.033600505,
      -2.9265084E-7,
      -5.4791E-7,
      -1.3410199E-6,
      -9.398331E-10,
      -0.05153274,
      2.844636E-7,
      -0.0881746,
      3.219609E-6,
      1.0326033E-6,
      7.1870335E-7,
      -0.065572575,
      2.2755464E-6,
      1.3689537E-7,
      -9.137261E-6,
      -9.912593E-8,
      -1.1395322E-7,
      0.0072994693,
      3.064464E-7,
      4.441107E-6,
      6.3779447E-7,
      3.4653536E-7,
      -4.577489E-7,
      2.3755028E-6,
      -1.4481689E-6,
      1.7960202E-9,
      -2.6820812E-6,
      -1.0482987E-8,
      -0.02243846,
      6.915112E-8,
      -0.008979652,
      7.599818E-7,
      -1.1048888E-6,
      1.7878797E-6,
      1.5736039E-7,
      -1.0490709E-6,
      -0.03195212,
      1.7539604E-6,
      1.3658219E-7,
      -0.016446771,
      -1.7250059E-9,
      1.0144962E-8,
      0.0019580154,
      2.104001E-6,
      7.1941173E-7,
      3.4106438E-7,
      -1.8459234E-9,
      1.6192638E-7,
      -1.6463609E-6,
      -5.9535495E-7,
      -9.8434526E-8,
      -2.6089183E-6,
      -6.107698E-7,
      -0.07376948,
      5.4919887E-8,
      -8.0631335E-6,
      2.962691E-6,
      8.5154954E-7,
      8.698733E-7,
      -7.2112325E-9,
      3.2467915E-7,
      -0.031621646,
      2.0485768E-6,
      4.1800695E-7,
      -0.030737272,
      3.0014021E-7,
      4.45166E-8,
      8.225706E-4,
      2.612325E-8,
      5.763409E-7,
      4.4982965E-8,
      -1.0962871E-6,
      4.3872535E-7,
      -5.456422E-7,
      2.5501078E-7,
      -9.6855594E-8,
      -0.017406752,
      -5.920935E-7,
      -0.042913117,
      4.7927657E-9,
      -0.07312009,
      0.053437077,
      7.06719E-7,
      7.534024E-7,
      -1.2985943E-8,
      1.6711851E-7,
      -3.1865616E-6,
      0.016188512,
      1.9357716E-7,
      -0.069615014,
      -2.8416247E-10,
      3.6470738E-9,
      0.0036344375,
      -4.809001E-9,
      8.3193174E-7,
      2.4857099E-9,
      -6.4331414E-7,
      2.2648798E-7,
      -2.6325895E-6,
      6.759696E-8,
      -2.5578842E-7,
      -9.0024156E-7,
      7.872322E-9,
      -6.031814E-7,
      4.7439936E-9,
      -1.0886195E-6,
      3.2766648E-6,
      8.809387E-8,
      3.6649075E-7,
      1.5081496E-9,
      3.511664E-8,
      -6.0293365E-7,
      6.088649E-7,
      3.7769848E-8,
      -0.0666146,
      -2.2254372E-9,
      9.605787E-10,
      0.034074813,
      9.794063E-10,
      2.6530836E-7,
      1.6669381E-9,
      5.0868714E-9,
      3.6400143E-9,
      -3.8436245E-9,
      -6.7908124E-10,
      -2.3376128E-6,
      -6.062825E-7,
      4.2042097E-7,
      -5.1998103E-7,
      4.1315054E-9,
      -3.5138945E-7,
      2.0356937E-7,
      -4.5339885E-7,
      5.0207035E-7,
      1.9342046E-8,
      -2.1413333E-9,
      -1.4860807E-7,
      9.4791636E-7,
      -3.3478464E-9,
      -0.012267145,
      -5.3248894E-9,
      -2.5022375E-9,
      3.311916E-9,
      4.8406497E-9,
      4.0396068E-7,
      5.8452936E-9,
      -6.270802E-7,
      -3.0672473E-9,
      1.1623695E-6,
      1.0252496E-7,
      -2.8030224E-6,
      -9.1073156E-7,
      4.23949E-7,
      1.6560744E-9,
      -4.7629904E-9,
      4.860909E-8,
      -3.0554417E-9,
      5.4184777E-9,
      6.650244E-7,
      5.6195358E-8,
      2.8763492E-7,
      -6.139718E-7,
      1.4341572E-9,
      -9.385732E-10,
      -3.2565652E-7,
      -4.728945E-9,
      3.1810798E-9,
      -4.329936E-9,
      2.6760278E-9,
      5.9098504E-9,
      -4.7644155E-9,
      3.57797E-9,
      1.6140809E-9,
      4.0145913E-9,
      -2.8257594E-9,
      -9.331024E-7,
      -2.8510252E-7,
      1.2933126E-9,
      3.8348702E-10,
      3.9090247E-9,
      -4.3097264E-9,
      -2.1849212E-7,
      3.7869308E-10,
      2.9823695E-9,
      8.024825E-11,
      4.8727804E-7,
      -1.491438E-7,
      1.7592252E-9,
      -4.8360356E-9,
      5.2963993E-9,
      -8.912635E-10,
      -7.382286E-10,
      -4.6799284E-9,
      -4.417409E-9,
      2.257603E-10,
      1.0159442E-9,
      4.9122466E-9,
      6.7528116E-10,
      4.313269E-9,
      -7.261134E-10,
      4.363419E-9,
      5.307632E-9,
      4.09082E-9,
      3.4199812E-9,
      2.5584415E-9,
      -8.644485E-9,
      -3.157058E-7,
      -1.9092545E-9,
      -2.1642936E-9,
      5.1035896E-9,
      3.7791494E-7,
      9.063923E-10,
      -1.8401121E-9,
      3.2002418E-9,
      5.485976E-10,
      5.8526832E-9,
      2.0075341E-9,
      -5.418407E-9,
      9.1412566E-10,
      -1.0449006E-9,
      -4.0142023E-10,
      5.639718E-9,
      -2.7387959E-10,
      3.4013237E-9,
      -5.057189E-9,
      5.1751803E-10,
      5.9694467E-9,
      -5.0851066E-9,
      -4.817178E-10,
      -2.0568192E-9,
      -1.9850348E-9,
      -3.4639664E-9,
      3.2263774E-9,
      -5.816048E-9,
      3.70901E-9,
      -2.7214224E-9,
      3.3927443E-9,
      3.1280978E-10,
      -2.3842888E-9,
      5.225187E-9,
      3.0064085E-10,
      -2.1912587E-9,
      -4.2129824E-9,
      -3.3012797E-9,
      -6.058909E-10,
      5.3151705E-11,
      -1.0842305E-10,
      1.6916215E-9,
      3.95178E-9,
      -1.6407689E-9,
      -5.0013327E-11,
      2.0305189E-9,
      1.3836248E-9,
      4.2379202E-9,
      -2.2570479E-10,
      -5.8939578E-9,
      5.242235E-9,
      3.822278E-9,
      -3.5912162E-9,
      2.2967805E-9,
      -5.689582E-10,
      -1.6664092E-9,
      3.873315E-10,
      -1.2278694E-9,
      -4.7812923E-9,
      -1.0562262E-10,
      -3.997158E-11,
      4.7831645E-9,
      -4.7811763E-9,
      -4.7793294E-9,
      -4.7794595E-9,
      -4.7817945E-9,
      -5.047756E-9,
      4.7721986E-9,
      4.7277315E-9,
      -4.781964E-9,
      4.782965E-9,
      4.7680975E-9,
      -4.783958E-9,
      -5.043238E-9,
      -4.7872737E-9,
      4.7839137E-9,
      -4.7784106E-9,
      -4.781822E-9,
      -4.781582E-9,
      -4.7804507E-9,
      4.781622E-9,
      4.788065E-9,
      4.7837116E-9,
      4.7676054E-9,
      5.0530042E-9,
      -4.7757274E-9,
      4.7791557E-9,
      -6.1978955E-10,
      4.7720468E-9,
      -4.783958E-9,
      4.7831357E-9,
      -4.787668E-9,
      -4.7747193E-9,
      4.6551465E-9,
      -4.7694506E-9,
      4.774872E-9,
      4.780077E-9,
      4.7789355E-9,
      -4.7720423E-9,
      4.780223E-9,
      4.7839674E-9,
      -4.770166E-9,
      -5.035759E-9,
      1.7422286E-9,
      -4.7817195E-9,
      6.8640116E-10,
      -4.7849906E-9,
      -5.0475113E-9,
      4.7826E-9,
      -5.0372497E-9,
      -4.773278E-9,
      -4.727414E-9,
      4.783598E-9,
      4.7805115E-9,
      -4.775226E-9,
      -4.7732853E-9,
      4.7795354E-9,
      4.779661E-9,
      -4.7720468E-9,
      -1.0920553E-9,
      4.766189E-9,
      4.769174E-9,
      -4.786723E-9,
      -3.7261216E-10,
      -4.7820388E-9,
      -2.057674E-9,
      -4.774482E-9,
      4.77991E-9,
      -4.72767E-9,
      4.7757007E-9,
      4.782189E-9,
      4.7711977E-9,
      -4.781758E-9,
      5.470778E-9,
      2.6255176E-9,
      7.798966E-10,
      4.4318877E-9,
      -4.845791E-9,
      -5.95183E-9,
      -1.1939707E-9,
      -1.0886518E-9,
      2.111721E-9,
      3.361818E-9,
      -3.0334895E-9,
      6.489471E-10,
      -1.294616E-9,
      -4.967928E-9,
      3.053919E-9,
      5.3216715E-9,
      4.681846E-9,
      -5.456793E-9,
      1.2421726E-9,
      -3.070443E-9,
      4.468914E-9,
      -3.865321E-9,
      -4.3976187E-9,
      -2.4459368E-9,
      -1.9193638E-9,
      5.140792E-9,
      5.0569513E-9,
      -3.6627041E-9,
      -1.1785142E-9,
      5.0107016E-9,
      1.0843233E-9,
      -4.6544044E-9,
      -1.0765655E-10,
      -2.581654E-9,
      1.0789747E-9,
      -1.1845431E-9,
      -3.392474E-9,
      1.3521269E-9,
      3.4882102E-9,
      -1.886765E-9,
      4.185537E-9,
      -2.127046E-9,
      3.317425E-9,
      2.6699776E-9,
      5.5238893E-9,
      -5.1167848E-9,
      3.691962E-9,
      -4.2541544E-9,
      7.248335E-11,
      1.0429924E-9,
      5.596626E-9,
      -8.8786667E-10,
      1.9074915E-9,
      -5.4643365E-9,
      4.2561816E-9,
      5.134208E-9,
      -5.948575E-12,
      -5.205062E-9,
      4.585261E-9,
      2.4297033E-9,
      2.4894007E-9,
      -3.307063E-9,
      -7.027894E-10,
      -2.064505E-9,
      -2.349243E-9,
      -1.4668382E-9,
      3.872565E-9,
      8.093326E-10,
      1.7951489E-9,
      3.8157077E-10,
      -3.6822105E-9,
      9.317613E-10,
      -5.647194E-10,
      -6.0064176E-9,
      6.464531E-10,
      -4.0588084E-9,
      -5.423617E-11,
      8.1786755E-10,
      3.8515497E-9,
      -9.488677E-10,
      2.1214537E-9,
      4.2594883E-9,
      -2.115736E-9,
      2.069602E-9,
      7.1052275E-10,
      2.7093576E-9,
      4.8573163E-9,
      1.0708305E-9,
      3.644899E-9,
      -3.3923389E-9,
      3.1441374E-9,
      -6.062915E-9,
      -4.381895E-9,
      -2.8994402E-9,
      5.4286278E-9,
      1.7669377E-10,
      -2.7469782E-9,
      -1.9896556E-9,
      1.4084329E-9,
      1.7609616E-9,
      1.6638886E-9,
      -2.9264694E-8,
      5.327472E-9,
      1.0994055E-9,
      7.5242435E-10,
      -8.091998E-10,
      6.632983E-10,
      4.35465E-11,
      -2.818168E-9,
      -4.937222E-9,
      4.3860977E-9,
      -2.1935374E-9,
      3.9138977E-9,
      -4.716214E-10,
      9.901546E-7,
      -3.6769636E-9,
      2.9125378E-9,
      -6.658118E-7,
      -1.6416375E-9,
      5.494373E-9,
      -2.2972291E-10,
      -3.375272E-8,
      4.6160167E-8,
      -3.322409E-9,
      2.3693505E-9,
      3.9540637E-8,
      -2.3680225E-7,
      -5.7273515E-9,
      9.2007024E-10,
      -3.2415333E-9,
      -1.572353E-6,
      1.0535875E-8,
      1.8461924E-8,
      1.2138065E-7,
      -4.2701214E-7,
      -1.8702786E-9,
      4.0932917E-7,
      -6.079315E-11,
      -4.851748E-9,
      2.6213957E-6,
      -1.9120687E-9,
      -6.961546E-7,
      -0.003359886,
      -3.853889E-8,
      1.4344687E-7,
      1.0411965E-9,
      -2.3953916E-7,
      3.1543834E-7,
      5.1534874E-9,
      2.5159195E-9,
      3.5842147E-6,
      -1.4356131E-6,
      -3.8062455E-9,
      -3.3617265E-9,
      1.5730643E-9,
      -3.1213456E-6,
      1.5588727E-8,
      2.489077E-8,
      4.0223632E-8,
      -1.6535097E-6,
      1.3591577E-9,
      0.001066115,
      -8.286447E-8,
      7.0846484E-10,
      0.030791448,
      1.9432878E-9,
      -5.64535E-7,
      -0.08063901,
      6.9612303E-9,
      6.7959945E-8,
      -3.922329E-10,
      -2.6131215E-7,
      2.7556527E-7,
      1.225785E-7,
      3.9755562E-8,
      0.083004825,
      -8.163859E-7,
      -3.74976E-7,
      -2.1415954E-6,
      -1.2250148E-9,
      -0.019189417,
      1.070077E-8,
      0.021804344,
      7.1108377E-7,
      -0.0032048721,
      -8.639557E-7,
      0.0069759064,
      -1.4082147E-7,
      -9.669003E-8,
      0.0021366072,
      1.6215695E-10,
      -4.0145588E-7,
      -0.022327745,
      -1.4055382E-6,
      -1.3794455E-8,
      -3.4006788E-9,
      -5.0294915E-7,
      6.6455846E-7,
      -1.4706534E-6,
      4.5698783E-7,
      3.8085125E-6,
      -5.244991E-8,
      -5.7269665E-7,
      -4.712506E-6,
      -3.3012855E-9,
      -3.2024905E-6,
      -2.806257E-7,
      0.062086392,
      0.009636401,
      -1.7209006E-5,
      -1.7904295E-6,
      0.007516388,
      -0.0038844221,
      -6.7157316E-7,
      0.14661793,
      -3.1603742E-9,
      6.619429E-7,
      -2.0515702E-6,
      -1.5749039E-6,
      8.824065E-7,
      0.04326826,
      -4.780548E-7,
      -5.6129034E-7,
      8.5558924E-7,
      2.6168746E-6,
      1.762216E-6,
      2.9580883E-7,
      -6.304291E-7,
      -2.63624E-6,
      -5.4821413E-7,
      -0.0035898648,
      -1.8646772E-7,
      0.09419309,
      0.020227905,
      -0.055511057,
      -0.06684668,
      0.059690475,
      -5.7063826E-6,
      -0.0866535,
      0.053558726,
      3.343644E-9,
      -1.2831321E-6,
      7.3122084E-7,
      -7.501232E-7,
      1.8467844E-6,
      0.088684395,
      -3.854534E-7,
      -9.930921E-6,
      1.2454859E-6,
      1.3361213E-6,
      -1.8188386E-5,
      7.616651E-7,
      -0.0016063113,
      2.913806E-6,
      -0.058076307,
      5.695026E-7,
      -1.4255565E-7,
      0.052556485,
      0.014017866,
      1.4024885E-6,
      -0.05225305,
      0.011542518,
      -4.539252E-6,
      -0.05357718,
      0.11115217,
      -1.4975132E-9,
      -2.0894731E-6,
      1.3838585E-6,
      6.113155E-7,
      2.7763213E-6,
      0.04268112,
      -1.9762736E-7,
      -0.12358462,
      3.5920343E-6,
      3.256218E-7,
      -2.2135118E-5,
      3.5136813E-7,
      -0.009130279,
      2.4307044E-6,
      -0.13395853,
      4.4387585E-4,
      -1.6879322E-7,
      0.15069203,
      0.07151628,
      6.161682E-7,
      -0.008679459,
      3.2916992E-6,
      -5.219357E-7,
      -4.3059113E-6,
      0.09363653,
      -1.0388996E-9,
      -0.016082432,
      -7.042511E-6,
      -5.179691E-6,
      0.03135825,
      0.041640736,
      3.0013432E-6,
      -0.036167767,
      6.7513247E-6,
      -5.515019E-8,
      -6.5772933E-6,
      1.0823362E-6,
      -0.037657432,
      5.64638E-6,
      -0.07801883,
      9.56517E-6,
      -1.49859E-7,
      0.0563057,
      0.030130628,
      5.666298E-6,
      -0.039682176,
      0.05919178,
      -7.7675554E-7,
      -2.244144E-6,
      4.523318E-6,
      -1.2028414E-7,
      -0.022037178,
      -0.016900789,
      -4.721542E-6,
      0.0062244763,
      0.054944694,
      0.010891714,
      -0.035885334,
      0.024210611,
      -0.0107736485,
      -1.3841183E-5,
      -1.8912937E-6,
      -0.05587501,
      1.0468476E-5,
      -0.08482447,
      1.5488671E-5,
      -4.7062358E-7,
      0.05172271,
      0.0611646,
      7.975795E-6,
      -0.06801644,
      0.116311,
      -1.3385745E-6,
      -0.02177205,
      1.7734895E-6,
      -8.1572495E-8,
      -1.0164834E-5,
      9.2460044E-7,
      -3.6175734E-6,
      0.011153277,
      0.006512526,
      0.12449553,
      -0.16043222,
      0.13958833,
      -4.2992656E-7,
      -7.517578E-6,
      6.2619137E-7,
      -3.2101647E-4,
      -0.016626896,
      -0.07191161,
      5.371561E-6,
      -3.9816732E-7,
      3.5833537E-7,
      6.765486E-6,
      3.6503645E-6,
      -0.0174039,
      0.060325574,
      -3.557655E-6,
      -0.013987124,
      -0.0026726918,
      -7.706587E-9,
      -2.1762695E-5,
      1.1887596E-4,
      -1.3928744E-6,
      5.5683045E-6,
      3.9448605E-6,
      0.048433144,
      -0.033679523,
      0.07134578,
      -1.744663E-7,
      -4.0008827E-6,
      7.790064E-8,
      -1.0388592E-6,
      -2.283434E-6,
      -0.014039109,
      4.9316186E-6,
      6.015152E-7,
      0.006244836,
      9.2573197E-7,
      -8.231565E-6,
      -9.5292664E-4,
      2.5162322E-7,
      2.5656796E-6,
      -9.38514E-7,
      -0.11211599,
      2.8976418E-8,
      -1.2551053E-5,
      0.006249959,
      -0.0060084993,
      6.019737E-7,
      8.886923E-7,
      3.1058291E-6,
      -6.753891E-6,
      3.0606177E-6,
      -8.9829535E-7,
      8.638165E-7,
      -3.1347877E-6,
      -1.3519892E-6,
      -6.3275897E-6,
      -1.0616734E-6,
      5.18967E-7,
      2.9795092E-7,
      7.5247567E-6,
      4.0754785E-6,
      -0.059962925,
      -0.047797747,
      -1.7091776E-6,
      0.008165078,
      -0.029725937,
      -0.0034289132,
      3.8827345E-8,
      -2.3166174E-6,
      9.578672E-6,
      -0.033090062,
      9.0945434E-7,
      -1.3582383E-7,
      0.014826401,
      -1.9213717E-6,
      1.4274397E-6,
      3.1461735E-7,
      -3.4717077E-6,
      -1.735049E-8,
      -1.9510283E-7,
      -2.677752E-6,
      -8.423443E-7,
      -5.2094315E-8,
      -5.166304E-7,
      -4.5453767E-8,
      1.2150944E-6,
      -0.025162188,
      -3.946196E-6,
      -3.1432994E-6,
      -3.21753E-6,
      -8.6533966E-8,
      -0.10772357,
      -2.148457E-9,
      -0.017180437,
      4.5554184E-6,
      2.6391353E-7,
      7.527263E-7,
      -7.7297074E-7,
      0.0025339595,
      -0.028141513,
      3.5735397E-6,
      1.9488207E-6,
      -0.0057343654,
      4.3685935E-7,
      -3.910563E-8,
      4.575291E-7,
      -9.1957463E-7,
      9.611864E-7,
      -9.1011606E-7,
      -0.052115735,
      2.4035542E-6,
      -9.5716395E-8,
      -2.340662E-6,
      -4.401249E-6,
      -4.4560875E-6,
      4.649222E-6,
      -0.06350328,
      1.4111721E-9,
      -0.02788225,
      4.1371313E-6,
      1.0587588E-6,
      2.4671099E-6,
      -5.932184E-7,
      0.007774344,
      -0.010197275,
      7.0366224E-7,
      2.734394E-7,
      -0.05457512,
      1.2419544E-7,
      -1.6170043E-9,
      0.04741259,
      -4.263472E-7,
      2.4699054E-7,
      -2.988489E-7,
      -2.7092144E-6,
      9.9252965E-8,
      3.278143E-6,
      -2.5648699E-6,
      -0.027073674,
      -2.0251352E-6,
      2.3586458E-6,
      -0.05828014,
      1.5805512E-9,
      -8.600475E-6,
      1.3352792E-6,
      -9.171433E-7,
      2.4304184E-6,
      2.2273232E-9,
      2.2411555E-6,
      -1.4611373E-6,
      -1.8082442E-8,
      5.201419E-7,
      -0.113747306,
      4.809329E-9,
      6.473915E-9,
      1.485895E-7,
      -8.8898675E-9,
      0.008904072,
      4.3135584E-9,
      -2.9944513E-6,
      -2.089923E-6,
      2.5203484E-4,
      -1.38903E-6,
      -0.10226725,
      -7.454409E-7,
      1.3470491E-6,
      1.241629E-11,
      3.78581E-9,
      -0.16219927,
      1.981983E-6,
      -1.2733253E-6,
      1.7167273E-6,
      5.516437E-8,
      1.6803403E-6,
      -1.3235796E-6,
      -2.1893674E-9,
      5.195532E-7,
      -0.0043747765,
      2.234113E-9,
      -2.1081226E-10,
      -5.868017E-11,
      -6.9191586E-10,
      8.4682756E-7,
      -2.4964053E-9,
      1.5174174E-7,
      -6.481774E-7,
      -3.606527E-7,
      -1.4330589E-6,
      -0.02059955,
      -3.698008E-7,
      2.230244E-7,
      -3.952217E-9,
      3.3186787E-10,
      -5.6973936E-6,
      0.081171,
      -8.3568716E-7,
      6.0624654E-7,
      -5.4330047E-9,
      1.535955E-7,
      4.4460204E-8,
      2.2282598E-9,
      2.2403593E-7,
      -3.4533483E-9,
      -3.5947254E-9,
      1.3476518E-9,
      -4.7145637E-8,
      -8.171086E-10,
      -3.652071E-7,
      2.935999E-9,
      -7.9830853E-10,
      -4.5277013E-9,
      -2.5659586E-9,
      -8.362227E-7,
      -1.5929974E-7,
      -9.2143004E-8,
      -1.7212258E-9,
      -3.4732675E-9,
      3.815E-9,
      1.4432533E-6,
      2.3347122E-6,
      4.634798E-9,
      5.8293384E-8,
      -3.5631675E-10,
      -3.8051877E-9,
      -5.0800114E-8,
      -4.5961617E-9,
      -2.231312E-9,
      -1.7078925E-9,
      -3.6003382E-9,
      -5.009519E-9,
      2.7214782E-9,
      -8.6641805E-10,
      -4.7148072E-7,
      -6.0138934E-9,
      4.7284376E-9,
      -5.3193348E-9,
      -7.931371E-10,
      -5.2996567E-9,
      5.5258136E-9,
      4.2908117E-9,
      5.1174394E-9,
      1.831642E-9,
      -2.0384996E-9,
      7.260738E-7,
      -3.5155683E-9,
      3.6915162E-9,
      7.801226E-11,
      -2.202496E-9,
      2.4869147E-9,
      -1.1499561E-9,
      -2.908865E-9,
      4.1007424E-9,
      -2.41553E-10,
      2.3824525E-9,
      2.7401228E-9,
      4.6356563E-9,
      -4.5221853E-9,
      7.3938544E-10,
      1.7965718E-10,
      -2.7351663E-9,
      3.741461E-9,
      5.5463887E-9,
      5.062674E-9,
      -7.4107165E-10,
      3.931895E-9,
      5.3990656E-9,
      -6.1404215E-11,
      1.9533162E-9,
      -2.5378122E-9,
      2.2665465E-9,
      -4.2890522E-9,
      2.9184362E-9,
      -1.8412969E-9,
      -3.7358524E-7,
      4.843464E-9,
      5.9394383E-9,
      4.559153E-10,
      4.034835E-9,
      -4.8150195E-10,
      2.8366132E-9,
      -2.434175E-9,
      3.666211E-9,
      -3.5018615E-9,
      -4.065965E-9,
      -1.8485253E-9,
      1.900316E-9,
      3.4778913E-9,
      -5.263862E-9,
      4.9893156E-9,
      3.7046233E-10,
      -2.5537683E-9,
      -4.9693885E-9,
      5.610476E-9,
      3.5457481E-9,
      1.5284884E-10,
      4.5267963E-9,
      2.9228837E-9,
      -3.2631235E-9,
      3.8136982E-9,
      -4.8060844E-9,
      5.07479E-9,
      -2.9588643E-9,
      4.6678776E-9,
      3.7261216E-10,
      -4.7812674E-9,
      4.7702E-9,
      4.7840443E-9,
      -4.661305E-9,
      -4.7715916E-9,
      -4.780567E-9,
      -4.780388E-9,
      -4.781651E-9,
      4.7749205E-9,
      4.776926E-9,
      -4.7722555E-9,
      4.7823985E-9,
      4.779305E-9,
      -5.0529434E-9,
      -5.0473474E-9,
      4.7818873E-9,
      -4.7837294E-9,
      -4.7818394E-9,
      -1.2672086E-11,
      4.7277338E-9,
      -4.7800652E-9,
      -5.027976E-9,
      -4.788264E-9,
      -4.6611452E-9,
      -4.782117E-9,
      4.826906E-9,
      -4.7720783E-9,
      -2.5661073E-10,
      4.782163E-9,
      -2.6900002E-9,
      4.7815014E-9,
      1.0564216E-10,
      -4.783807E-9,
      -5.0372497E-9,
      -4.759819E-9,
      -4.771744E-9,
      4.7819353E-9,
      5.0473403E-9,
      4.7278865E-9,
      -4.7800652E-9,
      -4.782163E-9,
      4.780668E-9,
      6.863994E-10,
      -4.767735E-9,
      2.6904976E-9,
      -1.3596457E-9,
      4.7680615E-9,
      4.770053E-9,
      2.930849E-9,
      -3.3699994E-9,
      3.181869E-9,
      1.2343886E-9,
      5.3139417E-9,
      -2.6054758E-10,
      4.8305817E-9,
      -1.4590675E-9,
      4.7544493E-9,
      -1.5361912E-9,
      -3.8503765E-9,
      -1.8926918E-9,
      2.5379396E-9,
      -2.9536857E-9,
      3.7217398E-9,
      2.4296094E-9,
      2.8075364E-9,
      3.1888414E-9,
      -5.101324E-9,
      -2.3085418E-9,
      2.388993E-9,
      5.6835403E-9,
      4.841592E-9,
      6.0325833E-9,
      2.6923752E-10,
      -5.0601168E-9,
      -4.5307056E-9,
      -1.0808265E-9,
      -4.241219E-9,
      -4.657854E-9,
      1.5789774E-9,
      1.9489206E-9,
      -3.33356E-10,
      5.7143437E-9,
      2.6083906E-9,
      1.4705033E-9,
      4.281549E-9,
      3.628093E-9,
      1.2795263E-9,
      1.4654402E-9,
      3.1668614E-9,
      -3.3680023E-9,
      -2.1849322E-10,
      -1.4067432E-9,
      3.08934E-9,
      1.7941364E-9,
      4.7889475E-9,
      2.0851685E-9,
      3.1464764E-9,
      1.3346879E-10,
      -1.9503874E-9,
      3.3760728E-9,
      1.3268857E-9,
      -3.568192E-9,
      2.5291373E-9,
      8.355694E-10,
      3.784197E-9,
      -4.819749E-9,
      -1.582027E-9,
      4.967531E-9,
      -3.9569072E-9,
      4.4873274E-9,
      -1.9841035E-9,
      3.4464498E-9,
      1.3776056E-9,
      -1.5892692E-9,
      2.1941817E-9,
      -5.697933E-9,
      -4.883143E-9,
      -1.3840493E-9,
      2.2745072E-9,
      5.369931E-10,
      2.670773E-9,
      -1.8954873E-9,
      5.3739595E-9,
      -2.6821456E-7,
      -5.05763E-10,
      -5.870571E-9,
      6.4104455E-10,
      -4.5720165E-9,
      7.960682E-8,
      -4.5112754E-9,
      -2.2817508E-9,
      2.9884641E-9,
      -7.414066E-7,
      5.6634595E-9,
      -3.3987941E-9,
      2.0547932E-9,
      -5.658947E-9,
      4.820095E-9,
      1.2053167E-9,
      -2.4729356E-9,
      2.0642572E-9,
      4.814708E-9,
      -4.813314E-10,
      3.6991183E-9,
      -5.2595794E-10,
      -3.0599315E-7,
      -1.2194041E-9,
      -1.4223063E-9,
      1.559653E-8,
      -2.670273E-7,
      -4.2170356E-9,
      2.0512678E-6,
      2.1515275E-7,
      6.275175E-7,
      5.381514E-9,
      7.1520025E-9,
      1.0619518E-7,
      -1.2632132E-6,
      4.582137E-9,
      1.0954841E-9,
      -4.551377E-10,
      -3.9545913E-9,
      5.1538916E-7,
      -3.6633843E-9,
      1.2065378E-7,
      -0.010041907,
      -6.748245E-8,
      1.7816247E-7,
      4.9819104E-9,
      -2.4802563E-7,
      -8.4642714E-8,
      3.767545E-7,
      -4.2373647E-9,
      2.7242388E-6,
      -1.6660116E-6,
      2.0067707E-9,
      -1.6095885E-7,
      2.954654E-7,
      -0.035573874,
      -4.79008E-7,
      -1.3830131E-6,
      3.0152936E-8,
      -1.4836901E-6,
      2.2291502E-11,
      -1.2312285E-9,
      4.763175E-8,
      5.501867E-9,
      4.318281E-6,
      -6.25841E-8,
      1.1315312E-6,
      -2.7517822E-6,
      -9.913761E-8,
      -1.14555476E-10,
      3.8994298E-8,
      1.5714674E-9,
      -4.339335E-7,
      -3.0250924E-6,
      -2.8473814E-9,
      1.4319359E-6,
      -2.8785018E-6,
      -3.8839912E-7,
      -4.693512E-10,
      1.8289915E-6,
      6.973908E-7,
      -7.459652E-7,
      -2.69544E-6,
      -4.7993964E-8,
      -0.14022568,
      6.68227E-8,
      2.2450307E-8,
      2.3436753E-7,
      5.194622E-7,
      5.0324265E-6,
      -2.317204E-7,
      2.2374254E-6,
      -6.8415384E-6,
      -1.1835155E-6,
      -1.8696571E-8,
      -7.6565277E-7,
      -6.117649E-8,
      -5.632839E-6,
      -0.004718845,
      9.824691E-8,
      -4.17826E-6,
      -5.44847E-7,
      -1.0393676E-6,
      4.9044347E-6,
      1.7275401E-7,
      3.021876E-6,
      -9.4921774E-7,
      -4.128392E-6,
      -1.3780835E-6,
      -0.049019244,
      5.1346416E-7,
      -5.0849867E-9,
      -3.1688887E-6,
      3.1338178E-7,
      5.558928E-6,
      -2.4655614E-7,
      2.0262787E-6,
      -1.1449773E-6,
      2.1757116E-6,
      -1.5149508E-8,
      -1.2871197E-6,
      -3.017007E-7,
      -0.0035569286,
      4.932933E-6,
      6.5585573E-7,
      -6.3206626E-6,
      -4.641182E-7,
      -9.1810904E-7,
      -0.009741611,
      -0.042748827,
      4.0505688E-7,
      -3.9843192E-7,
      4.352065E-7,
      -5.990463E-7,
      -0.130573,
      9.925569E-7,
      -3.4033567E-6,
      -6.2287095E-6,
      2.8439176E-6,
      0.05357814,
      -3.1785845E-7,
      5.501204E-6,
      -3.821355E-6,
      -8.91896E-7,
      1.427602E-6,
      5.1588167E-6,
      1.7668289E-6,
      -2.4714261E-6,
      5.5316214E-6,
      -2.8342905E-7,
      -2.2045542E-6,
      -1.32259065E-5,
      -7.428302E-7,
      -0.033173103,
      -0.030416317,
      -1.199812E-6,
      1.6994203E-6,
      0.10440074,
      1.6923208E-6,
      -0.07052921,
      -1.2908725E-8,
      -5.0372623E-6,
      -0.0018109498,
      0.0019872347,
      6.724543E-6,
      -3.0915888E-7,
      0.09360213,
      -2.5919573E-7,
      -3.1525374E-7,
      9.3871595E-6,
      0.08044679,
      9.852494E-7,
      0.042585548,
      0.016671076,
      -4.956968E-7,
      -0.015074551,
      -1.2951646E-5,
      -0.009778474,
      1.4068222E-5,
      -4.9421537E-6,
      1.0740369E-5,
      8.8983086E-7,
      1.812761E-7,
      8.0637965E-6,
      -0.029844135,
      -3.85299E-6,
      -1.0047158E-6,
      -0.0025831568,
      8.210506E-6,
      0.07024958,
      -2.076252E-7,
      0.02117822,
      -6.104997E-6,
      0.03286859,
      1.4286496E-5,
      0.004054326,
      0.0944744,
      1.0270634E-6,
      1.6625061E-5,
      -3.2966625E-7,
      -1.0023697E-6,
      -8.4851035E-6,
      -0.19315761,
      2.0792748E-5,
      1.6548804E-6,
      -2.2408844E-6,
      0.031881157,
      0.07247948,
      0.046554904,
      -1.5226535E-5,
      -0.08709994,
      0.009433084,
      0.0032468168,
      -2.254165E-7,
      0.0063372953,
      -2.0597152E-7,
      1.2887026E-6,
      -0.0509711,
      0.0075130328,
      1.2493827E-5,
      1.5124455E-5,
      0.03626336,
      1.0291836E-5,
      0.009967348,
      -0.014326343,
      -1.5784949E-6,
      7.0536125E-6,
      -0.10831,
      0.03895339,
      -0.13723935,
      -0.023747614,
      0.018776346,
      1.4291843E-6,
      0.009465628,
      -0.027270779,
      -0.037174407,
      3.1936086E-6,
      1.3118988E-5,
      9.134667E-6,
      0.015656387,
      -2.3466127E-7,
      -2.8858312E-6,
      -1.2863154E-5,
      0.048221584,
      0.0060409084,
      0.021050882,
      6.1927985E-6,
      -1.5421636E-5,
      0.028215209,
      -0.037103813,
      -1.3061186E-5,
      9.989514E-6,
      -0.005670959,
      0.023098996,
      -2.597058E-6,
      9.487061E-6,
      0.016657094,
      0.029567584,
      8.926091E-6,
      7.3745573E-6,
      -0.04230471,
      0.09865622,
      0.006185152,
      7.5992325E-6,
      0.03836316,
      -2.3455911E-7,
      1.5439532E-6,
      -0.021437718,
      1.7017264E-5,
      0.05296935,
      0.020162066,
      0.073130876,
      -0.016805207,
      6.728979E-6,
      -0.013274857,
      -8.3433266E-4,
      -3.6469614E-6,
      3.1709442E-6,
      2.5392176E-6,
      -0.07293562,
      -0.08424061,
      2.7545536E-6,
      0.021205595,
      4.7566346E-6,
      -0.004955971,
      -0.03348326,
      0.0095568085,
      -8.064396E-7,
      -0.011146186,
      6.0730795E-6,
      -1.273894E-7,
      -1.5398122E-6,
      5.7814864E-6,
      1.3510534E-5,
      0.0667231,
      4.5201955E-6,
      0.008634113,
      -0.003021837,
      0.01844,
      -0.0758195,
      -0.052977383,
      -4.606754E-6,
      0.10860067,
      0.021585751,
      -7.6056804E-6,
      -0.07066345,
      0.029196667,
      -2.7163298E-6,
      1.0421616E-6,
      -0.07443423,
      -0.1485037,
      8.8592446E-7,
      0.0020562666,
      -5.1101106E-6,
      -0.032045726,
      -3.9603357E-8,
      -0.0046496214,
      0.011576879,
      5.1415286E-6,
      5.741575E-6,
      2.8877114E-6,
      0.07016962,
      -4.2327806E-6,
      0.021085653,
      -0.068030156,
      -8.905563E-6,
      -0.0012213878,
      0.0903621,
      0.043460947,
      -0.07593301,
      -0.036217988,
      4.6105689E-7,
      -0.0049031195,
      5.740876E-4,
      -3.8361763E-6,
      -0.15682967,
      -5.856431E-6,
      0.022075005,
      -0.08580126,
      -2.5734432E-6,
      4.318548E-9,
      -0.027549112,
      0.087678134,
      -0.011826504,
      6.976711E-6,
      2.5933618E-6,
      0.080434114,
      8.749363E-4,
      0.0466749,
      -7.3316016E-7,
      -1.6439428E-5,
      -0.029744046,
      -7.7617614E-7,
      0.02522418,
      4.7291132E-6,
      4.004051E-6,
      0.00211134,
      -2.8834687E-4,
      9.60511E-6,
      -0.0049956883,
      -0.05428304,
      -4.514019E-6,
      0.0068102833,
      -0.046872664,
      -7.680468E-6,
      -2.2713076E-9,
      -0.08831461,
      -2.7588608E-6,
      4.9490723E-6,
      5.4656093E-6,
      0.077950746,
      0.092123106,
      -8.817212E-6,
      3.8736243E-6,
      3.7972345E-8,
      0.0032921056,
      -3.3135261E-6,
      -1.7718614E-6,
      -2.931698E-6,
      -3.4434896E-7,
      -0.1153522,
      -2.3824671E-7,
      -1.1515408E-6,
      4.430138E-6,
      -3.325415E-6,
      -0.077635475,
      -6.0806046E-6,
      -3.1724348E-6,
      -0.019332878,
      -0.17144114,
      4.3469495E-10,
      -4.278168E-6,
      0.07710192,
      1.5699745E-5,
      4.873353E-6,
      3.9177194E-6,
      0.010477055,
      -4.372493E-6,
      3.357703E-6,
      9.694485E-7,
      -7.379252E-7,
      3.0122607E-8,
      -7.7237047E-7,
      -2.898435E-6,
      -0.06660061,
      -0.023292672,
      -5.884958E-7,
      -1.8188664E-6,
      8.383339E-7,
      2.485833E-6,
      -4.741247E-6,
      -0.04385893,
      -2.9837763E-6,
      -2.7510296E-6,
      -0.15423302,
      1.0169227E-8,
      4.657882E-6,
      2.1276396E-6,
      0.018321825,
      2.173709E-6,
      5.2812464E-7,
      0.0934172,
      -1.2681626E-6,
      1.4015811E-6,
      2.20212E-6,
      -3.1863622E-6,
      -5.1707445E-7,
      -2.7986752E-7,
      -1.0475386E-6,
      -0.08219531,
      -2.7840283E-6,
      -2.6244996E-7,
      -5.2574424E-6,
      -2.650329E-7,
      2.077294E-6,
      -2.2726097E-6,
      -0.014857156,
      -9.499265E-7,
      -7.100401E-7,
      -0.105325475,
      -2.831381E-9,
      8.160448E-7,
      0.03667799,
      7.136933E-7,
      4.708602E-7,
      5.0067496E-7,
      0.06836025,
      7.889997E-6,
      3.7523583E-7,
      2.069612E-6,
      -0.042799823,
      -7.4641315E-7,
      -1.3241788E-7,
      5.58919E-7,
      -8.5393275E-8,
      -2.6499887E-7,
      1.1737818E-8,
      2.6171898E-7,
      5.5488303E-9,
      -2.1007693E-6,
      -1.1746995E-6,
      -0.08476201,
      -2.0747925E-6,
      0.044488374,
      -0.0333477,
      -4.090285E-9,
      -2.4376855E-6,
      0.061824493,
      -5.1966085E-6,
      2.0452916E-8,
      2.3669416E-7,
      -1.2047606E-7,
      0.0053439364,
      4.8018865E-7,
      1.304424E-6,
      -0.008502425,
      -7.337717E-10,
      4.757826E-9,
      -5.371029E-9,
      1.8326181E-9,
      -1.8065958E-9,
      8.005981E-9,
      4.151426E-8,
      2.0005375E-9,
      -3.787085E-7,
      -9.2626703E-7,
      -2.308403E-7,
      -0.003102127,
      5.9520232E-8,
      4.546221E-9,
      -3.365553E-9,
      1.433752E-6,
      0.06947256,
      -3.9300835E-6,
      1.5675969E-8,
      3.8947118E-8,
      -1.6648925E-6,
      9.873031E-7,
      -2.540083E-7,
      1.345053E-7,
      -8.4264196E-10,
      4.7913584E-9,
      5.4983342E-9,
      -2.8477563E-9,
      -5.1284568E-9,
      -1.3101005E-9,
      -2.691722E-9,
      1.1579875E-9,
      5.3002727E-9,
      -4.3661748E-7,
      -1.5876251E-9,
      -3.00339E-9,
      4.193781E-9,
      -5.533222E-9,
      4.8738604E-9,
      -2.964375E-9,
      2.0478705E-8,
      -1.5214597E-7,
      2.1525226E-10,
      -5.1911417E-8,
      -3.9719428E-9,
      -2.2195944E-7,
      -1.8280112E-7,
      -2.4315062E-7,
      -4.941357E-9,
      -9.904113E-10,
      -2.491337E-9,
      4.3513637E-9,
      -3.4426315E-9,
      -2.1101303E-9,
      -4.216673E-9,
      4.348725E-9,
      5.2354854E-9,
      -4.1500745E-9,
      -1.9188402E-9,
      5.1554885E-9,
      -1.341018E-9,
      4.956654E-9,
      2.31136E-9,
      6.262857E-11,
      -1.3173049E-9,
      6.061347E-9,
      -3.9335335E-10,
      -5.3228244E-9,
      -1.0854251E-10,
      -8.7893914E-10,
      -2.0032482E-9,
      -4.001834E-9,
      -5.207725E-9,
      -3.7563184E-9,
      -3.807888E-9,
      -2.1368303E-9,
      -4.459233E-11,
      1.4247306E-9,
      -2.6885703E-9,
      5.07885E-9,
      4.2444936E-9,
      3.5795336E-9,
      -3.067009E-10,
      3.997544E-9,
      7.79671E-10,
      4.9985482E-9,
      1.1395591E-9,
      3.4360337E-10,
      -5.3629727E-9,
      -5.3277835E-9,
      -5.3497224E-9,
      -3.3294238E-9,
      -1.13454135E-10,
      -4.0777732E-9,
      -3.5256043E-9,
      -4.193973E-9,
      4.606609E-9,
      -9.333707E-10,
      3.0289056E-9,
      -5.0475113E-9,
      -4.7807878E-9,
      4.772026E-9,
      4.771074E-9,
      -4.782139E-9,
      -5.027976E-9,
      4.7824162E-9,
      6.1978955E-10,
      4.7837436E-9,
      -4.7720468E-9,
      4.7829625E-9,
      9.696288E-11,
      -4.781926E-9,
      -4.7813917E-9,
      4.7806954E-9,
      4.783388E-9,
      4.787302E-9,
      4.7739723E-9,
      -4.770118E-9,
      5.04841E-9,
      4.7758126E-9,
      -4.7841064E-9,
      -4.7699156E-9,
      1.0186101E-9,
      -4.779774E-9,
      -3.2938585E-9,
      -2.3787385E-9,
      -2.3361744E-9,
      4.4614605E-9,
      5.045734E-9,
      -3.1902094E-9,
      -5.75866E-9,
      5.1873092E-9,
      3.2865386E-9,
      -5.696816E-9,
      1.701177E-10,
      4.4019197E-9,
      -3.8642214E-9,
      2.5195264E-9,
      -3.7833234E-9,
      -8.996581E-10,
      -5.676976E-9,
      -2.633107E-9,
      -1.5818364E-9,
      1.5187478E-9,
      -2.7732838E-9,
      -4.453062E-9,
      2.6393714E-9,
      -4.7768505E-9,
      4.339167E-9,
      2.7447324E-9,
      5.9732024E-9,
      -5.6955067E-9,
      5.2404268E-9,
      4.889404E-9,
      9.693899E-10,
      4.3624153E-9,
      -3.4010226E-9,
      2.209179E-9,
      6.801275E-10,
      4.8670064E-9,
      4.0786166E-9,
      -1.4685608E-9,
      -1.6989121E-10,
      -4.191991E-9,
      1.0655121E-10,
      -2.2358972E-9,
      3.6764272E-9,
      6.393188E-10,
      -3.6109928E-9,
      3.0623726E-10,
      1.5120687E-9,
      -2.3462565E-10,
      -4.688044E-9,
      2.5595583E-9,
      -6.162266E-10,
      3.6105563E-9,
      -7.695453E-10,
      1.2196035E-9,
      -8.7012664E-10,
      -5.0265756E-9,
      8.6069996E-10,
      3.7954218E-9,
      3.8378065E-9,
      1.5837941E-7,
      4.2785917E-9,
      1.1210659E-9,
      3.360526E-9,
      4.978732E-9,
      -4.0389407E-9,
      -5.3026947E-9,
      -3.2274823E-9,
      4.121462E-9,
      -3.0720484E-9,
      1.3233228E-9,
      -9.168222E-7,
      -3.1849419E-9,
      -2.8791418E-9,
      -5.7159477E-10,
      4.004788E-9,
      1.4454433E-9,
      1.8124807E-8,
      4.992378E-9,
      7.518879E-10,
      3.835691E-9,
      2.3850166E-10,
      2.8054412E-9,
      -1.8458381E-9,
      -1.2683058E-8,
      -4.025619E-9,
      1.0489507E-9,
      2.8601337E-6,
      4.7251705E-9,
      -1.9666056E-6,
      -4.9168962E-9,
      3.0767215E-9,
      -1.0420903E-7,
      -9.774062E-10,
      -2.7113871E-9,
      -1.2482566E-9,
      -1.8819849E-6,
      -2.3640645E-10,
      5.535953E-9,
      -1.7083361E-9,
      -4.2233808E-9,
      -1.0100231E-6,
      -3.76285E-7,
      -1.2397874E-9,
      9.98485E-7,
      1.2471767E-7,
      0.014457008,
      -4.9151616E-9,
      -1.4627044E-6,
      -1.7639735E-7,
      -7.7347534E-7,
      3.0057856E-7,
      -5.44896E-7,
      1.0598324E-7,
      -1.1934964E-9,
      5.7855145E-6,
      -5.282603E-9,
      5.331155E-9,
      -2.5268516E-6,
      -1.5440245E-6,
      2.6063152E-10,
      -7.214657E-8,
      1.924219E-9,
      -2.6913815E-6,
      -3.152385E-6,
      -3.1202774E-10,
      -1.7266701E-7,
      -1.5368147E-6,
      -8.156445E-8,
      2.2378686E-6,
      1.9517556E-6,
      5.26857E-4,
      3.3286332E-7,
      -3.37993E-6,
      1.4607579E-7,
      -1.7182939E-6,
      4.1896192E-7,
      -1.4888376E-6,
      3.810409E-8,
      -7.300063E-10,
      0.10365879,
      4.285011E-9,
      2.1377133E-7,
      -0.034800764,
      -0.04689829,
      9.923199E-7,
      1.2640347E-6,
      -1.7029234E-7,
      -0.02554163,
      -3.8235053E-6,
      4.0095793E-9,
      -4.1571175E-6,
      -2.2366512E-6,
      -3.115126E-9,
      1.7269577E-6,
      2.2750212E-6,
      3.690337E-4,
      1.6788874E-8,
      -0.015704092,
      7.03328E-7,
      -0.0056352094,
      4.5393104E-8,
      3.2357383E-9,
      -1.3217007E-6,
      -3.3926403E-7,
      0.04331227,
      1.7963991E-7,
      2.4466333E-6,
      -0.033544946,
      -7.0293163E-7,
      6.163768E-7,
      3.2442774E-6,
      -2.267203E-6,
      -0.0036522849,
      -2.6604305E-6,
      6.8416614E-7,
      -0.027307317,
      -3.9171146E-6,
      3.8136568E-5,
      7.4064606E-6,
      4.4407466E-6,
      6.6964317E-6,
      -1.204466E-7,
      -0.04774504,
      2.0733408E-7,
      -0.27812567,
      4.089212E-6,
      -6.1247437E-7,
      -2.9137564E-6,
      0.029437045,
      2.3990535E-6,
      1.597456E-7,
      9.578906E-6,
      -0.025529489,
      9.860105E-7,
      -9.459911E-7,
      1.345531E-7,
      -2.3448847E-6,
      -0.020515587,
      7.995015E-7,
      2.0641544E-6,
      -0.026531769,
      1.15362845E-7,
      0.01912716,
      3.4641093E-6,
      3.600049E-6,
      -1.141022E-6,
      -1.6191848E-7,
      -0.020079162,
      -0.0020373208,
      -0.100304246,
      0.0050792345,
      -3.4727045E-6,
      -0.12062028,
      0.016630866,
      5.6634394E-6,
      6.515862E-8,
      0.0049325568,
      -8.869831E-6,
      1.4246727E-6,
      -1.4157409E-7,
      1.6853955E-6,
      3.849843E-7,
      -7.365682E-4,
      4.6690843E-6,
      0.029646493,
      -8.23025E-6,
      -1.9965971E-6,
      1.3484505E-6,
      -0.00870673,
      0.0078210635,
      -0.008548,
      -1.5813654E-8,
      -1.12129155E-5,
      -0.020493176,
      -0.013186671,
      2.2649687E-7,
      5.703519E-7,
      -8.02638E-6,
      5.177199E-6,
      0.021327417,
      -7.411841E-8,
      0.13784304,
      -0.017527329,
      4.028225E-6,
      -0.0104181655,
      2.8775664E-6,
      6.9621988E-6,
      -1.9191132E-6,
      1.9188967E-6,
      1.0969519E-6,
      -0.0020689126,
      -6.084429E-6,
      -4.4379038E-7,
      -1.2856623E-6,
      0.0140153915,
      -0.04495127,
      7.681926E-6,
      -1.151734E-5,
      -4.103847E-6,
      -4.9725295E-6,
      -0.031425398,
      -1.7413417E-6,
      -3.236878E-6,
      6.163089E-6,
      0.048961,
      -1.0060047E-7,
      0.017461907,
      -1.463423E-5,
      0.0101429885,
      1.6769858E-6,
      3.4461675E-6,
      7.134034E-6,
      1.9257247E-6,
      0.026071055,
      -2.6045223E-7,
      -0.009620224,
      -5.592062E-6,
      -0.10890806,
      8.237844E-7,
      -6.0225743E-6,
      -0.005249759,
      9.504602E-7,
      -2.653976E-6,
      1.9251793E-8,
      -1.6584618E-6,
      -9.918749E-6,
      -0.0059806397,
      -2.1219314E-6,
      0.009425943,
      0.010763558,
      -1.381702E-7,
      2.938315E-6,
      -1.3852614E-5,
      6.6062053E-6,
      -0.010945445,
      2.5020345E-6,
      0.009415135,
      0.0032969492,
      0.051227137,
      -4.2818786E-7,
      -0.041073687,
      -9.306358E-6,
      -0.40037996,
      1.963563E-5,
      -2.0310554E-5,
      -0.01942699,
      0.046549812,
      0.06758873,
      5.08821E-8,
      -0.060383193,
      -0.06380691,
      -0.027824689,
      3.6250174E-6,
      1.4420274E-5,
      0.02491021,
      -2.2294799E-7,
      0.06354724,
      -0.015446203,
      0.007823485,
      5.8867073E-7,
      0.006952795,
      0.013892293,
      5.355993E-6,
      5.279416E-6,
      -2.6026673E-6,
      -0.005263591,
      -4.3660557E-6,
      -0.005165031,
      0.010818329,
      0.008902227,
      9.6344365E-6,
      6.0567377E-6,
      1.1849326E-5,
      -0.0025837624,
      -0.014258761,
      -0.07551793,
      -3.6592153E-6,
      2.4712851E-6,
      0.01250783,
      0.013439349,
      -3.597877E-7,
      3.7791563E-6,
      -1.3591805E-5,
      1.4303893E-5,
      5.789773E-6,
      0.1211088,
      1.6358948E-5,
      0.010945958,
      0.03822988,
      -3.968172E-6,
      -0.027468834,
      -3.8302856E-6,
      0.009365324,
      0.04732752,
      2.2736469E-5,
      2.283757E-5,
      -4.354973E-7,
      0.014632022,
      -0.03963391,
      -0.014772068,
      -0.21793944,
      0.012992095,
      5.4485117E-6,
      0.057479538,
      0.029004369,
      -3.0552397E-7,
      5.278778E-6,
      -6.929019E-6,
      0.009170706,
      1.23135E-5,
      0.032992795,
      1.26877E-5,
      -1.2681271E-6,
      1.9810146E-5,
      -4.5402294E-6,
      -0.0024378176,
      -1.07715705E-5,
      0.15278949,
      -2.1365979E-5,
      0.09895374,
      2.6094971E-5,
      -1.1412478E-6,
      -1.591325E-5,
      -6.6387E-6,
      -0.0054350323,
      -0.22066562,
      0.011334419,
      -9.4879E-7,
      8.417887E-6,
      0.002007837,
      -1.1182077E-7,
      4.354703E-6,
      -1.2515597E-5,
      -2.2977568E-7,
      0.004347028,
      7.287632E-6,
      0.0739067,
      -6.242872E-6,
      0.16350967,
      -2.2887164E-6,
      -7.0464256E-4,
      -4.459534E-6,
      0.10952451,
      1.1002786E-5,
      0.043910563,
      -0.016286913,
      7.4514323E-6,
      -0.01368953,
      -4.764506E-7,
      -2.0154981E-5,
      -0.078441426,
      7.63631E-6,
      9.236591E-6,
      -3.2630493E-7,
      -0.025063684,
      6.7740054E-8,
      0.0065035424,
      3.696081E-6,
      1.5631374E-5,
      2.5770705E-6,
      0.032698978,
      0.078347005,
      0.0038334683,
      0.056730226,
      -2.2274394E-6,
      -0.024891982,
      -6.077232E-6,
      8.868789E-6,
      0.019408226,
      0.09249473,
      -0.0085164,
      2.0093314E-7,
      -0.06868134,
      4.1929843E-6,
      1.6417125E-6,
      -0.112750426,
      -5.9655167E-6,
      1.6994409E-5,
      -6.0280386E-6,
      -0.018726246,
      2.8100223E-7,
      0.011950848,
      0.04908604,
      5.9625863E-6,
      6.309983E-6,
      5.285167E-6,
      0.009205831,
      6.288615E-6,
      1.0014852E-5,
      -0.01911191,
      -1.5485082E-5,
      -0.002791306,
      9.1513994E-7,
      0.0152402725,
      -1.2697833E-6,
      -0.08896482,
      4.985542E-7,
      -0.010677333,
      5.0466824E-6,
      -0.0023185178,
      -7.417971E-7,
      -0.01031274,
      -2.415961E-7,
      -3.9577435E-6,
      -0.02751618,
      2.4243266E-7,
      0.023277437,
      -3.6774604E-6,
      0.04167405,
      4.0451837E-6,
      3.912562E-6,
      5.6414465E-6,
      -5.3596727E-6,
      4.2404918E-6,
      -2.9528296E-6,
      -9.909002E-6,
      -0.01939979,
      -7.5688916E-7,
      1.4127836E-6,
      6.6329775E-8,
      3.3390117E-7,
      -2.2105789E-7,
      -0.026140898,
      4.2468373E-6,
      -3.819769E-6,
      -3.6705748E-7,
      -0.0671399,
      -6.0897733E-6,
      5.918981E-6,
      -0.024976898,
      5.9357458E-8,
      3.223361E-6,
      2.5566303E-6,
      2.9044456E-6,
      0.004186581,
      0.031211091,
      0.03145846,
      -1.15728635E-5,
      1.5660819E-6,
      -7.5501276E-7,
      0.019191109,
      -0.08510946,
      -7.230238E-7,
      -2.3399666E-6,
      -6.7780165E-6,
      -1.0428595E-6,
      -5.6297233E-7,
      -4.501935E-6,
      8.294718E-7,
      -6.370255E-6,
      -1.1748836E-6,
      -0.06889469,
      -1.1749968E-6,
      0.0058270255,
      -7.4107406E-6,
      6.3208283E-9,
      0.006611466,
      0.007871568,
      8.3849494E-7,
      4.226221E-6,
      2.7227902E-6,
      0.034001734,
      1.1220338E-5,
      5.102196E-7,
      1.278378E-6,
      -7.5161806E-6,
      -0.023241796,
      -3.6801762E-7,
      0.019574787,
      -0.10926325,
      -2.1075389E-6,
      -1.5955013E-7,
      -4.1286385E-6,
      4.4853465E-7,
      -0.00789992,
      -6.4812014E-7,
      -1.5153275E-6,
      6.972911E-7,
      5.9335466E-6,
      -0.107711375,
      4.166173E-9,
      2.619282E-6,
      2.52054E-6,
      3.3338892E-4,
      7.355734E-7,
      0.0076683387,
      4.5977703E-7,
      0.010668378,
      -2.1547098E-6,
      1.9692523E-6,
      -0.020790963,
      -3.1205464E-6,
      2.002478E-7,
      6.530404E-4,
      -0.12295435,
      -3.7168322E-6,
      -3.6853223E-8,
      1.7285203E-6,
      4.5444633E-8,
      -3.8164053E-6,
      -6.981068E-8,
      -4.5646894E-7,
      -1.0442232E-6,
      9.722925E-7,
      -9.4044344E-7,
      6.4992456E-12,
      7.6683403E-7,
      0.003801416,
      0.06512328,
      1.7628074E-7,
      8.2405194E-7,
      -1.9624931E-6,
      9.428627E-7,
      -6.3271284E-7,
      1.2633541E-6,
      -1.1392218E-6,
      -1.2592735E-6,
      2.100661E-9,
      6.3371925E-7,
      -6.2351654E-7,
      -0.020782461,
      7.213327E-9,
      1.762894E-6,
      -5.297429E-9,
      -0.110417664,
      1.5797796E-7,
      -7.7485225E-8,
      -0.057446104,
      1.605971E-7,
      -5.012417E-7,
      5.321443E-9,
      4.5379613E-7,
      0.08752437,
      4.4623184E-7,
      -2.3789504E-10,
      1.616333E-8,
      -2.1897754E-6,
      8.382804E-8,
      -5.5490716E-7,
      1.8424552E-6,
      -3.331412E-9,
      5.312455E-9,
      -8.223453E-10,
      -4.858978E-9,
      5.579352E-9,
      -2.818177E-7,
      -4.1603547E-9,
      5.829854E-7,
      -3.75435E-9,
      -7.902376E-7,
      2.2513196E-9,
      2.6554723E-9,
      -3.0247517E-7,
      -4.01758E-9,
      -4.665271E-9,
      9.523706E-10,
      -4.5970143E-9,
      -3.45835E-9,
      1.0720561E-7,
      -2.3534209E-7,
      2.9317748E-9,
      -1.3426605E-6,
      -2.5349453E-7,
      -5.3840733E-7,
      9.266911E-9,
      3.7836925E-9,
      -5.7574487E-9,
      2.5465368E-9,
      5.149566E-9,
      5.184949E-9,
      1.321872E-9,
      2.3550797E-9,
      -1.8043291E-9,
      -4.50188E-9,
      -1.2536461E-10,
      -1.6211876E-10,
      -2.7831732E-9,
      -5.5510037E-9,
      -5.510703E-9,
      2.7284308E-9,
      1.6911113E-9,
      -6.978462E-11,
      -4.769667E-9,
      -2.15976E-9,
      4.0895887E-9,
      -1.9971091E-9,
      -5.093449E-9,
      -1.3684254E-10,
      -5.9907252E-9,
      2.5699292E-9,
      3.2291068E-9,
      3.3473175E-9,
      -3.0253264E-9,
      4.4779838E-9,
      -1.6637705E-9,
      4.1953063E-10,
      4.4961364E-9,
      3.8771564E-9,
      -3.2779304E-9,
      -3.8782746E-9,
      1.1774741E-9,
      -3.138918E-9,
      4.254493E-9,
      -5.7551013E-9,
      5.45951E-9,
      3.9688532E-9,
      2.7358635E-9,
      4.6171533E-9,
      1.6485702E-10,
      -5.370098E-9,
      -5.774847E-10,
      -3.242211E-10,
      -9.9458664E-11,
      1.6294219E-9,
      2.6639424E-9,
      -5.4224176E-9,
      2.5399278E-9,
      -5.6063465E-9,
      -2.9188496E-9,
      -1.5305401E-10,
      -5.24106E-9,
      3.5879806E-9,
      -1.0923835E-9,
      2.6352307E-9,
      -3.32816E-9,
      5.0765934E-9,
      2.372626E-9,
      5.2279687E-9,
      2.7294793E-9,
      -6.3597394E-10,
      3.8479353E-9,
      4.357614E-9,
      -3.297984E-10,
      3.9905634E-9,
      -1.0799912E-9,
      -2.0137794E-9,
      -1.1470518E-9,
      3.810378E-9,
      -3.3012486E-9,
      -3.7814933E-9,
      -5.3497353E-9,
      -9.485213E-10,
      3.7466816E-9,
      -9.342402E-10,
      3.650662E-9,
      5.7957137E-9,
      -5.671782E-9,
      1.0441292E-10,
      3.4086556E-9,
      -3.794396E-9,
      5.5087934E-10,
      -9.97876E-10,
      2.8249458E-9,
      2.9732425E-9,
      -3.498752E-9,
